<?xml version="1.0"?>
<opencv_storage>
<cascade>
  <stageType>BOOST</stageType>
  <featureType>HAAR</featureType>
  <height>20</height>
  <width>20</width>
  <stageParams>
    <boostType>GAB</boostType>
    <minHitRate>9.9989998340606689e-01</minHitRate>
    <maxFalseAlarm>5.0000000000000000e-01</maxFalseAlarm>
    <weightTrimRate>9.4999999999999996e-01</weightTrimRate>
    <maxDepth>1</maxDepth>
    <maxWeakCount>100</maxWeakCount></stageParams>
  <featureParams>
    <maxCatCount>0</maxCatCount>
    <featSize>1</featSize>
    <mode>BASIC</mode></featureParams>
  <stageNum>8</stageNum>
  <stages>
    <!-- stage 0 -->
    <_>
      <maxWeakCount>6</maxWeakCount>
      <stageThreshold>-1.9838064908981323e+00</stageThreshold>
      <weakClassifiers>
        <_>
          <internalNodes>
            0 -1 37 -6.1722930520772934e-02</internalNodes>
          <leafValues>
            8.6834889650344849e-01 -4.9532711505889893e-01</leafValues></_>
        <_>
          <internalNodes>
            0 -1 5 -1.5398512594401836e-02</internalNodes>
          <leafValues>
            7.8306233882904053e-01 -5.5841469764709473e-01</leafValues></_>
        <_>
          <internalNodes>
            0 -1 190 4.1431076824665070e-03</internalNodes>
          <leafValues>
            -5.8723551034927368e-01 7.2187691926956177e-01</leafValues></_>
        <_>
          <internalNodes>
            0 -1 81 -1.0487671243026853e-03</internalNodes>
          <leafValues>
            5.4596865177154541e-01 -7.2392159700393677e-01</leafValues></_>
        <_>
          <internalNodes>
            0 -1 144 8.7003223598003387e-03</internalNodes>
          <leafValues>
            -5.4059857130050659e-01 6.8247407674789429e-01</leafValues></_>
        <_>
          <internalNodes>
            0 -1 56 8.5446611046791077e-02</internalNodes>
          <leafValues>
            -3.8742148876190186e-01 7.5161778926849365e-01</leafValues></_></weakClassifiers></_>
    <!-- stage 1 -->
    <_>
      <maxWeakCount>12</maxWeakCount>
      <stageThreshold>-2.0128641128540039e+00</stageThreshold>
      <weakClassifiers>
        <_>
          <internalNodes>
            0 -1 92 -4.1229617781937122e-03</internalNodes>
          <leafValues>
            7.7398926019668579e-01 -6.2196409702301025e-01</leafValues></_>
        <_>
          <internalNodes>
            0 -1 137 2.4472374469041824e-02</internalNodes>
          <leafValues>
            -5.9989851713180542e-01 6.8665134906768799e-01</leafValues></_>
        <_>
          <internalNodes>
            0 -1 18 -9.0225599706172943e-03</internalNodes>
          <leafValues>
            6.2401074171066284e-01 -4.9311196804046631e-01</leafValues></_>
        <_>
          <internalNodes>
            0 -1 190 7.7107627876102924e-03</internalNodes>
          <leafValues>
            -4.3939429521560669e-01 6.5355849266052246e-01</leafValues></_>
        <_>
          <internalNodes>
            0 -1 79 -2.8504617512226105e-03</internalNodes>
          <leafValues>
            4.8623394966125488e-01 -5.5898320674896240e-01</leafValues></_>
        <_>
          <internalNodes>
            0 -1 34 3.2647155225276947e-02</internalNodes>
          <leafValues>
            -4.9808311462402344e-01 5.1588833332061768e-01</leafValues></_>
        <_>
          <internalNodes>
            0 -1 28 9.3204770237207413e-03</internalNodes>
          <leafValues>
            2.1412330865859985e-01 -6.7946177721023560e-01</leafValues></_>
        <_>
          <internalNodes>
            0 -1 87 -1.6740948194637895e-04</internalNodes>
          <leafValues>
            2.8908067941665649e-01 -4.9106717109680176e-01</leafValues></_>
        <_>
          <internalNodes>
            0 -1 166 -6.3177691772580147e-03</internalNodes>
          <leafValues>
            4.8838099837303162e-01 -2.7656036615371704e-01</leafValues></_>
        <_>
          <internalNodes>
            0 -1 24 -6.9293072447180748e-03</internalNodes>
          <leafValues>
            3.3024826645851135e-01 -3.9187648892402649e-01</leafValues></_>
        <_>
          <internalNodes>
            0 -1 131 -2.1147360093891621e-03</internalNodes>
          <leafValues>
            -7.7205830812454224e-01 1.6342845559120178e-01</leafValues></_>
        <_>
          <internalNodes>
            0 -1 64 -4.5476033119484782e-04</internalNodes>
          <leafValues>
            2.1318130195140839e-01 -5.3415572643280029e-01</leafValues></_></weakClassifiers></_>
    <!-- stage 2 -->
    <_>
      <maxWeakCount>19</maxWeakCount>
      <stageThreshold>-1.7002199888229370e+00</stageThreshold>
      <weakClassifiers>
        <_>
          <internalNodes>
            0 -1 72 -7.4547668918967247e-03</internalNodes>
          <leafValues>
            7.4588477611541748e-01 -4.2613637447357178e-01</leafValues></_>
        <_>
          <internalNodes>
            0 -1 183 -6.5465141087770462e-03</internalNodes>
          <leafValues>
            6.5633565187454224e-01 -5.1488441228866577e-01</leafValues></_>
        <_>
          <internalNodes>
            0 -1 20 -7.1357078850269318e-03</internalNodes>
          <leafValues>
            5.9565091133117676e-01 -5.1639747619628906e-01</leafValues></_>
        <_>
          <internalNodes>
            0 -1 82 -3.0558111611753702e-03</internalNodes>
          <leafValues>
            4.2367586493492126e-01 -6.0503840446472168e-01</leafValues></_>
        <_>
          <internalNodes>
            0 -1 125 5.9602539986371994e-03</internalNodes>
          <leafValues>
            -4.3447121977806091e-01 5.2609854936599731e-01</leafValues></_>
        <_>
          <internalNodes>
            0 -1 166 -4.7441786155104637e-03</internalNodes>
          <leafValues>
            4.4270512461662292e-01 -3.8090762495994568e-01</leafValues></_>
        <_>
          <internalNodes>
            0 -1 1 -2.1710658073425293e-01</internalNodes>
          <leafValues>
            5.4157924652099609e-01 -2.2887784242630005e-01</leafValues></_>
        <_>
          <internalNodes>
            0 -1 158 5.6331709492951632e-04</internalNodes>
          <leafValues>
            2.2946831583976746e-01 -5.4288494586944580e-01</leafValues></_>
        <_>
          <internalNodes>
            0 -1 113 8.3527166862040758e-04</internalNodes>
          <leafValues>
            2.2012104094028473e-01 -4.8306077718734741e-01</leafValues></_>
        <_>
          <internalNodes>
            0 -1 60 -2.2323604673147202e-02</internalNodes>
          <leafValues>
            -5.5909538269042969e-01 1.9445680081844330e-01</leafValues></_>
        <_>
          <internalNodes>
            0 -1 10 -1.0555164190009236e-03</internalNodes>
          <leafValues>
            2.5289320945739746e-01 -4.2832756042480469e-01</leafValues></_>
        <_>
          <internalNodes>
            0 -1 157 1.0054049780592322e-03</internalNodes>
          <leafValues>
            2.3813645541667938e-01 -4.3605670332908630e-01</leafValues></_>
        <_>
          <internalNodes>
            0 -1 55 3.2436002045869827e-02</internalNodes>
          <leafValues>
            1.3547316193580627e-01 -6.4142900705337524e-01</leafValues></_>
        <_>
          <internalNodes>
            0 -1 129 -1.5245688846334815e-03</internalNodes>
          <leafValues>
            2.5638931989669800e-01 -3.3876317739486694e-01</leafValues></_>
        <_>
          <internalNodes>
            0 -1 99 3.0792118050158024e-03</internalNodes>
          <leafValues>
            1.1765490472316742e-01 -6.9743388891220093e-01</leafValues></_>
        <_>
          <internalNodes>
            0 -1 100 6.7263864912092686e-03</internalNodes>
          <leafValues>
            -1.5902943909168243e-01 5.9267592430114746e-01</leafValues></_>
        <_>
          <internalNodes>
            0 -1 67 1.5587215311825275e-03</internalNodes>
          <leafValues>
            1.7993590235710144e-01 -6.4035069942474365e-01</leafValues></_>
        <_>
          <internalNodes>
            0 -1 6 -3.2644770108163357e-03</internalNodes>
          <leafValues>
            2.8043007850646973e-01 -3.6747136712074280e-01</leafValues></_>
        <_>
          <internalNodes>
            0 -1 186 3.1205131672322750e-03</internalNodes>
          <leafValues>
            -1.3582666218280792e-01 6.4619010686874390e-01</leafValues></_></weakClassifiers></_>
    <!-- stage 3 -->
    <_>
      <maxWeakCount>24</maxWeakCount>
      <stageThreshold>-1.9837228059768677e+00</stageThreshold>
      <weakClassifiers>
        <_>
          <internalNodes>
            0 -1 147 8.5867466405034065e-03</internalNodes>
          <leafValues>
            -3.2580363750457764e-01 7.4364519119262695e-01</leafValues></_>
        <_>
          <internalNodes>
            0 -1 188 6.3433456234633923e-03</internalNodes>
          <leafValues>
            -5.2245575189590454e-01 5.2013921737670898e-01</leafValues></_>
        <_>
          <internalNodes>
            0 -1 51 -3.1039582565426826e-02</internalNodes>
          <leafValues>
            4.3298605084419250e-01 -5.9678000211715698e-01</leafValues></_>
        <_>
          <internalNodes>
            0 -1 82 -7.8777372837066650e-03</internalNodes>
          <leafValues>
            5.7471811771392822e-01 -4.3516016006469727e-01</leafValues></_>
        <_>
          <internalNodes>
            0 -1 22 5.3692650981247425e-03</internalNodes>
          <leafValues>
            -4.1227895021438599e-01 4.6341341733932495e-01</leafValues></_>
        <_>
          <internalNodes>
            0 -1 35 9.3821771442890167e-03</internalNodes>
          <leafValues>
            -3.9066979289054871e-01 4.0155270695686340e-01</leafValues></_>
        <_>
          <internalNodes>
            0 -1 111 2.7037569088861346e-04</internalNodes>
          <leafValues>
            -4.7539070248603821e-01 2.0784102380275726e-01</leafValues></_>
        <_>
          <internalNodes>
            0 -1 177 2.1957603166811168e-04</internalNodes>
          <leafValues>
            -3.2608664035797119e-01 2.4180614948272705e-01</leafValues></_>
        <_>
          <internalNodes>
            0 -1 126 3.9100414142012596e-03</internalNodes>
          <leafValues>
            -2.4878084659576416e-01 3.5677245259284973e-01</leafValues></_>
        <_>
          <internalNodes>
            0 -1 32 -2.0630029961466789e-02</internalNodes>
          <leafValues>
            -6.0643231868743896e-01 1.4069654047489166e-01</leafValues></_>
        <_>
          <internalNodes>
            0 -1 107 -1.0413320735096931e-02</internalNodes>
          <leafValues>
            -5.4019665718078613e-01 1.6326449811458588e-01</leafValues></_>
        <_>
          <internalNodes>
            0 -1 17 -2.8061103075742722e-03</internalNodes>
          <leafValues>
            2.4684053659439087e-01 -3.3707815408706665e-01</leafValues></_>
        <_>
          <internalNodes>
            0 -1 146 -2.1470598876476288e-02</internalNodes>
          <leafValues>
            2.5671410560607910e-01 -3.3710044622421265e-01</leafValues></_>
        <_>
          <internalNodes>
            0 -1 27 4.6412823721766472e-03</internalNodes>
          <leafValues>
            1.7802424728870392e-01 -5.0949770212173462e-01</leafValues></_>
        <_>
          <internalNodes>
            0 -1 52 -3.9800303056836128e-03</internalNodes>
          <leafValues>
            2.6371613144874573e-01 -2.8122767806053162e-01</leafValues></_>
        <_>
          <internalNodes>
            0 -1 98 -2.2645734250545502e-02</internalNodes>
          <leafValues>
            6.7546761035919189e-01 -1.1722017824649811e-01</leafValues></_>
        <_>
          <internalNodes>
            0 -1 187 -5.1843076944351196e-03</internalNodes>
          <leafValues>
            2.2812829911708832e-01 -3.8901039958000183e-01</leafValues></_>
        <_>
          <internalNodes>
            0 -1 54 -6.8659476935863495e-02</internalNodes>
          <leafValues>
            -7.6495492458343506e-01 8.5301384329795837e-02</leafValues></_>
        <_>
          <internalNodes>
            0 -1 151 -1.1637253686785698e-02</internalNodes>
          <leafValues>
            5.1483321189880371e-01 -1.6204419732093811e-01</leafValues></_>
        <_>
          <internalNodes>
            0 -1 83 -1.7923086415976286e-03</internalNodes>
          <leafValues>
            2.4095562100410461e-01 -3.1999486684799194e-01</leafValues></_>
        <_>
          <internalNodes>
            0 -1 31 2.0367477089166641e-02</internalNodes>
          <leafValues>
            9.4041943550109863e-02 -7.5458461046218872e-01</leafValues></_>
        <_>
          <internalNodes>
            0 -1 25 1.7721414566040039e-02</internalNodes>
          <leafValues>
            1.1300278455018997e-01 -5.8327901363372803e-01</leafValues></_>
        <_>
          <internalNodes>
            0 -1 48 9.3610715121030807e-03</internalNodes>
          <leafValues>
            1.4685143530368805e-01 -4.7258418798446655e-01</leafValues></_>
        <_>
          <internalNodes>
            0 -1 63 4.3905584607273340e-04</internalNodes>
          <leafValues>
            1.5363737940788269e-01 -4.5182073116302490e-01</leafValues></_></weakClassifiers></_>
    <!-- stage 4 -->
    <_>
      <maxWeakCount>30</maxWeakCount>
      <stageThreshold>-1.9385030269622803e+00</stageThreshold>
      <weakClassifiers>
        <_>
          <internalNodes>
            0 -1 89 -1.8648318946361542e-02</internalNodes>
          <leafValues>
            6.3912630081176758e-01 -3.8702461123466492e-01</leafValues></_>
        <_>
          <internalNodes>
            0 -1 167 -6.3930889591574669e-03</internalNodes>
          <leafValues>
            5.2725905179977417e-01 -4.8854056000709534e-01</leafValues></_>
        <_>
          <internalNodes>
            0 -1 19 -7.0668971166014671e-03</internalNodes>
          <leafValues>
            3.9707270264625549e-01 -5.4349136352539063e-01</leafValues></_>
        <_>
          <internalNodes>
            0 -1 92 -1.0318746790289879e-02</internalNodes>
          <leafValues>
            4.8880872130393982e-01 -3.7504693865776062e-01</leafValues></_>
        <_>
          <internalNodes>
            0 -1 182 -8.4045408293604851e-03</internalNodes>
          <leafValues>
            4.7603124380111694e-01 -3.4083095192909241e-01</leafValues></_>
        <_>
          <internalNodes>
            0 -1 116 1.8977912841364741e-03</internalNodes>
          <leafValues>
            1.4902320504188538e-01 -6.7610514163970947e-01</leafValues></_>
        <_>
          <internalNodes>
            0 -1 68 2.1116374991834164e-03</internalNodes>
          <leafValues>
            -3.7888067960739136e-01 3.0033853650093079e-01</leafValues></_>
        <_>
          <internalNodes>
            0 -1 148 1.2740150094032288e-02</internalNodes>
          <leafValues>
            1.4503139257431030e-01 -7.1252852678298950e-01</leafValues></_>
        <_>
          <internalNodes>
            0 -1 77 -3.1434737611562014e-03</internalNodes>
          <leafValues>
            -5.0341308116912842e-01 1.5983009338378906e-01</leafValues></_>
        <_>
          <internalNodes>
            0 -1 121 -5.6566752027720213e-04</internalNodes>
          <leafValues>
            2.3356078565120697e-01 -4.0516248345375061e-01</leafValues></_>
        <_>
          <internalNodes>
            0 -1 46 2.5430805981159210e-03</internalNodes>
          <leafValues>
            1.6121175885200500e-01 -4.9738761782646179e-01</leafValues></_>
        <_>
          <internalNodes>
            0 -1 38 -2.2378984838724136e-02</internalNodes>
          <leafValues>
            2.1166367828845978e-01 -4.3795165419578552e-01</leafValues></_>
        <_>
          <internalNodes>
            0 -1 124 1.7174233216792345e-03</internalNodes>
          <leafValues>
            -2.7911713719367981e-01 2.9987800121307373e-01</leafValues></_>
        <_>
          <internalNodes>
            0 -1 117 -1.4283496886491776e-02</internalNodes>
          <leafValues>
            -7.8527945280075073e-01 7.7548384666442871e-02</leafValues></_>
        <_>
          <internalNodes>
            0 -1 85 1.4314750209450722e-02</internalNodes>
          <leafValues>
            1.1540172994136810e-01 -6.2868124246597290e-01</leafValues></_>
        <_>
          <internalNodes>
            0 -1 40 -1.6237656818702817e-03</internalNodes>
          <leafValues>
            2.4065887928009033e-01 -2.8157153725624084e-01</leafValues></_>
        <_>
          <internalNodes>
            0 -1 173 -6.4837224781513214e-03</internalNodes>
          <leafValues>
            4.9312785267829895e-01 -1.5609247982501984e-01</leafValues></_>
        <_>
          <internalNodes>
            0 -1 135 4.6360446140170097e-03</internalNodes>
          <leafValues>
            1.4344249665737152e-01 -4.5728340744972229e-01</leafValues></_>
        <_>
          <internalNodes>
            0 -1 86 -1.0854665189981461e-02</internalNodes>
          <leafValues>
            3.6736068129539490e-01 -1.7128331959247589e-01</leafValues></_>
        <_>
          <internalNodes>
            0 -1 65 -8.6708329617977142e-03</internalNodes>
          <leafValues>
            -5.3274261951446533e-01 1.2182705849409103e-01</leafValues></_>
        <_>
          <internalNodes>
            0 -1 108 -1.1152561753988266e-02</internalNodes>
          <leafValues>
            5.8304202556610107e-01 -1.2480480223894119e-01</leafValues></_>
        <_>
          <internalNodes>
            0 -1 44 -5.2103744819760323e-03</internalNodes>
          <leafValues>
            3.2853901386260986e-01 -1.8734681606292725e-01</leafValues></_>
        <_>
          <internalNodes>
            0 -1 161 -4.8207282088696957e-04</internalNodes>
          <leafValues>
            -4.6084472537040710e-01 1.5275548398494720e-01</leafValues></_>
        <_>
          <internalNodes>
            0 -1 184 -5.2866223268210888e-04</internalNodes>
          <leafValues>
            -3.1648755073547363e-01 2.0189629495143890e-01</leafValues></_>
        <_>
          <internalNodes>
            0 -1 156 -7.0874515222385526e-04</internalNodes>
          <leafValues>
            2.1572239696979523e-01 -2.7255523204803467e-01</leafValues></_>
        <_>
          <internalNodes>
            0 -1 128 1.2646943796426058e-03</internalNodes>
          <leafValues>
            1.1393824964761734e-01 -4.9128940701484680e-01</leafValues></_>
        <_>
          <internalNodes>
            0 -1 172 -4.7056339681148529e-03</internalNodes>
          <leafValues>
            4.2265424132347107e-01 -1.4774480462074280e-01</leafValues></_>
        <_>
          <internalNodes>
            0 -1 103 7.4185524135828018e-03</internalNodes>
          <leafValues>
            9.8629564046859741e-02 -6.3744169473648071e-01</leafValues></_>
        <_>
          <internalNodes>
            0 -1 15 -2.1374689415097237e-02</internalNodes>
          <leafValues>
            4.9076876044273376e-01 -1.3186417520046234e-01</leafValues></_>
        <_>
          <internalNodes>
            0 -1 120 -4.1940400842577219e-04</internalNodes>
          <leafValues>
            1.7210268974304199e-01 -3.4083274006843567e-01</leafValues></_></weakClassifiers></_>
    <!-- stage 5 -->
    <_>
      <maxWeakCount>29</maxWeakCount>
      <stageThreshold>-1.7308939695358276e+00</stageThreshold>
      <weakClassifiers>
        <_>
          <internalNodes>
            0 -1 149 4.1334182024002075e-03</internalNodes>
          <leafValues>
            -4.5859086513519287e-01 6.2574166059494019e-01</leafValues></_>
        <_>
          <internalNodes>
            0 -1 18 -1.2518990784883499e-02</internalNodes>
          <leafValues>
            5.6691831350326538e-01 -3.8123553991317749e-01</leafValues></_>
        <_>
          <internalNodes>
            0 -1 73 -9.8787397146224976e-03</internalNodes>
          <leafValues>
            4.2217713594436646e-01 -4.9599739909172058e-01</leafValues></_>
        <_>
          <internalNodes>
            0 -1 185 -1.6503627412021160e-03</internalNodes>
          <leafValues>
            3.5530722141265869e-01 -4.9486872553825378e-01</leafValues></_>
        <_>
          <internalNodes>
            0 -1 169 -3.1109687406569719e-03</internalNodes>
          <leafValues>
            3.0063554644584656e-01 -3.9567923545837402e-01</leafValues></_>
        <_>
          <internalNodes>
            0 -1 112 1.1559667065739632e-02</internalNodes>
          <leafValues>
            -2.8683510422706604e-01 4.1582766175270081e-01</leafValues></_>
        <_>
          <internalNodes>
            0 -1 66 -8.7981804972514510e-04</internalNodes>
          <leafValues>
            1.7976197600364685e-01 -5.0738841295242310e-01</leafValues></_>
        <_>
          <internalNodes>
            0 -1 12 -7.8201293945312500e-02</internalNodes>
          <leafValues>
            1.7624457180500031e-01 -5.2309703826904297e-01</leafValues></_>
        <_>
          <internalNodes>
            0 -1 102 4.4440799392759800e-03</internalNodes>
          <leafValues>
            -2.2753585875034332e-01 3.6581349372863770e-01</leafValues></_>
        <_>
          <internalNodes>
            0 -1 33 6.2829768285155296e-03</internalNodes>
          <leafValues>
            1.4048007130622864e-01 -5.9198021888732910e-01</leafValues></_>
        <_>
          <internalNodes>
            0 -1 163 2.7819320559501648e-02</internalNodes>
          <leafValues>
            -2.4254769086837769e-01 3.1922280788421631e-01</leafValues></_>
        <_>
          <internalNodes>
            0 -1 57 -2.8416953980922699e-02</internalNodes>
          <leafValues>
            -5.2123969793319702e-01 1.3552375137805939e-01</leafValues></_>
        <_>
          <internalNodes>
            0 -1 95 -1.3897396624088287e-02</internalNodes>
          <leafValues>
            5.3762614727020264e-01 -1.4397868514060974e-01</leafValues></_>
        <_>
          <internalNodes>
            0 -1 110 5.5530170357087627e-05</internalNodes>
          <leafValues>
            -4.1244885325431824e-01 1.7063511908054352e-01</leafValues></_>
        <_>
          <internalNodes>
            0 -1 16 7.4400249868631363e-03</internalNodes>
          <leafValues>
            1.2306182086467743e-01 -4.9053761363029480e-01</leafValues></_>
        <_>
          <internalNodes>
            0 -1 96 -1.1503566056489944e-02</internalNodes>
          <leafValues>
            -4.7842729091644287e-01 1.3759532570838928e-01</leafValues></_>
        <_>
          <internalNodes>
            0 -1 80 -4.8167314380407333e-02</internalNodes>
          <leafValues>
            -5.9409236907958984e-01 9.7091622650623322e-02</leafValues></_>
        <_>
          <internalNodes>
            0 -1 75 -1.5201911330223083e-02</internalNodes>
          <leafValues>
            4.6822941303253174e-01 -1.4440377056598663e-01</leafValues></_>
        <_>
          <internalNodes>
            0 -1 50 -2.2468902170658112e-01</internalNodes>
          <leafValues>
            4.5805934071540833e-01 -1.2815192341804504e-01</leafValues></_>
        <_>
          <internalNodes>
            0 -1 78 2.1847563330084085e-03</internalNodes>
          <leafValues>
            -1.3180868327617645e-01 4.7131833434104919e-01</leafValues></_>
        <_>
          <internalNodes>
            0 -1 30 -7.1863418270368129e-05</internalNodes>
          <leafValues>
            2.3734605312347412e-01 -2.6807162165641785e-01</leafValues></_>
        <_>
          <internalNodes>
            0 -1 59 1.0025833733379841e-02</internalNodes>
          <leafValues>
            1.0735332965850830e-01 -5.6959146261215210e-01</leafValues></_>
        <_>
          <internalNodes>
            0 -1 53 -1.9925251603126526e-02</internalNodes>
          <leafValues>
            -5.5999165773391724e-01 1.0175617784261703e-01</leafValues></_>
        <_>
          <internalNodes>
            0 -1 121 -3.8336409488692880e-04</internalNodes>
          <leafValues>
            1.6889695823192596e-01 -3.0331549048423767e-01</leafValues></_>
        <_>
          <internalNodes>
            0 -1 174 1.1809856630861759e-02</internalNodes>
          <leafValues>
            -1.2531614303588867e-01 4.5110225677490234e-01</leafValues></_>
        <_>
          <internalNodes>
            0 -1 43 -5.8448477648198605e-04</internalNodes>
          <leafValues>
            1.3538736104965210e-01 -4.0360188484191895e-01</leafValues></_>
        <_>
          <internalNodes>
            0 -1 133 6.5416079014539719e-03</internalNodes>
          <leafValues>
            1.4733588695526123e-01 -3.5966119170188904e-01</leafValues></_>
        <_>
          <internalNodes>
            0 -1 179 8.6626521078869700e-04</internalNodes>
          <leafValues>
            -3.3617088198661804e-01 1.8951159715652466e-01</leafValues></_>
        <_>
          <internalNodes>
            0 -1 152 -2.3920192688819952e-05</internalNodes>
          <leafValues>
            -3.1114462018013000e-01 2.0375646650791168e-01</leafValues></_></weakClassifiers></_>
    <!-- stage 6 -->
    <_>
      <maxWeakCount>42</maxWeakCount>
      <stageThreshold>-1.8133319616317749e+00</stageThreshold>
      <weakClassifiers>
        <_>
          <internalNodes>
            0 -1 79 -6.0016810894012451e-03</internalNodes>
          <leafValues>
            6.1476576328277588e-01 -3.3709132671356201e-01</leafValues></_>
        <_>
          <internalNodes>
            0 -1 136 1.7637692391872406e-02</internalNodes>
          <leafValues>
            -5.1172226667404175e-01 3.7668800354003906e-01</leafValues></_>
        <_>
          <internalNodes>
            0 -1 26 -1.7691892385482788e-01</internalNodes>
          <leafValues>
            3.2609122991561890e-01 -5.3922736644744873e-01</leafValues></_>
        <_>
          <internalNodes>
            0 -1 189 9.2272832989692688e-03</internalNodes>
          <leafValues>
            -4.1391208767890930e-01 3.8508680462837219e-01</leafValues></_>
        <_>
          <internalNodes>
            0 -1 4 -2.1013610064983368e-02</internalNodes>
          <leafValues>
            3.6722362041473389e-01 -3.9377388358116150e-01</leafValues></_>
        <_>
          <internalNodes>
            0 -1 114 -4.4336030259728432e-03</internalNodes>
          <leafValues>
            2.9020243883132935e-01 -3.8248753547668457e-01</leafValues></_>
        <_>
          <internalNodes>
            0 -1 176 9.1846170835196972e-04</internalNodes>
          <leafValues>
            -3.3610108494758606e-01 2.2605921328067780e-01</leafValues></_>
        <_>
          <internalNodes>
            0 -1 123 -1.4313104329630733e-03</internalNodes>
          <leafValues>
            3.1809970736503601e-01 -2.3153191804885864e-01</leafValues></_>
        <_>
          <internalNodes>
            0 -1 74 6.1805322766304016e-03</internalNodes>
          <leafValues>
            1.1270536482334137e-01 -5.7821542024612427e-01</leafValues></_>
        <_>
          <internalNodes>
            0 -1 119 -3.4696958027780056e-04</internalNodes>
          <leafValues>
            2.0752018690109253e-01 -3.0587050318717957e-01</leafValues></_>
        <_>
          <internalNodes>
            0 -1 142 2.3062708787620068e-03</internalNodes>
          <leafValues>
            1.2402111291885376e-01 -4.5695343613624573e-01</leafValues></_>
        <_>
          <internalNodes>
            0 -1 105 1.1176867410540581e-02</internalNodes>
          <leafValues>
            1.1534679681062698e-01 -4.9385470151901245e-01</leafValues></_>
        <_>
          <internalNodes>
            0 -1 23 6.8072709254920483e-03</internalNodes>
          <leafValues>
            -1.5136726200580597e-01 3.9348986744880676e-01</leafValues></_>
        <_>
          <internalNodes>
            0 -1 84 -1.5744764357805252e-02</internalNodes>
          <leafValues>
            -5.7489335536956787e-01 1.0288363695144653e-01</leafValues></_>
        <_>
          <internalNodes>
            0 -1 155 5.8188466355204582e-03</internalNodes>
          <leafValues>
            1.0022014379501343e-01 -4.9771323800086975e-01</leafValues></_>
        <_>
          <internalNodes>
            0 -1 168 -9.0290175285190344e-04</internalNodes>
          <leafValues>
            1.7693857848644257e-01 -3.4434548020362854e-01</leafValues></_>
        <_>
          <internalNodes>
            0 -1 106 -3.5231518559157848e-03</internalNodes>
          <leafValues>
            -5.0117033720016479e-01 1.0567894577980042e-01</leafValues></_>
        <_>
          <internalNodes>
            0 -1 42 3.0098482966423035e-05</internalNodes>
          <leafValues>
            -3.0428701639175415e-01 1.5195171535015106e-01</leafValues></_>
        <_>
          <internalNodes>
            0 -1 7 1.7299947794526815e-03</internalNodes>
          <leafValues>
            -2.6762598752975464e-01 1.7944817245006561e-01</leafValues></_>
        <_>
          <internalNodes>
            0 -1 175 1.7576484242454171e-03</internalNodes>
          <leafValues>
            -2.2378370165824890e-01 2.1345402300357819e-01</leafValues></_>
        <_>
          <internalNodes>
            0 -1 140 3.9901025593280792e-03</internalNodes>
          <leafValues>
            1.2831076979637146e-01 -3.9446088671684265e-01</leafValues></_>
        <_>
          <internalNodes>
            0 -1 122 8.1249363720417023e-03</internalNodes>
          <leafValues>
            7.5208872556686401e-02 -7.8347671031951904e-01</leafValues></_>
        <_>
          <internalNodes>
            0 -1 192 4.0523186908103526e-04</internalNodes>
          <leafValues>
            1.5811164677143097e-01 -2.9094931483268738e-01</leafValues></_>
        <_>
          <internalNodes>
            0 -1 160 5.1356433687033132e-05</internalNodes>
          <leafValues>
            -2.4659639596939087e-01 2.0141951739788055e-01</leafValues></_>
        <_>
          <internalNodes>
            0 -1 41 3.2695340923964977e-03</internalNodes>
          <leafValues>
            1.0015471279621124e-01 -4.5592412352561951e-01</leafValues></_>
        <_>
          <internalNodes>
            0 -1 11 6.7458790726959705e-03</internalNodes>
          <leafValues>
            1.1850783973932266e-01 -3.7140837311744690e-01</leafValues></_>
        <_>
          <internalNodes>
            0 -1 101 1.5315771102905273e-02</internalNodes>
          <leafValues>
            -9.3655899167060852e-02 5.6112241744995117e-01</leafValues></_>
        <_>
          <internalNodes>
            0 -1 70 -3.2040977384895086e-04</internalNodes>
          <leafValues>
            1.6940775513648987e-01 -3.2832512259483337e-01</leafValues></_>
        <_>
          <internalNodes>
            0 -1 2 -9.5457378774881363e-03</internalNodes>
          <leafValues>
            3.1080418825149536e-01 -1.6130702197551727e-01</leafValues></_>
        <_>
          <internalNodes>
            0 -1 194 9.3715958064422011e-04</internalNodes>
          <leafValues>
            -1.8024671077728271e-01 2.5448605418205261e-01</leafValues></_>
        <_>
          <internalNodes>
            0 -1 61 -4.6838619746267796e-03</internalNodes>
          <leafValues>
            -3.3870819211006165e-01 1.3098157942295074e-01</leafValues></_>
        <_>
          <internalNodes>
            0 -1 49 -4.1237333789467812e-04</internalNodes>
          <leafValues>
            1.6417813301086426e-01 -3.0415830016136169e-01</leafValues></_>
        <_>
          <internalNodes>
            0 -1 97 1.3138744980096817e-02</internalNodes>
          <leafValues>
            1.4544837176799774e-01 -3.7145033478736877e-01</leafValues></_>
        <_>
          <internalNodes>
            0 -1 150 9.1324439272284508e-03</internalNodes>
          <leafValues>
            -1.3130620121955872e-01 4.0666973590850830e-01</leafValues></_>
        <_>
          <internalNodes>
            0 -1 62 -7.6790200546383858e-03</internalNodes>
          <leafValues>
            6.0079872608184814e-01 -7.3990292847156525e-02</leafValues></_>
        <_>
          <internalNodes>
            0 -1 9 2.9380306601524353e-02</internalNodes>
          <leafValues>
            8.5861399769783020e-02 -6.2195283174514771e-01</leafValues></_>
        <_>
          <internalNodes>
            0 -1 171 4.6863295137882233e-03</internalNodes>
          <leafValues>
            -1.3570183515548706e-01 3.5118374228477478e-01</leafValues></_>
        <_>
          <internalNodes>
            0 -1 21 6.6717073321342468e-02</internalNodes>
          <leafValues>
            9.2442519962787628e-02 -5.2123570442199707e-01</leafValues></_>
        <_>
          <internalNodes>
            0 -1 143 6.2833447009325027e-03</internalNodes>
          <leafValues>
            -1.5812982618808746e-01 2.6531970500946045e-01</leafValues></_>
        <_>
          <internalNodes>
            0 -1 104 -1.0819138959050179e-02</internalNodes>
          <leafValues>
            5.7965677976608276e-01 -7.5811818242073059e-02</leafValues></_>
        <_>
          <internalNodes>
            0 -1 134 -2.6999576948583126e-03</internalNodes>
          <leafValues>
            -5.6866055727005005e-01 8.8823750615119934e-02</leafValues></_>
        <_>
          <internalNodes>
            0 -1 154 3.6339607089757919e-02</internalNodes>
          <leafValues>
            -5.3900144994258881e-02 9.7172069549560547e-01</leafValues></_></weakClassifiers></_>
    <!-- stage 7 -->
    <_>
      <maxWeakCount>40</maxWeakCount>
      <stageThreshold>-1.6608377695083618e+00</stageThreshold>
      <weakClassifiers>
        <_>
          <internalNodes>
            0 -1 90 -8.5833020508289337e-02</internalNodes>
          <leafValues>
            6.8108654022216797e-01 -3.4980237483978271e-01</leafValues></_>
        <_>
          <internalNodes>
            0 -1 138 2.7676107361912727e-02</internalNodes>
          <leafValues>
            -4.3695741891860962e-01 3.9864891767501831e-01</leafValues></_>
        <_>
          <internalNodes>
            0 -1 14 -2.4757560342550278e-02</internalNodes>
          <leafValues>
            2.9538062214851379e-01 -5.9061777591705322e-01</leafValues></_>
        <_>
          <internalNodes>
            0 -1 3 -1.8685750663280487e-02</internalNodes>
          <leafValues>
            3.0467420816421509e-01 -4.6624583005905151e-01</leafValues></_>
        <_>
          <internalNodes>
            0 -1 181 -2.6128424797207117e-03</internalNodes>
          <leafValues>
            2.1043585240840912e-01 -5.6947034597396851e-01</leafValues></_>
        <_>
          <internalNodes>
            0 -1 69 7.1290420601144433e-04</internalNodes>
          <leafValues>
            -4.7965025901794434e-01 1.6720473766326904e-01</leafValues></_>
        <_>
          <internalNodes>
            0 -1 47 1.4263275079429150e-02</internalNodes>
          <leafValues>
            -2.3707608878612518e-01 3.7215849757194519e-01</leafValues></_>
        <_>
          <internalNodes>
            0 -1 76 -5.1721569150686264e-02</internalNodes>
          <leafValues>
            -7.8293931484222412e-01 6.0590162873268127e-02</leafValues></_>
        <_>
          <internalNodes>
            0 -1 13 -1.6916739940643311e-01</internalNodes>
          <leafValues>
            3.0257344245910645e-01 -2.6022484898567200e-01</leafValues></_>
        <_>
          <internalNodes>
            0 -1 141 1.1743118520826101e-03</internalNodes>
          <leafValues>
            -2.2526061534881592e-01 2.8219929337501526e-01</leafValues></_>
        <_>
          <internalNodes>
            0 -1 164 -1.1323305778205395e-02</internalNodes>
          <leafValues>
            -4.4447618722915649e-01 1.2606732547283173e-01</leafValues></_>
        <_>
          <internalNodes>
            0 -1 159 8.4688309580087662e-03</internalNodes>
          <leafValues>
            8.7798170745372772e-02 -5.6870216131210327e-01</leafValues></_>
        <_>
          <internalNodes>
            0 -1 153 3.7230663001537323e-03</internalNodes>
          <leafValues>
            9.3269325792789459e-02 -4.9134778976440430e-01</leafValues></_>
        <_>
          <internalNodes>
            0 -1 91 -1.5935456613078713e-03</internalNodes>
          <leafValues>
            1.8070772290229797e-01 -2.7887174487113953e-01</leafValues></_>
        <_>
          <internalNodes>
            0 -1 0 -1.7620351165533066e-02</internalNodes>
          <leafValues>
            4.1169521212577820e-01 -1.2957802414894104e-01</leafValues></_>
        <_>
          <internalNodes>
            0 -1 94 6.7400657571852207e-03</internalNodes>
          <leafValues>
            -1.0475793480873108e-01 4.7005847096443176e-01</leafValues></_>
        <_>
          <internalNodes>
            0 -1 39 4.0619805455207825e-02</internalNodes>
          <leafValues>
            9.1256760060787201e-02 -6.2649804353713989e-01</leafValues></_>
        <_>
          <internalNodes>
            0 -1 170 7.4066460365429521e-04</internalNodes>
          <leafValues>
            1.7628951370716095e-01 -2.7509734034538269e-01</leafValues></_>
        <_>
          <internalNodes>
            0 -1 109 1.3765573967248201e-03</internalNodes>
          <leafValues>
            -1.6882340610027313e-01 2.8617966175079346e-01</leafValues></_>
        <_>
          <internalNodes>
            0 -1 71 -9.2705851420760155e-04</internalNodes>
          <leafValues>
            1.5420494973659515e-01 -3.3059701323509216e-01</leafValues></_>
        <_>
          <internalNodes>
            0 -1 88 -3.3698263578116894e-03</internalNodes>
          <leafValues>
            -6.1890810728073120e-01 8.2990683615207672e-02</leafValues></_>
        <_>
          <internalNodes>
            0 -1 29 3.5209987312555313e-02</internalNodes>
          <leafValues>
            4.8949256539344788e-02 -8.1089705228805542e-01</leafValues></_>
        <_>
          <internalNodes>
            0 -1 8 1.2135054916143417e-02</internalNodes>
          <leafValues>
            8.1782065331935883e-02 -4.9454429745674133e-01</leafValues></_>
        <_>
          <internalNodes>
            0 -1 93 4.3398896232247353e-03</internalNodes>
          <leafValues>
            8.9471794664859772e-02 -4.9119606614112854e-01</leafValues></_>
        <_>
          <internalNodes>
            0 -1 45 1.2603765353560448e-03</internalNodes>
          <leafValues>
            -1.6625471413135529e-01 2.9098829627037048e-01</leafValues></_>
        <_>
          <internalNodes>
            0 -1 180 7.6646190136671066e-03</internalNodes>
          <leafValues>
            -2.1946083009243011e-01 2.0760093629360199e-01</leafValues></_>
        <_>
          <internalNodes>
            0 -1 165 -2.7496982365846634e-03</internalNodes>
          <leafValues>
            4.3278223276138306e-01 -1.1330983042716980e-01</leafValues></_>
        <_>
          <internalNodes>
            0 -1 139 -1.0381451807916164e-02</internalNodes>
          <leafValues>
            -6.4448559284210205e-01 7.0254094898700714e-02</leafValues></_>
        <_>
          <internalNodes>
            0 -1 193 1.4499340904876590e-03</internalNodes>
          <leafValues>
            1.3109144568443298e-01 -3.0006608366966248e-01</leafValues></_>
        <_>
          <internalNodes>
            0 -1 36 -1.0311883687973022e-01</internalNodes>
          <leafValues>
            -7.0823562145233154e-01 5.9123542159795761e-02</leafValues></_>
        <_>
          <internalNodes>
            0 -1 191 1.6611695289611816e-02</internalNodes>
          <leafValues>
            5.2037544548511505e-02 -7.0028477907180786e-01</leafValues></_>
        <_>
          <internalNodes>
            0 -1 127 -3.6074740346521139e-03</internalNodes>
          <leafValues>
            2.3067820072174072e-01 -1.8383243680000305e-01</leafValues></_>
        <_>
          <internalNodes>
            0 -1 130 7.2633009403944016e-03</internalNodes>
          <leafValues>
            7.5059548020362854e-02 -5.9713429212570190e-01</leafValues></_>
        <_>
          <internalNodes>
            0 -1 162 -1.9367865752428770e-03</internalNodes>
          <leafValues>
            2.5583124160766602e-01 -1.7461790144443512e-01</leafValues></_>
        <_>
          <internalNodes>
            0 -1 115 -3.6105319857597351e-02</internalNodes>
          <leafValues>
            -8.2251077890396118e-01 5.3593423217535019e-02</leafValues></_>
        <_>
          <internalNodes>
            0 -1 132 -5.0799511373043060e-02</internalNodes>
          <leafValues>
            -5.4872763156890869e-01 7.0737861096858978e-02</leafValues></_>
        <_>
          <internalNodes>
            0 -1 118 -7.8570801997557282e-04</internalNodes>
          <leafValues>
            1.3811446726322174e-01 -3.4078946709632874e-01</leafValues></_>
        <_>
          <internalNodes>
            0 -1 178 -6.1429024208337069e-04</internalNodes>
          <leafValues>
            1.9865481555461884e-01 -2.3247131705284119e-01</leafValues></_>
        <_>
          <internalNodes>
            0 -1 145 -9.4392420724034309e-03</internalNodes>
          <leafValues>
            1.5442776679992676e-01 -2.9205009341239929e-01</leafValues></_>
        <_>
          <internalNodes>
            0 -1 58 1.7659830627962947e-03</internalNodes>
          <leafValues>
            1.0734775662422180e-01 -4.2066872119903564e-01</leafValues></_></weakClassifiers></_></stages>
  <features>
    <_>
      <rects>
        <_>
          0 0 11 6 -1.</_>
        <_>
          0 2 11 2 3.</_></rects>
      <tilted>0</tilted></_>
    <_>
      <rects>
        <_>
          0 0 17 10 -1.</_>
        <_>
          0 5 17 5 2.</_></rects>
      <tilted>0</tilted></_>
    <_>
      <rects>
        <_>
          0 1 4 6 -1.</_>
        <_>
          0 1 2 3 2.</_>
        <_>
          2 4 2 3 2.</_></rects>
      <tilted>0</tilted></_>
    <_>
      <rects>
        <_>
          0 4 4 9 -1.</_>
        <_>
          2 4 2 9 2.</_></rects>
      <tilted>0</tilted></_>
    <_>
      <rects>
        <_>
          0 4 6 6 -1.</_>
        <_>
          3 4 3 6 2.</_></rects>
      <tilted>0</tilted></_>
    <_>
      <rects>
        <_>
          0 6 4 8 -1.</_>
        <_>
          2 6 2 8 2.</_></rects>
      <tilted>0</tilted></_>
    <_>
      <rects>
        <_>
          0 6 9 9 -1.</_>
        <_>
          3 6 3 9 3.</_></rects>
      <tilted>0</tilted></_>
    <_>
      <rects>
        <_>
          0 7 3 6 -1.</_>
        <_>
          1 7 1 6 3.</_></rects>
      <tilted>0</tilted></_>
    <_>
      <rects>
        <_>
          0 8 6 7 -1.</_>
        <_>
          2 8 2 7 3.</_></rects>
      <tilted>0</tilted></_>
    <_>
      <rects>
        <_>
          0 9 9 4 -1.</_>
        <_>
          3 9 3 4 3.</_></rects>
      <tilted>0</tilted></_>
    <_>
      <rects>
        <_>
          0 12 12 3 -1.</_>
        <_>
          0 13 12 1 3.</_></rects>
      <tilted>0</tilted></_>
    <_>
      <rects>
        <_>
          1 0 2 18 -1.</_>
        <_>
          1 6 2 6 3.</_></rects>
      <tilted>0</tilted></_>
    <_>
      <rects>
        <_>
          1 0 15 18 -1.</_>
        <_>
          1 6 15 6 3.</_></rects>
      <tilted>0</tilted></_>
    <_>
      <rects>
        <_>
          1 2 18 17 -1.</_>
        <_>
          7 2 6 17 3.</_></rects>
      <tilted>0</tilted></_>
    <_>
      <rects>
        <_>
          1 2 17 4 -1.</_>
        <_>
          1 4 17 2 2.</_></rects>
      <tilted>0</tilted></_>
    <_>
      <rects>
        <_>
          1 4 2 9 -1.</_>
        <_>
          2 4 1 9 2.</_></rects>
      <tilted>0</tilted></_>
    <_>
      <rects>
        <_>
          1 4 6 11 -1.</_>
        <_>
          3 4 2 11 3.</_></rects>
      <tilted>0</tilted></_>
    <_>
      <rects>
        <_>
          1 5 6 4 -1.</_>
        <_>
          3 5 2 4 3.</_></rects>
      <tilted>0</tilted></_>
    <_>
      <rects>
        <_>
          1 6 2 8 -1.</_>
        <_>
          2 6 1 8 2.</_></rects>
      <tilted>0</tilted></_>
    <_>
      <rects>
        <_>
          1 6 2 9 -1.</_>
        <_>
          2 6 1 9 2.</_></rects>
      <tilted>0</tilted></_>
    <_>
      <rects>
        <_>
          1 7 2 6 -1.</_>
        <_>
          2 7 1 6 2.</_></rects>
      <tilted>0</tilted></_>
    <_>
      <rects>
        <_>
          1 7 16 5 -1.</_>
        <_>
          9 7 8 5 2.</_></rects>
      <tilted>0</tilted></_>
    <_>
      <rects>
        <_>
          1 8 2 12 -1.</_>
        <_>
          1 8 1 6 2.</_>
        <_>
          2 14 1 6 2.</_></rects>
      <tilted>0</tilted></_>
    <_>
      <rects>
        <_>
          1 11 2 8 -1.</_>
        <_>
          1 11 1 4 2.</_>
        <_>
          2 15 1 4 2.</_></rects>
      <tilted>0</tilted></_>
    <_>
      <rects>
        <_>
          2 0 1 18 -1.</_>
        <_>
          2 6 1 6 3.</_></rects>
      <tilted>0</tilted></_>
    <_>
      <rects>
        <_>
          2 1 3 15 -1.</_>
        <_>
          2 6 3 5 3.</_></rects>
      <tilted>0</tilted></_>
    <_>
      <rects>
        <_>
          2 1 14 18 -1.</_>
        <_>
          2 7 14 6 3.</_></rects>
      <tilted>0</tilted></_>
    <_>
      <rects>
        <_>
          2 4 10 4 -1.</_>
        <_>
          7 4 5 4 2.</_></rects>
      <tilted>0</tilted></_>
    <_>
      <rects>
        <_>
          2 5 6 5 -1.</_>
        <_>
          5 5 3 5 2.</_></rects>
      <tilted>0</tilted></_>
    <_>
      <rects>
        <_>
          2 7 6 4 -1.</_>
        <_>
          4 7 2 4 3.</_></rects>
      <tilted>0</tilted></_>
    <_>
      <rects>
        <_>
          2 9 2 6 -1.</_>
        <_>
          2 9 1 3 2.</_>
        <_>
          3 12 1 3 2.</_></rects>
      <tilted>0</tilted></_>
    <_>
      <rects>
        <_>
          2 10 9 6 -1.</_>
        <_>
          2 12 9 2 3.</_></rects>
      <tilted>0</tilted></_>
    <_>
      <rects>
        <_>
          2 12 15 1 -1.</_>
        <_>
          7 12 5 1 3.</_></rects>
      <tilted>0</tilted></_>
    <_>
      <rects>
        <_>
          2 12 15 2 -1.</_>
        <_>
          7 12 5 2 3.</_></rects>
      <tilted>0</tilted></_>
    <_>
      <rects>
        <_>
          2 13 12 6 -1.</_>
        <_>
          2 16 12 3 2.</_></rects>
      <tilted>0</tilted></_>
    <_>
      <rects>
        <_>
          2 15 15 2 -1.</_>
        <_>
          2 16 15 1 2.</_></rects>
      <tilted>0</tilted></_>
    <_>
      <rects>
        <_>
          3 0 4 12 -1.</_>
        <_>
          3 4 4 4 3.</_></rects>
      <tilted>0</tilted></_>
    <_>
      <rects>
        <_>
          3 1 14 6 -1.</_>
        <_>
          3 4 14 3 2.</_></rects>
      <tilted>0</tilted></_>
    <_>
      <rects>
        <_>
          3 1 17 9 -1.</_>
        <_>
          3 4 17 3 3.</_></rects>
      <tilted>0</tilted></_>
    <_>
      <rects>
        <_>
          3 4 9 9 -1.</_>
        <_>
          6 4 3 9 3.</_></rects>
      <tilted>0</tilted></_>
    <_>
      <rects>
        <_>
          3 6 3 8 -1.</_>
        <_>
          4 6 1 8 3.</_></rects>
      <tilted>0</tilted></_>
    <_>
      <rects>
        <_>
          3 7 4 1 -1.</_>
        <_>
          5 7 2 1 2.</_></rects>
      <tilted>0</tilted></_>
    <_>
      <rects>
        <_>
          3 8 6 4 -1.</_>
        <_>
          5 8 2 4 3.</_></rects>
      <tilted>0</tilted></_>
    <_>
      <rects>
        <_>
          3 8 12 2 -1.</_>
        <_>
          7 8 4 2 3.</_></rects>
      <tilted>0</tilted></_>
    <_>
      <rects>
        <_>
          3 9 1 9 -1.</_>
        <_>
          3 12 1 3 3.</_></rects>
      <tilted>0</tilted></_>
    <_>
      <rects>
        <_>
          3 11 2 4 -1.</_>
        <_>
          3 11 1 2 2.</_>
        <_>
          4 13 1 2 2.</_></rects>
      <tilted>0</tilted></_>
    <_>
      <rects>
        <_>
          3 11 6 2 -1.</_>
        <_>
          6 11 3 2 2.</_></rects>
      <tilted>0</tilted></_>
    <_>
      <rects>
        <_>
          3 15 14 2 -1.</_>
        <_>
          3 16 14 1 2.</_></rects>
      <tilted>0</tilted></_>
    <_>
      <rects>
        <_>
          4 0 4 9 -1.</_>
        <_>
          4 3 4 3 3.</_></rects>
      <tilted>0</tilted></_>
    <_>
      <rects>
        <_>
          4 0 5 9 -1.</_>
        <_>
          4 3 5 3 3.</_></rects>
      <tilted>0</tilted></_>
    <_>
      <rects>
        <_>
          4 0 15 8 -1.</_>
        <_>
          4 4 15 4 2.</_></rects>
      <tilted>0</tilted></_>
    <_>
      <rects>
        <_>
          4 2 13 4 -1.</_>
        <_>
          4 4 13 2 2.</_></rects>
      <tilted>0</tilted></_>
    <_>
      <rects>
        <_>
          4 5 6 6 -1.</_>
        <_>
          6 5 2 6 3.</_></rects>
      <tilted>0</tilted></_>
    <_>
      <rects>
        <_>
          4 6 6 3 -1.</_>
        <_>
          7 6 3 3 2.</_></rects>
      <tilted>0</tilted></_>
    <_>
      <rects>
        <_>
          4 7 9 6 -1.</_>
        <_>
          7 7 3 6 3.</_></rects>
      <tilted>0</tilted></_>
    <_>
      <rects>
        <_>
          4 7 9 6 -1.</_>
        <_>
          4 10 9 3 2.</_></rects>
      <tilted>0</tilted></_>
    <_>
      <rects>
        <_>
          4 10 8 10 -1.</_>
        <_>
          4 15 8 5 2.</_></rects>
      <tilted>0</tilted></_>
    <_>
      <rects>
        <_>
          4 11 12 2 -1.</_>
        <_>
          8 11 4 2 3.</_></rects>
      <tilted>0</tilted></_>
    <_>
      <rects>
        <_>
          5 0 3 1 -1.</_>
        <_>
          6 0 1 1 3.</_></rects>
      <tilted>0</tilted></_>
    <_>
      <rects>
        <_>
          5 3 6 13 -1.</_>
        <_>
          7 3 2 13 3.</_></rects>
      <tilted>0</tilted></_>
    <_>
      <rects>
        <_>
          5 3 8 8 -1.</_>
        <_>
          9 3 4 8 2.</_></rects>
      <tilted>0</tilted></_>
    <_>
      <rects>
        <_>
          5 4 6 6 -1.</_>
        <_>
          5 4 3 3 2.</_>
        <_>
          8 7 3 3 2.</_></rects>
      <tilted>0</tilted></_>
    <_>
      <rects>
        <_>
          5 5 3 3 -1.</_>
        <_>
          6 5 1 3 3.</_></rects>
      <tilted>0</tilted></_>
    <_>
      <rects>
        <_>
          5 5 4 1 -1.</_>
        <_>
          7 5 2 1 2.</_></rects>
      <tilted>0</tilted></_>
    <_>
      <rects>
        <_>
          5 5 9 2 -1.</_>
        <_>
          8 5 3 2 3.</_></rects>
      <tilted>0</tilted></_>
    <_>
      <rects>
        <_>
          5 5 6 6 -1.</_>
        <_>
          5 5 3 3 2.</_>
        <_>
          8 8 3 3 2.</_></rects>
      <tilted>0</tilted></_>
    <_>
      <rects>
        <_>
          5 6 4 4 -1.</_>
        <_>
          7 6 2 4 2.</_></rects>
      <tilted>0</tilted></_>
    <_>
      <rects>
        <_>
          5 6 4 5 -1.</_>
        <_>
          7 6 2 5 2.</_></rects>
      <tilted>0</tilted></_>
    <_>
      <rects>
        <_>
          5 7 3 5 -1.</_>
        <_>
          6 7 1 5 3.</_></rects>
      <tilted>0</tilted></_>
    <_>
      <rects>
        <_>
          5 7 3 8 -1.</_>
        <_>
          6 7 1 8 3.</_></rects>
      <tilted>0</tilted></_>
    <_>
      <rects>
        <_>
          5 8 6 1 -1.</_>
        <_>
          7 8 2 1 3.</_></rects>
      <tilted>0</tilted></_>
    <_>
      <rects>
        <_>
          5 10 6 3 -1.</_>
        <_>
          7 10 2 3 3.</_></rects>
      <tilted>0</tilted></_>
    <_>
      <rects>
        <_>
          6 3 6 2 -1.</_>
        <_>
          6 4 6 1 2.</_></rects>
      <tilted>0</tilted></_>
    <_>
      <rects>
        <_>
          6 3 7 2 -1.</_>
        <_>
          6 4 7 1 2.</_></rects>
      <tilted>0</tilted></_>
    <_>
      <rects>
        <_>
          6 3 7 6 -1.</_>
        <_>
          6 5 7 2 3.</_></rects>
      <tilted>0</tilted></_>
    <_>
      <rects>
        <_>
          6 4 3 6 -1.</_>
        <_>
          7 4 1 6 3.</_></rects>
      <tilted>0</tilted></_>
    <_>
      <rects>
        <_>
          6 4 6 11 -1.</_>
        <_>
          8 4 2 11 3.</_></rects>
      <tilted>0</tilted></_>
    <_>
      <rects>
        <_>
          6 4 12 2 -1.</_>
        <_>
          12 4 6 2 2.</_></rects>
      <tilted>0</tilted></_>
    <_>
      <rects>
        <_>
          6 5 3 2 -1.</_>
        <_>
          7 5 1 2 3.</_></rects>
      <tilted>0</tilted></_>
    <_>
      <rects>
        <_>
          6 6 2 8 -1.</_>
        <_>
          7 6 1 8 2.</_></rects>
      <tilted>0</tilted></_>
    <_>
      <rects>
        <_>
          6 6 10 8 -1.</_>
        <_>
          6 10 10 4 2.</_></rects>
      <tilted>0</tilted></_>
    <_>
      <rects>
        <_>
          6 7 2 5 -1.</_>
        <_>
          7 7 1 5 2.</_></rects>
      <tilted>0</tilted></_>
    <_>
      <rects>
        <_>
          6 7 2 7 -1.</_>
        <_>
          7 7 1 7 2.</_></rects>
      <tilted>0</tilted></_>
    <_>
      <rects>
        <_>
          6 8 3 6 -1.</_>
        <_>
          7 8 1 6 3.</_></rects>
      <tilted>0</tilted></_>
    <_>
      <rects>
        <_>
          6 9 6 4 -1.</_>
        <_>
          8 9 2 4 3.</_></rects>
      <tilted>0</tilted></_>
    <_>
      <rects>
        <_>
          6 9 6 6 -1.</_>
        <_>
          6 11 6 2 3.</_></rects>
      <tilted>0</tilted></_>
    <_>
      <rects>
        <_>
          6 10 3 10 -1.</_>
        <_>
          7 10 1 10 3.</_></rects>
      <tilted>0</tilted></_>
    <_>
      <rects>
        <_>
          6 12 6 3 -1.</_>
        <_>
          6 13 6 1 3.</_></rects>
      <tilted>0</tilted></_>
    <_>
      <rects>
        <_>
          6 15 3 1 -1.</_>
        <_>
          7 15 1 1 3.</_></rects>
      <tilted>0</tilted></_>
    <_>
      <rects>
        <_>
          7 0 1 18 -1.</_>
        <_>
          7 6 1 6 3.</_></rects>
      <tilted>0</tilted></_>
    <_>
      <rects>
        <_>
          7 1 5 18 -1.</_>
        <_>
          7 7 5 6 3.</_></rects>
      <tilted>0</tilted></_>
    <_>
      <rects>
        <_>
          7 3 3 3 -1.</_>
        <_>
          7 4 3 1 3.</_></rects>
      <tilted>0</tilted></_>
    <_>
      <rects>
        <_>
          7 3 5 2 -1.</_>
        <_>
          7 4 5 1 2.</_></rects>
      <tilted>0</tilted></_>
    <_>
      <rects>
        <_>
          7 3 5 6 -1.</_>
        <_>
          7 5 5 2 3.</_></rects>
      <tilted>0</tilted></_>
    <_>
      <rects>
        <_>
          7 4 3 3 -1.</_>
        <_>
          8 4 1 3 3.</_></rects>
      <tilted>0</tilted></_>
    <_>
      <rects>
        <_>
          7 4 3 9 -1.</_>
        <_>
          8 4 1 9 3.</_></rects>
      <tilted>0</tilted></_>
    <_>
      <rects>
        <_>
          7 4 2 9 -1.</_>
        <_>
          7 7 2 3 3.</_></rects>
      <tilted>0</tilted></_>
    <_>
      <rects>
        <_>
          7 4 9 8 -1.</_>
        <_>
          7 8 9 4 2.</_></rects>
      <tilted>0</tilted></_>
    <_>
      <rects>
        <_>
          7 5 3 9 -1.</_>
        <_>
          8 5 1 9 3.</_></rects>
      <tilted>0</tilted></_>
    <_>
      <rects>
        <_>
          7 6 1 6 -1.</_>
        <_>
          7 8 1 2 3.</_></rects>
      <tilted>0</tilted></_>
    <_>
      <rects>
        <_>
          7 6 3 4 -1.</_>
        <_>
          8 6 1 4 3.</_></rects>
      <tilted>0</tilted></_>
    <_>
      <rects>
        <_>
          7 6 3 5 -1.</_>
        <_>
          8 6 1 5 3.</_></rects>
      <tilted>0</tilted></_>
    <_>
      <rects>
        <_>
          7 6 2 6 -1.</_>
        <_>
          8 6 1 6 2.</_></rects>
      <tilted>0</tilted></_>
    <_>
      <rects>
        <_>
          7 7 4 4 -1.</_>
        <_>
          7 7 2 2 2.</_>
        <_>
          9 9 2 2 2.</_></rects>
      <tilted>0</tilted></_>
    <_>
      <rects>
        <_>
          7 8 3 3 -1.</_>
        <_>
          8 8 1 3 3.</_></rects>
      <tilted>0</tilted></_>
    <_>
      <rects>
        <_>
          7 8 4 6 -1.</_>
        <_>
          7 11 4 3 2.</_></rects>
      <tilted>0</tilted></_>
    <_>
      <rects>
        <_>
          7 8 10 1 -1.</_>
        <_>
          12 8 5 1 2.</_></rects>
      <tilted>0</tilted></_>
    <_>
      <rects>
        <_>
          7 9 12 5 -1.</_>
        <_>
          13 9 6 5 2.</_></rects>
      <tilted>0</tilted></_>
    <_>
      <rects>
        <_>
          7 10 3 5 -1.</_>
        <_>
          8 10 1 5 3.</_></rects>
      <tilted>0</tilted></_>
    <_>
      <rects>
        <_>
          7 11 3 2 -1.</_>
        <_>
          8 11 1 2 3.</_></rects>
      <tilted>0</tilted></_>
    <_>
      <rects>
        <_>
          7 13 2 2 -1.</_>
        <_>
          7 14 2 1 2.</_></rects>
      <tilted>0</tilted></_>
    <_>
      <rects>
        <_>
          7 13 5 2 -1.</_>
        <_>
          7 14 5 1 2.</_></rects>
      <tilted>0</tilted></_>
    <_>
      <rects>
        <_>
          7 15 10 2 -1.</_>
        <_>
          7 16 10 1 2.</_></rects>
      <tilted>0</tilted></_>
    <_>
      <rects>
        <_>
          8 3 6 9 -1.</_>
        <_>
          10 3 2 9 3.</_></rects>
      <tilted>0</tilted></_>
    <_>
      <rects>
        <_>
          8 3 5 3 -1.</_>
        <_>
          8 4 5 1 3.</_></rects>
      <tilted>0</tilted></_>
    <_>
      <rects>
        <_>
          8 6 6 3 -1.</_>
        <_>
          10 6 2 3 3.</_></rects>
      <tilted>0</tilted></_>
    <_>
      <rects>
        <_>
          8 6 6 7 -1.</_>
        <_>
          10 6 2 7 3.</_></rects>
      <tilted>0</tilted></_>
    <_>
      <rects>
        <_>
          8 9 2 6 -1.</_>
        <_>
          8 11 2 2 3.</_></rects>
      <tilted>0</tilted></_>
    <_>
      <rects>
        <_>
          8 10 6 5 -1.</_>
        <_>
          10 10 2 5 3.</_></rects>
      <tilted>0</tilted></_>
    <_>
      <rects>
        <_>
          8 12 1 3 -1.</_>
        <_>
          8 13 1 1 3.</_></rects>
      <tilted>0</tilted></_>
    <_>
      <rects>
        <_>
          8 12 6 2 -1.</_>
        <_>
          10 12 2 2 3.</_></rects>
      <tilted>0</tilted></_>
    <_>
      <rects>
        <_>
          8 12 3 3 -1.</_>
        <_>
          8 13 3 1 3.</_></rects>
      <tilted>0</tilted></_>
    <_>
      <rects>
        <_>
          8 12 5 2 -1.</_>
        <_>
          8 13 5 1 2.</_></rects>
      <tilted>0</tilted></_>
    <_>
      <rects>
        <_>
          8 14 2 3 -1.</_>
        <_>
          8 15 2 1 3.</_></rects>
      <tilted>0</tilted></_>
    <_>
      <rects>
        <_>
          8 15 3 2 -1.</_>
        <_>
          8 16 3 1 2.</_></rects>
      <tilted>0</tilted></_>
    <_>
      <rects>
        <_>
          8 15 7 2 -1.</_>
        <_>
          8 16 7 1 2.</_></rects>
      <tilted>0</tilted></_>
    <_>
      <rects>
        <_>
          9 2 3 3 -1.</_>
        <_>
          9 3 3 1 3.</_></rects>
      <tilted>0</tilted></_>
    <_>
      <rects>
        <_>
          9 3 2 3 -1.</_>
        <_>
          9 4 2 1 3.</_></rects>
      <tilted>0</tilted></_>
    <_>
      <rects>
        <_>
          9 3 3 3 -1.</_>
        <_>
          9 4 3 1 3.</_></rects>
      <tilted>0</tilted></_>
    <_>
      <rects>
        <_>
          9 3 4 3 -1.</_>
        <_>
          9 4 4 1 3.</_></rects>
      <tilted>0</tilted></_>
    <_>
      <rects>
        <_>
          9 4 2 4 -1.</_>
        <_>
          9 6 2 2 2.</_></rects>
      <tilted>0</tilted></_>
    <_>
      <rects>
        <_>
          9 12 3 2 -1.</_>
        <_>
          9 13 3 1 2.</_></rects>
      <tilted>0</tilted></_>
    <_>
      <rects>
        <_>
          9 12 8 6 -1.</_>
        <_>
          9 14 8 2 3.</_></rects>
      <tilted>0</tilted></_>
    <_>
      <rects>
        <_>
          9 16 6 4 -1.</_>
        <_>
          12 16 3 4 2.</_></rects>
      <tilted>0</tilted></_>
    <_>
      <rects>
        <_>
          10 2 2 3 -1.</_>
        <_>
          10 3 2 1 3.</_></rects>
      <tilted>0</tilted></_>
    <_>
      <rects>
        <_>
          10 3 2 8 -1.</_>
        <_>
          10 7 2 4 2.</_></rects>
      <tilted>0</tilted></_>
    <_>
      <rects>
        <_>
          10 4 4 11 -1.</_>
        <_>
          12 4 2 11 2.</_></rects>
      <tilted>0</tilted></_>
    <_>
      <rects>
        <_>
          10 4 6 11 -1.</_>
        <_>
          12 4 2 11 3.</_></rects>
      <tilted>0</tilted></_>
    <_>
      <rects>
        <_>
          10 6 6 9 -1.</_>
        <_>
          12 6 2 9 3.</_></rects>
      <tilted>0</tilted></_>
    <_>
      <rects>
        <_>
          10 8 8 1 -1.</_>
        <_>
          14 8 4 1 2.</_></rects>
      <tilted>0</tilted></_>
    <_>
      <rects>
        <_>
          10 11 10 3 -1.</_>
        <_>
          10 12 10 1 3.</_></rects>
      <tilted>0</tilted></_>
    <_>
      <rects>
        <_>
          10 13 2 2 -1.</_>
        <_>
          10 14 2 1 2.</_></rects>
      <tilted>0</tilted></_>
    <_>
      <rects>
        <_>
          10 15 4 1 -1.</_>
        <_>
          12 15 2 1 2.</_></rects>
      <tilted>0</tilted></_>
    <_>
      <rects>
        <_>
          10 15 7 2 -1.</_>
        <_>
          10 16 7 1 2.</_></rects>
      <tilted>0</tilted></_>
    <_>
      <rects>
        <_>
          11 2 2 13 -1.</_>
        <_>
          12 2 1 13 2.</_></rects>
      <tilted>0</tilted></_>
    <_>
      <rects>
        <_>
          11 4 9 11 -1.</_>
        <_>
          14 4 3 11 3.</_></rects>
      <tilted>0</tilted></_>
    <_>
      <rects>
        <_>
          11 4 9 12 -1.</_>
        <_>
          14 4 3 12 3.</_></rects>
      <tilted>0</tilted></_>
    <_>
      <rects>
        <_>
          11 5 2 9 -1.</_>
        <_>
          12 5 1 9 2.</_></rects>
      <tilted>0</tilted></_>
    <_>
      <rects>
        <_>
          11 5 9 3 -1.</_>
        <_>
          14 5 3 3 3.</_></rects>
      <tilted>0</tilted></_>
    <_>
      <rects>
        <_>
          11 6 2 8 -1.</_>
        <_>
          12 6 1 8 2.</_></rects>
      <tilted>0</tilted></_>
    <_>
      <rects>
        <_>
          11 7 3 4 -1.</_>
        <_>
          12 7 1 4 3.</_></rects>
      <tilted>0</tilted></_>
    <_>
      <rects>
        <_>
          11 8 2 12 -1.</_>
        <_>
          11 8 1 6 2.</_>
        <_>
          12 14 1 6 2.</_></rects>
      <tilted>0</tilted></_>
    <_>
      <rects>
        <_>
          11 14 8 2 -1.</_>
        <_>
          11 14 4 1 2.</_>
        <_>
          15 15 4 1 2.</_></rects>
      <tilted>0</tilted></_>
    <_>
      <rects>
        <_>
          11 16 2 3 -1.</_>
        <_>
          12 16 1 3 2.</_></rects>
      <tilted>0</tilted></_>
    <_>
      <rects>
        <_>
          12 0 8 1 -1.</_>
        <_>
          16 0 4 1 2.</_></rects>
      <tilted>0</tilted></_>
    <_>
      <rects>
        <_>
          12 8 6 3 -1.</_>
        <_>
          14 8 2 3 3.</_></rects>
      <tilted>0</tilted></_>
    <_>
      <rects>
        <_>
          12 12 6 1 -1.</_>
        <_>
          14 12 2 1 3.</_></rects>
      <tilted>0</tilted></_>
    <_>
      <rects>
        <_>
          12 13 3 6 -1.</_>
        <_>
          12 15 3 2 3.</_></rects>
      <tilted>0</tilted></_>
    <_>
      <rects>
        <_>
          13 4 6 10 -1.</_>
        <_>
          15 4 2 10 3.</_></rects>
      <tilted>0</tilted></_>
    <_>
      <rects>
        <_>
          13 7 6 3 -1.</_>
        <_>
          15 7 2 3 3.</_></rects>
      <tilted>0</tilted></_>
    <_>
      <rects>
        <_>
          13 13 2 6 -1.</_>
        <_>
          13 13 1 3 2.</_>
        <_>
          14 16 1 3 2.</_></rects>
      <tilted>0</tilted></_>
    <_>
      <rects>
        <_>
          13 16 1 2 -1.</_>
        <_>
          13 17 1 1 2.</_></rects>
      <tilted>0</tilted></_>
    <_>
      <rects>
        <_>
          14 1 2 6 -1.</_>
        <_>
          14 1 1 3 2.</_>
        <_>
          15 4 1 3 2.</_></rects>
      <tilted>0</tilted></_>
    <_>
      <rects>
        <_>
          14 4 6 6 -1.</_>
        <_>
          17 4 3 6 2.</_></rects>
      <tilted>0</tilted></_>
    <_>
      <rects>
        <_>
          14 5 4 11 -1.</_>
        <_>
          16 5 2 11 2.</_></rects>
      <tilted>0</tilted></_>
    <_>
      <rects>
        <_>
          14 7 2 4 -1.</_>
        <_>
          14 7 1 2 2.</_>
        <_>
          15 9 1 2 2.</_></rects>
      <tilted>0</tilted></_>
    <_>
      <rects>
        <_>
          14 7 3 5 -1.</_>
        <_>
          15 7 1 5 3.</_></rects>
      <tilted>0</tilted></_>
    <_>
      <rects>
        <_>
          14 8 3 5 -1.</_>
        <_>
          15 8 1 5 3.</_></rects>
      <tilted>0</tilted></_>
    <_>
      <rects>
        <_>
          14 8 6 3 -1.</_>
        <_>
          16 8 2 3 3.</_></rects>
      <tilted>0</tilted></_>
    <_>
      <rects>
        <_>
          14 9 3 5 -1.</_>
        <_>
          15 9 1 5 3.</_></rects>
      <tilted>0</tilted></_>
    <_>
      <rects>
        <_>
          14 10 1 6 -1.</_>
        <_>
          14 13 1 3 2.</_></rects>
      <tilted>0</tilted></_>
    <_>
      <rects>
        <_>
          14 10 2 8 -1.</_>
        <_>
          14 10 1 4 2.</_>
        <_>
          15 14 1 4 2.</_></rects>
      <tilted>0</tilted></_>
    <_>
      <rects>
        <_>
          14 15 6 2 -1.</_>
        <_>
          14 15 3 1 2.</_>
        <_>
          17 16 3 1 2.</_></rects>
      <tilted>0</tilted></_>
    <_>
      <rects>
        <_>
          15 5 3 3 -1.</_>
        <_>
          16 5 1 3 3.</_></rects>
      <tilted>0</tilted></_>
    <_>
      <rects>
        <_>
          15 5 3 6 -1.</_>
        <_>
          16 5 1 6 3.</_></rects>
      <tilted>0</tilted></_>
    <_>
      <rects>
        <_>
          15 6 3 8 -1.</_>
        <_>
          16 6 1 8 3.</_></rects>
      <tilted>0</tilted></_>
    <_>
      <rects>
        <_>
          15 10 2 2 -1.</_>
        <_>
          16 10 1 2 2.</_></rects>
      <tilted>0</tilted></_>
    <_>
      <rects>
        <_>
          15 10 3 2 -1.</_>
        <_>
          16 10 1 2 3.</_></rects>
      <tilted>0</tilted></_>
    <_>
      <rects>
        <_>
          16 0 2 10 -1.</_>
        <_>
          16 0 1 5 2.</_>
        <_>
          17 5 1 5 2.</_></rects>
      <tilted>0</tilted></_>
    <_>
      <rects>
        <_>
          16 0 4 8 -1.</_>
        <_>
          16 0 2 4 2.</_>
        <_>
          18 4 2 4 2.</_></rects>
      <tilted>0</tilted></_>
    <_>
      <rects>
        <_>
          16 3 4 5 -1.</_>
        <_>
          18 3 2 5 2.</_></rects>
      <tilted>0</tilted></_>
    <_>
      <rects>
        <_>
          16 6 3 8 -1.</_>
        <_>
          17 6 1 8 3.</_></rects>
      <tilted>0</tilted></_>
    <_>
      <rects>
        <_>
          16 7 3 5 -1.</_>
        <_>
          17 7 1 5 3.</_></rects>
      <tilted>0</tilted></_>
    <_>
      <rects>
        <_>
          16 8 3 5 -1.</_>
        <_>
          17 8 1 5 3.</_></rects>
      <tilted>0</tilted></_>
    <_>
      <rects>
        <_>
          16 8 2 12 -1.</_>
        <_>
          16 8 1 6 2.</_>
        <_>
          17 14 1 6 2.</_></rects>
      <tilted>0</tilted></_>
    <_>
      <rects>
        <_>
          16 9 3 2 -1.</_>
        <_>
          17 9 1 2 3.</_></rects>
      <tilted>0</tilted></_>
    <_>
      <rects>
        <_>
          16 15 3 1 -1.</_>
        <_>
          17 15 1 1 3.</_></rects>
      <tilted>0</tilted></_>
    <_>
      <rects>
        <_>
          17 1 1 18 -1.</_>
        <_>
          17 7 1 6 3.</_></rects>
      <tilted>0</tilted></_>
    <_>
      <rects>
        <_>
          17 5 2 9 -1.</_>
        <_>
          18 5 1 9 2.</_></rects>
      <tilted>0</tilted></_>
    <_>
      <rects>
        <_>
          17 6 2 8 -1.</_>
        <_>
          18 6 1 8 2.</_></rects>
      <tilted>0</tilted></_>
    <_>
      <rects>
        <_>
          17 7 2 6 -1.</_>
        <_>
          18 7 1 6 2.</_></rects>
      <tilted>0</tilted></_>
    <_>
      <rects>
        <_>
          17 15 3 5 -1.</_>
        <_>
          18 15 1 5 3.</_></rects>
      <tilted>0</tilted></_>
    <_>
      <rects>
        <_>
          17 18 2 2 -1.</_>
        <_>
          18 18 1 2 2.</_></rects>
      <tilted>0</tilted></_>
    <_>
      <rects>
        <_>
          18 13 2 3 -1.</_>
        <_>
          19 13 1 3 2.</_></rects>
      <tilted>0</tilted></_>
    <_>
      <rects>
        <_>
          18 13 2 6 -1.</_>
        <_>
          18 13 1 3 2.</_>
        <_>
          19 16 1 3 2.</_></rects>
      <tilted>0</tilted></_></features></cascade>
</opencv_storage>
