<?xml version="1.0"?>
<opencv_storage>
<cascade>
  <stageType>BOOST</stageType>
  <featureType>HAAR</featureType>
  <height>20</height>
  <width>20</width>
  <stageParams>
    <boostType>GAB</boostType>
    <minHitRate>9.9989998340606689e-01</minHitRate>
    <maxFalseAlarm>5.0000000000000000e-01</maxFalseAlarm>
    <weightTrimRate>9.4999999999999996e-01</weightTrimRate>
    <maxDepth>1</maxDepth>
    <maxWeakCount>100</maxWeakCount></stageParams>
  <featureParams>
    <maxCatCount>0</maxCatCount>
    <featSize>1</featSize>
    <mode>BASIC</mode></featureParams>
  <stageNum>12</stageNum>
  <stages>
    <!-- stage 0 -->
    <_>
      <maxWeakCount>16</maxWeakCount>
      <stageThreshold>-2.5847420692443848e+00</stageThreshold>
      <weakClassifiers>
        <_>
          <internalNodes>
            0 -1 163 -1.9977465271949768e-01</internalNodes>
          <leafValues>
            8.5209262371063232e-01 -6.5709853172302246e-01</leafValues></_>
        <_>
          <internalNodes>
            0 -1 44 -1.5264274552464485e-02</internalNodes>
          <leafValues>
            7.6045817136764526e-01 -6.5460979938507080e-01</leafValues></_>
        <_>
          <internalNodes>
            0 -1 777 -1.1803122237324715e-02</internalNodes>
          <leafValues>
            6.5604382753372192e-01 -4.9970251321792603e-01</leafValues></_>
        <_>
          <internalNodes>
            0 -1 451 -1.1937174946069717e-02</internalNodes>
          <leafValues>
            5.6492364406585693e-01 -4.5305681228637695e-01</leafValues></_>
        <_>
          <internalNodes>
            0 -1 567 1.0979415848851204e-02</internalNodes>
          <leafValues>
            -2.8531903028488159e-01 6.0771131515502930e-01</leafValues></_>
        <_>
          <internalNodes>
            0 -1 131 -8.2845485303550959e-04</internalNodes>
          <leafValues>
            2.5029858946800232e-01 -4.4545143842697144e-01</leafValues></_>
        <_>
          <internalNodes>
            0 -1 720 -9.6371234394609928e-04</internalNodes>
          <leafValues>
            3.1586384773254395e-01 -3.5140416026115417e-01</leafValues></_>
        <_>
          <internalNodes>
            0 -1 347 -5.6475605815649033e-03</internalNodes>
          <leafValues>
            4.2083403468132019e-01 -2.3341847956180573e-01</leafValues></_>
        <_>
          <internalNodes>
            0 -1 585 -2.4948511272668839e-03</internalNodes>
          <leafValues>
            -6.6066604852676392e-01 1.2365980446338654e-01</leafValues></_>
        <_>
          <internalNodes>
            0 -1 57 -9.0903537347912788e-03</internalNodes>
          <leafValues>
            5.2674299478530884e-01 -1.4416614174842834e-01</leafValues></_>
        <_>
          <internalNodes>
            0 -1 656 -6.3901785761117935e-03</internalNodes>
          <leafValues>
            -7.1716189384460449e-01 1.0575319826602936e-01</leafValues></_>
        <_>
          <internalNodes>
            0 -1 310 -9.9541284143924713e-03</internalNodes>
          <leafValues>
            2.9242753982543945e-01 -2.4234107136726379e-01</leafValues></_>
        <_>
          <internalNodes>
            0 -1 523 -1.8619243055582047e-03</internalNodes>
          <leafValues>
            2.9453280568122864e-01 -2.5824102759361267e-01</leafValues></_>
        <_>
          <internalNodes>
            0 -1 671 -4.1929213330149651e-03</internalNodes>
          <leafValues>
            -8.9377009868621826e-01 7.7712714672088623e-02</leafValues></_>
        <_>
          <internalNodes>
            0 -1 690 -1.3012734055519104e-01</internalNodes>
          <leafValues>
            4.8227894306182861e-01 -1.3816036283969879e-01</leafValues></_>
        <_>
          <internalNodes>
            0 -1 578 -4.9317531287670135e-02</internalNodes>
          <leafValues>
            5.3354382514953613e-01 -1.2036085128784180e-01</leafValues></_></weakClassifiers></_>
    <!-- stage 1 -->
    <_>
      <maxWeakCount>32</maxWeakCount>
      <stageThreshold>-2.3340742588043213e+00</stageThreshold>
      <weakClassifiers>
        <_>
          <internalNodes>
            0 -1 126 -4.1589038446545601e-03</internalNodes>
          <leafValues>
            7.3983085155487061e-01 -4.6329912543296814e-01</leafValues></_>
        <_>
          <internalNodes>
            0 -1 167 -2.0639058947563171e-01</internalNodes>
          <leafValues>
            5.6078630685806274e-01 -6.4825791120529175e-01</leafValues></_>
        <_>
          <internalNodes>
            0 -1 782 -1.1558847501873970e-02</internalNodes>
          <leafValues>
            6.4906430244445801e-01 -5.2002936601638794e-01</leafValues></_>
        <_>
          <internalNodes>
            0 -1 523 -1.8880444113165140e-03</internalNodes>
          <leafValues>
            4.6393746137619019e-01 -4.8603239655494690e-01</leafValues></_>
        <_>
          <internalNodes>
            0 -1 238 4.3542142957448959e-03</internalNodes>
          <leafValues>
            -3.8400414586067200e-01 4.6637645363807678e-01</leafValues></_>
        <_>
          <internalNodes>
            0 -1 571 2.8685580473393202e-03</internalNodes>
          <leafValues>
            -3.1229761242866516e-01 3.9376530051231384e-01</leafValues></_>
        <_>
          <internalNodes>
            0 -1 722 -4.1063041426241398e-03</internalNodes>
          <leafValues>
            3.4238192439079285e-01 -2.6797416806221008e-01</leafValues></_>
        <_>
          <internalNodes>
            0 -1 294 -6.1548322439193726e-02</internalNodes>
          <leafValues>
            3.1454235315322876e-01 -3.0833485722541809e-01</leafValues></_>
        <_>
          <internalNodes>
            0 -1 474 -7.1763973683118820e-03</internalNodes>
          <leafValues>
            5.4051923751831055e-01 -1.7080023884773254e-01</leafValues></_>
        <_>
          <internalNodes>
            0 -1 250 8.3717191591858864e-03</internalNodes>
          <leafValues>
            1.3765382766723633e-01 -5.8044868707656860e-01</leafValues></_>
        <_>
          <internalNodes>
            0 -1 138 -2.6384348166175187e-04</internalNodes>
          <leafValues>
            1.6259631514549255e-01 -3.3664947748184204e-01</leafValues></_>
        <_>
          <internalNodes>
            0 -1 547 -2.2293817251920700e-02</internalNodes>
          <leafValues>
            -6.3933688402175903e-01 8.9728049933910370e-02</leafValues></_>
        <_>
          <internalNodes>
            0 -1 629 6.7262779921293259e-03</internalNodes>
          <leafValues>
            1.6008166968822479e-01 -3.7321805953979492e-01</leafValues></_>
        <_>
          <internalNodes>
            0 -1 351 -8.1451144069433212e-03</internalNodes>
          <leafValues>
            5.7200062274932861e-01 -1.0894969850778580e-01</leafValues></_>
        <_>
          <internalNodes>
            0 -1 538 -2.1943058818578720e-03</internalNodes>
          <leafValues>
            3.3572596311569214e-01 -1.8819545209407806e-01</leafValues></_>
        <_>
          <internalNodes>
            0 -1 824 1.1624052189290524e-02</internalNodes>
          <leafValues>
            -1.4815302193164825e-01 3.3800339698791504e-01</leafValues></_>
        <_>
          <internalNodes>
            0 -1 185 7.5520365498960018e-03</internalNodes>
          <leafValues>
            9.0659365057945251e-02 -5.5322641134262085e-01</leafValues></_>
        <_>
          <internalNodes>
            0 -1 18 5.2768848836421967e-03</internalNodes>
          <leafValues>
            -1.3681344687938690e-01 4.0230673551559448e-01</leafValues></_>
        <_>
          <internalNodes>
            0 -1 487 -1.0652015917003155e-02</internalNodes>
          <leafValues>
            -9.4258701801300049e-01 5.9157107025384903e-02</leafValues></_>
        <_>
          <internalNodes>
            0 -1 697 5.2637681365013123e-03</internalNodes>
          <leafValues>
            -1.7381881177425385e-01 2.9034507274627686e-01</leafValues></_>
        <_>
          <internalNodes>
            0 -1 322 1.3875851407647133e-02</internalNodes>
          <leafValues>
            9.9399946630001068e-02 -5.9803414344787598e-01</leafValues></_>
        <_>
          <internalNodes>
            0 -1 195 -9.8166912794113159e-03</internalNodes>
          <leafValues>
            -4.0840405225753784e-01 9.3319892883300781e-02</leafValues></_>
        <_>
          <internalNodes>
            0 -1 287 -2.1250423043966293e-02</internalNodes>
          <leafValues>
            -7.1707582473754883e-01 5.8629360049962997e-02</leafValues></_>
        <_>
          <internalNodes>
            0 -1 574 2.7948274509981275e-04</internalNodes>
          <leafValues>
            1.5356756746768951e-01 -2.7856317162513733e-01</leafValues></_>
        <_>
          <internalNodes>
            0 -1 455 -5.1039666868746281e-03</internalNodes>
          <leafValues>
            3.6042651534080505e-01 -1.3141040503978729e-01</leafValues></_>
        <_>
          <internalNodes>
            0 -1 90 -3.0593730043619871e-03</internalNodes>
          <leafValues>
            3.0183067917823792e-01 -1.4790038764476776e-01</leafValues></_>
        <_>
          <internalNodes>
            0 -1 154 2.2872400586493313e-04</internalNodes>
          <leafValues>
            2.0186296105384827e-01 -2.2647112607955933e-01</leafValues></_>
        <_>
          <internalNodes>
            0 -1 406 -1.0403691790997982e-02</internalNodes>
          <leafValues>
            -7.8179812431335449e-01 5.6481968611478806e-02</leafValues></_>
        <_>
          <internalNodes>
            0 -1 440 -9.0268962085247040e-03</internalNodes>
          <leafValues>
            3.0812597274780273e-01 -1.5611834824085236e-01</leafValues></_>
        <_>
          <internalNodes>
            0 -1 751 -2.6102133095264435e-02</internalNodes>
          <leafValues>
            -6.2266337871551514e-01 7.8356288373470306e-02</leafValues></_>
        <_>
          <internalNodes>
            0 -1 246 1.1103942524641752e-03</internalNodes>
          <leafValues>
            9.5703132450580597e-02 -4.5882225036621094e-01</leafValues></_>
        <_>
          <internalNodes>
            0 -1 507 -6.6691758111119270e-03</internalNodes>
          <leafValues>
            2.5824037194252014e-01 -1.6942998766899109e-01</leafValues></_></weakClassifiers></_>
    <!-- stage 2 -->
    <_>
      <maxWeakCount>44</maxWeakCount>
      <stageThreshold>-2.1557996273040771e+00</stageThreshold>
      <weakClassifiers>
        <_>
          <internalNodes>
            0 -1 783 -6.9711897522211075e-03</internalNodes>
          <leafValues>
            6.9075030088424683e-01 -3.9805036783218384e-01</leafValues></_>
        <_>
          <internalNodes>
            0 -1 45 -2.1260991692543030e-02</internalNodes>
          <leafValues>
            5.2643454074859619e-01 -5.5025571584701538e-01</leafValues></_>
        <_>
          <internalNodes>
            0 -1 373 -1.9168701767921448e-01</internalNodes>
          <leafValues>
            5.3650772571563721e-01 -5.7773995399475098e-01</leafValues></_>
        <_>
          <internalNodes>
            0 -1 522 -2.0800686907023191e-03</internalNodes>
          <leafValues>
            4.2100873589515686e-01 -4.2183509469032288e-01</leafValues></_>
        <_>
          <internalNodes>
            0 -1 56 4.5936610549688339e-03</internalNodes>
          <leafValues>
            -3.5321539640426636e-01 4.1089674830436707e-01</leafValues></_>
        <_>
          <internalNodes>
            0 -1 571 4.8513025976717472e-03</internalNodes>
          <leafValues>
            -2.5828725099563599e-01 4.6048256754875183e-01</leafValues></_>
        <_>
          <internalNodes>
            0 -1 721 -5.7525555603206158e-03</internalNodes>
          <leafValues>
            4.2482686042785645e-01 -2.3891878128051758e-01</leafValues></_>
        <_>
          <internalNodes>
            0 -1 2 -5.8482843451201916e-03</internalNodes>
          <leafValues>
            1.5718419849872589e-01 -3.9402198791503906e-01</leafValues></_>
        <_>
          <internalNodes>
            0 -1 341 -8.2276966422796249e-03</internalNodes>
          <leafValues>
            3.9692330360412598e-01 -1.5683498978614807e-01</leafValues></_>
        <_>
          <internalNodes>
            0 -1 677 -1.9733642693608999e-03</internalNodes>
          <leafValues>
            2.8397300839424133e-01 -2.0293994247913361e-01</leafValues></_>
        <_>
          <internalNodes>
            0 -1 535 -2.3892905563116074e-02</internalNodes>
          <leafValues>
            -5.4396504163742065e-01 1.1367972940206528e-01</leafValues></_>
        <_>
          <internalNodes>
            0 -1 536 1.7557427287101746e-02</internalNodes>
          <leafValues>
            9.0537145733833313e-02 -5.5135482549667358e-01</leafValues></_>
        <_>
          <internalNodes>
            0 -1 471 -2.2298218682408333e-03</internalNodes>
          <leafValues>
            3.3421954512596130e-01 -1.5282039344310760e-01</leafValues></_>
        <_>
          <internalNodes>
            0 -1 312 5.5741749703884125e-02</internalNodes>
          <leafValues>
            9.4054445624351501e-02 -5.6567102670669556e-01</leafValues></_>
        <_>
          <internalNodes>
            0 -1 454 1.9605970010161400e-03</internalNodes>
          <leafValues>
            -1.6651947796344757e-01 3.1880784034729004e-01</leafValues></_>
        <_>
          <internalNodes>
            0 -1 417 8.7322350591421127e-03</internalNodes>
          <leafValues>
            9.9740497767925262e-02 -5.1903057098388672e-01</leafValues></_>
        <_>
          <internalNodes>
            0 -1 90 -2.9025583062320948e-03</internalNodes>
          <leafValues>
            2.9540708661079407e-01 -1.5597772598266602e-01</leafValues></_>
        <_>
          <internalNodes>
            0 -1 649 5.7380814105272293e-03</internalNodes>
          <leafValues>
            -1.0718995332717896e-01 4.0025809407234192e-01</leafValues></_>
        <_>
          <internalNodes>
            0 -1 61 3.9843037724494934e-02</internalNodes>
          <leafValues>
            9.4424851238727570e-02 -4.4437128305435181e-01</leafValues></_>
        <_>
          <internalNodes>
            0 -1 69 -3.8674399256706238e-02</internalNodes>
          <leafValues>
            -6.0481292009353638e-01 6.5645970404148102e-02</leafValues></_>
        <_>
          <internalNodes>
            0 -1 135 -9.5625396352261305e-04</internalNodes>
          <leafValues>
            1.6220486164093018e-01 -2.5486126542091370e-01</leafValues></_>
        <_>
          <internalNodes>
            0 -1 349 -4.8730790615081787e-02</internalNodes>
          <leafValues>
            -6.9904160499572754e-01 5.2410397678613663e-02</leafValues></_>
        <_>
          <internalNodes>
            0 -1 821 1.6227241605520248e-02</internalNodes>
          <leafValues>
            -1.2567998468875885e-01 3.2240882515907288e-01</leafValues></_>
        <_>
          <internalNodes>
            0 -1 445 -1.4967849478125572e-02</internalNodes>
          <leafValues>
            1.5395306050777435e-01 -2.6533871889114380e-01</leafValues></_>
        <_>
          <internalNodes>
            0 -1 442 -7.6943691819906235e-03</internalNodes>
          <leafValues>
            2.7287337183952332e-01 -1.5738520026206970e-01</leafValues></_>
        <_>
          <internalNodes>
            0 -1 361 4.1833110153675079e-03</internalNodes>
          <leafValues>
            9.5226831734180450e-02 -4.0994021296501160e-01</leafValues></_>
        <_>
          <internalNodes>
            0 -1 433 -2.2200571838766336e-03</internalNodes>
          <leafValues>
            3.0275043845176697e-01 -1.2844717502593994e-01</leafValues></_>
        <_>
          <internalNodes>
            0 -1 188 -1.2539345026016235e-01</internalNodes>
          <leafValues>
            -7.7896416187286377e-01 5.6059658527374268e-02</leafValues></_>
        <_>
          <internalNodes>
            0 -1 11 -2.6224717497825623e-02</internalNodes>
          <leafValues>
            3.1505000591278076e-01 -1.4209789037704468e-01</leafValues></_>
        <_>
          <internalNodes>
            0 -1 430 -6.3215987756848335e-03</internalNodes>
          <leafValues>
            -5.3218626976013184e-01 7.1479879319667816e-02</leafValues></_>
        <_>
          <internalNodes>
            0 -1 415 -7.4629224836826324e-02</internalNodes>
          <leafValues>
            -7.3740607500076294e-01 4.4097248464822769e-02</leafValues></_>
        <_>
          <internalNodes>
            0 -1 572 -3.5372632555663586e-03</internalNodes>
          <leafValues>
            2.7348083257675171e-01 -1.3782760500907898e-01</leafValues></_>
        <_>
          <internalNodes>
            0 -1 276 -1.2660284992307425e-03</internalNodes>
          <leafValues>
            3.2342603802680969e-01 -1.1522963643074036e-01</leafValues></_>
        <_>
          <internalNodes>
            0 -1 399 -2.2476494312286377e-02</internalNodes>
          <leafValues>
            -6.1032277345657349e-01 6.0929883271455765e-02</leafValues></_>
        <_>
          <internalNodes>
            0 -1 198 1.7840556800365448e-02</internalNodes>
          <leafValues>
            5.0533257424831390e-02 -5.9914636611938477e-01</leafValues></_>
        <_>
          <internalNodes>
            0 -1 181 4.0968164103105664e-04</internalNodes>
          <leafValues>
            -2.2726966440677643e-01 1.5283922851085663e-01</leafValues></_>
        <_>
          <internalNodes>
            0 -1 120 -4.2142830789089203e-03</internalNodes>
          <leafValues>
            2.1991130709648132e-01 -1.5561836957931519e-01</leafValues></_>
        <_>
          <internalNodes>
            0 -1 101 5.3617921657860279e-03</internalNodes>
          <leafValues>
            -8.5558384656906128e-02 3.8330227136611938e-01</leafValues></_>
        <_>
          <internalNodes>
            0 -1 8 2.0558405667543411e-03</internalNodes>
          <leafValues>
            1.3685521483421326e-01 -2.4596650898456573e-01</leafValues></_>
        <_>
          <internalNodes>
            0 -1 819 -1.4528425410389900e-02</internalNodes>
          <leafValues>
            3.8368383049964905e-01 -8.5720181465148926e-02</leafValues></_>
        <_>
          <internalNodes>
            0 -1 396 -3.4854881465435028e-02</internalNodes>
          <leafValues>
            -7.0239675045013428e-01 5.0472415983676910e-02</leafValues></_>
        <_>
          <internalNodes>
            0 -1 550 -4.2396588250994682e-03</internalNodes>
          <leafValues>
            3.4104806184768677e-01 -1.2798207998275757e-01</leafValues></_>
        <_>
          <internalNodes>
            0 -1 529 9.0004345402121544e-03</internalNodes>
          <leafValues>
            -8.4448397159576416e-02 3.7897753715515137e-01</leafValues></_>
        <_>
          <internalNodes>
            0 -1 591 -2.1560087800025940e-02</internalNodes>
          <leafValues>
            -4.5854565501213074e-01 8.1228792667388916e-02</leafValues></_></weakClassifiers></_>
    <!-- stage 3 -->
    <_>
      <maxWeakCount>55</maxWeakCount>
      <stageThreshold>-1.9726946353912354e+00</stageThreshold>
      <weakClassifiers>
        <_>
          <internalNodes>
            0 -1 167 -2.1263036131858826e-01</internalNodes>
          <leafValues>
            6.4040780067443848e-01 -4.5368170738220215e-01</leafValues></_>
        <_>
          <internalNodes>
            0 -1 778 -1.6141906380653381e-02</internalNodes>
          <leafValues>
            5.7878994941711426e-01 -4.4126111268997192e-01</leafValues></_>
        <_>
          <internalNodes>
            0 -1 125 -5.2261925302445889e-03</internalNodes>
          <leafValues>
            4.8424205183982849e-01 -5.0766301155090332e-01</leafValues></_>
        <_>
          <internalNodes>
            0 -1 386 -1.1978773400187492e-02</internalNodes>
          <leafValues>
            3.4911531209945679e-01 -4.6262902021408081e-01</leafValues></_>
        <_>
          <internalNodes>
            0 -1 571 2.1129159722477198e-03</internalNodes>
          <leafValues>
            -3.8242387771606445e-01 3.3006042242050171e-01</leafValues></_>
        <_>
          <internalNodes>
            0 -1 192 1.4213360846042633e-03</internalNodes>
          <leafValues>
            -4.4354254007339478e-01 2.3309108614921570e-01</leafValues></_>
        <_>
          <internalNodes>
            0 -1 723 -3.9000748656690121e-03</internalNodes>
          <leafValues>
            2.1421848237514496e-01 -3.0777311325073242e-01</leafValues></_>
        <_>
          <internalNodes>
            0 -1 3 -1.3025754690170288e-01</internalNodes>
          <leafValues>
            2.3997104167938232e-01 -2.8667685389518738e-01</leafValues></_>
        <_>
          <internalNodes>
            0 -1 463 -5.3673312067985535e-03</internalNodes>
          <leafValues>
            -5.1439356803894043e-01 1.1028006672859192e-01</leafValues></_>
        <_>
          <internalNodes>
            0 -1 442 -1.3762500137090683e-02</internalNodes>
          <leafValues>
            3.6855077743530273e-01 -1.5320290625095367e-01</leafValues></_>
        <_>
          <internalNodes>
            0 -1 546 7.6237139292061329e-03</internalNodes>
          <leafValues>
            1.3008545339107513e-01 -3.9355030655860901e-01</leafValues></_>
        <_>
          <internalNodes>
            0 -1 673 -2.7790623717010021e-03</internalNodes>
          <leafValues>
            2.3828102648258209e-01 -1.8220932781696320e-01</leafValues></_>
        <_>
          <internalNodes>
            0 -1 211 1.4495117589831352e-02</internalNodes>
          <leafValues>
            7.0051632821559906e-02 -5.9345960617065430e-01</leafValues></_>
        <_>
          <internalNodes>
            0 -1 477 -2.2616555914282799e-02</internalNodes>
          <leafValues>
            -7.1489620208740234e-01 5.3519543260335922e-02</leafValues></_>
        <_>
          <internalNodes>
            0 -1 603 -9.9937589839100838e-03</internalNodes>
          <leafValues>
            -5.2240324020385742e-01 7.1401983499526978e-02</leafValues></_>
        <_>
          <internalNodes>
            0 -1 18 1.2167337117716670e-03</internalNodes>
          <leafValues>
            -1.8607662618160248e-01 2.1427139639854431e-01</leafValues></_>
        <_>
          <internalNodes>
            0 -1 201 1.7222464084625244e-03</internalNodes>
          <leafValues>
            6.4546108245849609e-02 -5.9642565250396729e-01</leafValues></_>
        <_>
          <internalNodes>
            0 -1 65 5.2116569131612778e-03</internalNodes>
          <leafValues>
            4.1259523481130600e-02 -7.7399587631225586e-01</leafValues></_>
        <_>
          <internalNodes>
            0 -1 358 -1.0573066771030426e-02</internalNodes>
          <leafValues>
            -6.4342868328094482e-01 4.6364467591047287e-02</leafValues></_>
        <_>
          <internalNodes>
            0 -1 353 -1.6353763639926910e-03</internalNodes>
          <leafValues>
            1.9740605354309082e-01 -1.7730781435966492e-01</leafValues></_>
        <_>
          <internalNodes>
            0 -1 527 -4.3662525713443756e-03</internalNodes>
          <leafValues>
            3.2326021790504456e-01 -1.1288505047559738e-01</leafValues></_>
        <_>
          <internalNodes>
            0 -1 764 -3.3035315573215485e-03</internalNodes>
          <leafValues>
            -6.3866358995437622e-01 5.7728629559278488e-02</leafValues></_>
        <_>
          <internalNodes>
            0 -1 258 1.0066941380500793e-02</internalNodes>
          <leafValues>
            1.0289523005485535e-01 -2.7534905076026917e-01</leafValues></_>
        <_>
          <internalNodes>
            0 -1 540 1.1816162616014481e-02</internalNodes>
          <leafValues>
            -8.4966003894805908e-02 3.8321921229362488e-01</leafValues></_>
        <_>
          <internalNodes>
            0 -1 483 -1.5611968934535980e-02</internalNodes>
          <leafValues>
            -6.8425649404525757e-01 4.8902872949838638e-02</leafValues></_>
        <_>
          <internalNodes>
            0 -1 823 -1.0601207613945007e-02</internalNodes>
          <leafValues>
            2.9834589362144470e-01 -1.0789939016103745e-01</leafValues></_>
        <_>
          <internalNodes>
            0 -1 389 -2.3041493259370327e-03</internalNodes>
          <leafValues>
            2.6936942338943481e-01 -1.1647489666938782e-01</leafValues></_>
        <_>
          <internalNodes>
            0 -1 191 2.8723524883389473e-03</internalNodes>
          <leafValues>
            5.0414871424436569e-02 -6.5240567922592163e-01</leafValues></_>
        <_>
          <internalNodes>
            0 -1 410 -6.5281726419925690e-02</internalNodes>
          <leafValues>
            -8.1160157918930054e-01 3.2152235507965088e-02</leafValues></_>
        <_>
          <internalNodes>
            0 -1 787 -2.7205888181924820e-04</internalNodes>
          <leafValues>
            1.4436411857604980e-01 -1.9083561003208160e-01</leafValues></_>
        <_>
          <internalNodes>
            0 -1 747 -1.8623694777488708e-02</internalNodes>
          <leafValues>
            -4.0465557575225830e-01 6.8466767668724060e-02</leafValues></_>
        <_>
          <internalNodes>
            0 -1 560 -1.6113020246848464e-03</internalNodes>
          <leafValues>
            2.9321473836898804e-01 -1.0300344973802567e-01</leafValues></_>
        <_>
          <internalNodes>
            0 -1 506 9.3650142662227154e-04</internalNodes>
          <leafValues>
            9.0971074998378754e-02 -3.2928565144538879e-01</leafValues></_>
        <_>
          <internalNodes>
            0 -1 242 1.5133356209844351e-03</internalNodes>
          <leafValues>
            -1.7357604205608368e-01 1.6882061958312988e-01</leafValues></_>
        <_>
          <internalNodes>
            0 -1 57 -9.4660315662622452e-03</internalNodes>
          <leafValues>
            3.4495645761489868e-01 -8.4805049002170563e-02</leafValues></_>
        <_>
          <internalNodes>
            0 -1 53 5.6562679819762707e-03</internalNodes>
          <leafValues>
            1.0567274689674377e-01 -3.0287078022956848e-01</leafValues></_>
        <_>
          <internalNodes>
            0 -1 104 1.7376597970724106e-02</internalNodes>
          <leafValues>
            9.8665051162242889e-02 -2.7127459645271301e-01</leafValues></_>
        <_>
          <internalNodes>
            0 -1 67 -6.5102647058665752e-03</internalNodes>
          <leafValues>
            -3.6963263154029846e-01 7.6354600489139557e-02</leafValues></_>
        <_>
          <internalNodes>
            0 -1 135 -5.2154052536934614e-04</internalNodes>
          <leafValues>
            1.2292909622192383e-01 -2.3929384350776672e-01</leafValues></_>
        <_>
          <internalNodes>
            0 -1 661 -8.8635680731385946e-04</internalNodes>
          <leafValues>
            -2.2280576825141907e-01 1.2114340811967850e-01</leafValues></_>
        <_>
          <internalNodes>
            0 -1 149 2.8492123237811029e-04</internalNodes>
          <leafValues>
            1.2729792296886444e-01 -2.1726654469966888e-01</leafValues></_>
        <_>
          <internalNodes>
            0 -1 190 -5.5452667176723480e-02</internalNodes>
          <leafValues>
            -3.3380043506622314e-01 8.3264306187629700e-02</leafValues></_>
        <_>
          <internalNodes>
            0 -1 360 1.8176214070990682e-03</internalNodes>
          <leafValues>
            9.6659235656261444e-02 -2.8198730945587158e-01</leafValues></_>
        <_>
          <internalNodes>
            0 -1 562 -7.7225845307111740e-03</internalNodes>
          <leafValues>
            -6.9133216142654419e-01 3.5467632114887238e-02</leafValues></_>
        <_>
          <internalNodes>
            0 -1 574 3.7100401823408902e-04</internalNodes>
          <leafValues>
            1.2429305166006088e-01 -2.2346329689025879e-01</leafValues></_>
        <_>
          <internalNodes>
            0 -1 762 7.1249473839998245e-03</internalNodes>
          <leafValues>
            -1.0683998465538025e-01 2.5683087110519409e-01</leafValues></_>
        <_>
          <internalNodes>
            0 -1 671 -4.3165106326341629e-03</internalNodes>
          <leafValues>
            -8.4817415475845337e-01 2.9699942097067833e-02</leafValues></_>
        <_>
          <internalNodes>
            0 -1 728 -1.7491995822638273e-03</internalNodes>
          <leafValues>
            1.5117318928241730e-01 -1.6665543615818024e-01</leafValues></_>
        <_>
          <internalNodes>
            0 -1 49 9.3244556337594986e-03</internalNodes>
          <leafValues>
            7.4856385588645935e-02 -3.5404291749000549e-01</leafValues></_>
        <_>
          <internalNodes>
            0 -1 84 8.1727688666433096e-05</internalNodes>
          <leafValues>
            1.2360572814941406e-01 -2.1086511015892029e-01</leafValues></_>
        <_>
          <internalNodes>
            0 -1 667 1.3356150127947330e-02</internalNodes>
          <leafValues>
            -4.5558981597423553e-02 5.5447697639465332e-01</leafValues></_>
        <_>
          <internalNodes>
            0 -1 468 1.2647741474211216e-02</internalNodes>
          <leafValues>
            4.9040827900171280e-02 -6.2700593471527100e-01</leafValues></_>
        <_>
          <internalNodes>
            0 -1 496 -1.4104882720857859e-03</internalNodes>
          <leafValues>
            1.6741187870502472e-01 -1.4628392457962036e-01</leafValues></_>
        <_>
          <internalNodes>
            0 -1 224 -7.9679070040583611e-03</internalNodes>
          <leafValues>
            3.3372399210929871e-01 -7.2057284414768219e-02</leafValues></_>
        <_>
          <internalNodes>
            0 -1 151 -2.6607810286805034e-04</internalNodes>
          <leafValues>
            -2.1204540133476257e-01 1.2251822650432587e-01</leafValues></_></weakClassifiers></_>
    <!-- stage 4 -->
    <_>
      <maxWeakCount>94</maxWeakCount>
      <stageThreshold>-2.0017912387847900e+00</stageThreshold>
      <weakClassifiers>
        <_>
          <internalNodes>
            0 -1 132 -5.1850788295269012e-03</internalNodes>
          <leafValues>
            6.3683474063873291e-01 -2.7990335226058960e-01</leafValues></_>
        <_>
          <internalNodes>
            0 -1 451 -1.1944741010665894e-02</internalNodes>
          <leafValues>
            4.1916230320930481e-01 -5.1662427186965942e-01</leafValues></_>
        <_>
          <internalNodes>
            0 -1 786 -9.0846912935376167e-03</internalNodes>
          <leafValues>
            3.9445266127586365e-01 -5.2677798271179199e-01</leafValues></_>
        <_>
          <internalNodes>
            0 -1 502 3.6265784874558449e-03</internalNodes>
          <leafValues>
            -4.4677543640136719e-01 3.8038092851638794e-01</leafValues></_>
        <_>
          <internalNodes>
            0 -1 220 5.1383152604103088e-03</internalNodes>
          <leafValues>
            -3.5369032621383667e-01 3.1385064125061035e-01</leafValues></_>
        <_>
          <internalNodes>
            0 -1 4 -2.7921196818351746e-01</internalNodes>
          <leafValues>
            2.3376779258251190e-01 -3.2916614413261414e-01</leafValues></_>
        <_>
          <internalNodes>
            0 -1 721 -6.7584961652755737e-03</internalNodes>
          <leafValues>
            2.8151133656501770e-01 -2.5134482979774475e-01</leafValues></_>
        <_>
          <internalNodes>
            0 -1 346 -2.4961368180811405e-03</internalNodes>
          <leafValues>
            2.8689369559288025e-01 -2.0587138831615448e-01</leafValues></_>
        <_>
          <internalNodes>
            0 -1 590 -6.2821889296174049e-03</internalNodes>
          <leafValues>
            -7.8456825017929077e-01 5.2724163979291916e-02</leafValues></_>
        <_>
          <internalNodes>
            0 -1 431 -2.9995071236044168e-04</internalNodes>
          <leafValues>
            1.3929897546768188e-01 -2.6745280623435974e-01</leafValues></_>
        <_>
          <internalNodes>
            0 -1 424 1.0085979476571083e-02</internalNodes>
          <leafValues>
            9.1505140066146851e-02 -4.0631043910980225e-01</leafValues></_>
        <_>
          <internalNodes>
            0 -1 450 -7.7111907303333282e-03</internalNodes>
          <leafValues>
            2.7782323956489563e-01 -1.3739944994449615e-01</leafValues></_>
        <_>
          <internalNodes>
            0 -1 529 -4.2000366374850273e-03</internalNodes>
          <leafValues>
            2.7833399176597595e-01 -1.5911886096000671e-01</leafValues></_>
        <_>
          <internalNodes>
            0 -1 356 8.8479444384574890e-03</internalNodes>
          <leafValues>
            1.0150817036628723e-01 -3.4472897648811340e-01</leafValues></_>
        <_>
          <internalNodes>
            0 -1 103 -7.7099064365029335e-03</internalNodes>
          <leafValues>
            2.5856152176856995e-01 -1.3022337853908539e-01</leafValues></_>
        <_>
          <internalNodes>
            0 -1 203 -8.5347099229693413e-03</internalNodes>
          <leafValues>
            -5.2105975151062012e-01 5.8974999934434891e-02</leafValues></_>
        <_>
          <internalNodes>
            0 -1 211 -2.6997145265340805e-02</internalNodes>
          <leafValues>
            -7.7711546421051025e-01 3.5471081733703613e-02</leafValues></_>
        <_>
          <internalNodes>
            0 -1 124 -4.6728849411010742e-03</internalNodes>
          <leafValues>
            1.5583124756813049e-01 -2.0637920498847961e-01</leafValues></_>
        <_>
          <internalNodes>
            0 -1 555 -1.5891084447503090e-02</internalNodes>
          <leafValues>
            -4.2781874537467957e-01 6.4320690929889679e-02</leafValues></_>
        <_>
          <internalNodes>
            0 -1 389 -3.2978341914713383e-04</internalNodes>
          <leafValues>
            1.4486497640609741e-01 -1.8650327622890472e-01</leafValues></_>
        <_>
          <internalNodes>
            0 -1 666 -9.8038427531719208e-03</internalNodes>
          <leafValues>
            2.9388108849525452e-01 -1.0272912681102753e-01</leafValues></_>
        <_>
          <internalNodes>
            0 -1 700 -4.0107248350977898e-03</internalNodes>
          <leafValues>
            -7.8065955638885498e-01 4.1239891201257706e-02</leafValues></_>
        <_>
          <internalNodes>
            0 -1 664 -8.8019492104649544e-03</internalNodes>
          <leafValues>
            2.3176889121532440e-01 -1.2180704623460770e-01</leafValues></_>
        <_>
          <internalNodes>
            0 -1 765 -3.9927768521010876e-03</internalNodes>
          <leafValues>
            -4.8951062560081482e-01 5.8494996279478073e-02</leafValues></_>
        <_>
          <internalNodes>
            0 -1 542 1.2904920615255833e-02</internalNodes>
          <leafValues>
            -8.9656680822372437e-02 3.4239768981933594e-01</leafValues></_>
        <_>
          <internalNodes>
            0 -1 376 1.2918309867382050e-01</internalNodes>
          <leafValues>
            -2.9781742021441460e-02 8.1570488214492798e-01</leafValues></_>
        <_>
          <internalNodes>
            0 -1 83 -8.3675775676965714e-03</internalNodes>
          <leafValues>
            3.0344241857528687e-01 -7.7634729444980621e-02</leafValues></_>
        <_>
          <internalNodes>
            0 -1 792 -8.6529727559536695e-04</internalNodes>
          <leafValues>
            1.5730708837509155e-01 -1.6703768074512482e-01</leafValues></_>
        <_>
          <internalNodes>
            0 -1 133 1.9968986511230469e-02</internalNodes>
          <leafValues>
            8.6013346910476685e-02 -3.3838263154029846e-01</leafValues></_>
        <_>
          <internalNodes>
            0 -1 78 -1.3314292766153812e-02</internalNodes>
          <leafValues>
            -4.7641801834106445e-01 5.4181184619665146e-02</leafValues></_>
        <_>
          <internalNodes>
            0 -1 484 2.1367158740758896e-02</internalNodes>
          <leafValues>
            3.9785183966159821e-02 -5.9244656562805176e-01</leafValues></_>
        <_>
          <internalNodes>
            0 -1 275 -7.5417617335915565e-03</internalNodes>
          <leafValues>
            4.0824034810066223e-01 -6.6070593893527985e-02</leafValues></_>
        <_>
          <internalNodes>
            0 -1 14 -5.8224361389875412e-02</internalNodes>
          <leafValues>
            1.1053374409675598e-01 -2.7102795243263245e-01</leafValues></_>
        <_>
          <internalNodes>
            0 -1 357 -9.3523059040307999e-03</internalNodes>
          <leafValues>
            3.2864704728126526e-01 -8.4072247147560120e-02</leafValues></_>
        <_>
          <internalNodes>
            0 -1 534 7.1684201247990131e-03</internalNodes>
          <leafValues>
            3.8172990083694458e-02 -7.0248836278915405e-01</leafValues></_>
        <_>
          <internalNodes>
            0 -1 144 5.3026460111141205e-02</internalNodes>
          <leafValues>
            -8.1216290593147278e-02 3.1204152107238770e-01</leafValues></_>
        <_>
          <internalNodes>
            0 -1 311 2.1407471969723701e-02</internalNodes>
          <leafValues>
            9.1161258518695831e-02 -2.9796165227890015e-01</leafValues></_>
        <_>
          <internalNodes>
            0 -1 425 -4.5486941933631897e-02</internalNodes>
          <leafValues>
            4.4002342224121094e-01 -5.9483520686626434e-02</leafValues></_>
        <_>
          <internalNodes>
            0 -1 734 -1.6680937260389328e-03</internalNodes>
          <leafValues>
            1.6424627602100372e-01 -1.4797995984554291e-01</leafValues></_>
        <_>
          <internalNodes>
            0 -1 142 4.4033288955688477e-02</internalNodes>
          <leafValues>
            3.3188309520483017e-02 -7.1094328165054321e-01</leafValues></_>
        <_>
          <internalNodes>
            0 -1 807 1.2781783938407898e-02</internalNodes>
          <leafValues>
            -1.2947258353233337e-01 1.9010502099990845e-01</leafValues></_>
        <_>
          <internalNodes>
            0 -1 707 -7.8136082738637924e-03</internalNodes>
          <leafValues>
            -4.5601016283035278e-01 6.0323622077703476e-02</leafValues></_>
        <_>
          <internalNodes>
            0 -1 830 5.4291018750518560e-04</internalNodes>
          <leafValues>
            9.5210120081901550e-02 -2.4892458319664001e-01</leafValues></_>
        <_>
          <internalNodes>
            0 -1 635 -2.9249489307403564e-03</internalNodes>
          <leafValues>
            -5.3800851106643677e-01 4.4847030192613602e-02</leafValues></_>
        <_>
          <internalNodes>
            0 -1 26 -4.4648740440607071e-03</internalNodes>
          <leafValues>
            1.3860130310058594e-01 -1.7071844637393951e-01</leafValues></_>
        <_>
          <internalNodes>
            0 -1 725 6.9135099649429321e-02</internalNodes>
          <leafValues>
            -5.1951717585325241e-02 4.7339743375778198e-01</leafValues></_>
        <_>
          <internalNodes>
            0 -1 266 -3.5216256976127625e-01</internalNodes>
          <leafValues>
            -6.9170767068862915e-01 3.9842925965785980e-02</leafValues></_>
        <_>
          <internalNodes>
            0 -1 46 -3.1778175383806229e-02</internalNodes>
          <leafValues>
            -6.5390813350677490e-01 3.4874398261308670e-02</leafValues></_>
        <_>
          <internalNodes>
            0 -1 21 1.4417587779462337e-02</internalNodes>
          <leafValues>
            -1.0555246472358704e-01 2.1943038702011108e-01</leafValues></_>
        <_>
          <internalNodes>
            0 -1 689 -1.6684718430042267e-02</internalNodes>
          <leafValues>
            2.9281285405158997e-01 -8.8258117437362671e-02</leafValues></_>
        <_>
          <internalNodes>
            0 -1 109 -2.4976465106010437e-01</internalNodes>
          <leafValues>
            4.3676045536994934e-01 -4.7305274754762650e-02</leafValues></_>
        <_>
          <internalNodes>
            0 -1 520 -5.5745954159647226e-04</internalNodes>
          <leafValues>
            1.4045651257038116e-01 -1.6323839128017426e-01</leafValues></_>
        <_>
          <internalNodes>
            0 -1 92 -7.4786320328712463e-02</internalNodes>
          <leafValues>
            2.8115192055702209e-01 -8.3053641021251678e-02</leafValues></_>
        <_>
          <internalNodes>
            0 -1 257 4.0566883981227875e-03</internalNodes>
          <leafValues>
            -1.5693393349647522e-01 1.7403955757617950e-01</leafValues></_>
        <_>
          <internalNodes>
            0 -1 642 -1.4061590190976858e-03</internalNodes>
          <leafValues>
            1.7166163027286530e-01 -1.2660212814807892e-01</leafValues></_>
        <_>
          <internalNodes>
            0 -1 498 -4.8066163435578346e-03</internalNodes>
          <leafValues>
            -5.1166737079620361e-01 5.5695202201604843e-02</leafValues></_>
        <_>
          <internalNodes>
            0 -1 279 -1.0823568701744080e-01</internalNodes>
          <leafValues>
            -5.3846687078475952e-01 3.5417068749666214e-02</leafValues></_>
        <_>
          <internalNodes>
            0 -1 337 -1.1790163116529584e-03</internalNodes>
          <leafValues>
            1.2851749360561371e-01 -1.6891756653785706e-01</leafValues></_>
        <_>
          <internalNodes>
            0 -1 607 3.2935771159827709e-03</internalNodes>
          <leafValues>
            -8.1142462790012360e-02 2.6800248026847839e-01</leafValues></_>
        <_>
          <internalNodes>
            0 -1 464 1.1028176173567772e-02</internalNodes>
          <leafValues>
            5.8299865573644638e-02 -3.6499947309494019e-01</leafValues></_>
        <_>
          <internalNodes>
            0 -1 136 -9.8205392714589834e-04</internalNodes>
          <leafValues>
            9.9849171936511993e-02 -2.0102740824222565e-01</leafValues></_>
        <_>
          <internalNodes>
            0 -1 1 -1.7470207810401917e-01</internalNodes>
          <leafValues>
            -6.1909794807434082e-01 3.3137876540422440e-02</leafValues></_>
        <_>
          <internalNodes>
            0 -1 407 -9.5829060301184654e-03</internalNodes>
          <leafValues>
            -9.4634515047073364e-01 1.8943114206194878e-02</leafValues></_>
        <_>
          <internalNodes>
            0 -1 374 -3.2396023161709309e-03</internalNodes>
          <leafValues>
            1.8981234729290009e-01 -1.0997109115123749e-01</leafValues></_>
        <_>
          <internalNodes>
            0 -1 631 -1.6375358682125807e-03</internalNodes>
          <leafValues>
            -2.7573600411415100e-01 7.1542583405971527e-02</leafValues></_>
        <_>
          <internalNodes>
            0 -1 816 1.2530675157904625e-02</internalNodes>
          <leafValues>
            -5.4934963583946228e-02 3.6254251003265381e-01</leafValues></_>
        <_>
          <internalNodes>
            0 -1 810 -9.0533317998051643e-03</internalNodes>
          <leafValues>
            2.8627324104309082e-01 -7.9659491777420044e-02</leafValues></_>
        <_>
          <internalNodes>
            0 -1 428 1.3986211270093918e-02</internalNodes>
          <leafValues>
            2.9182871803641319e-02 -7.0241588354110718e-01</leafValues></_>
        <_>
          <internalNodes>
            0 -1 419 -5.3723745048046112e-02</internalNodes>
          <leafValues>
            -3.4330421686172485e-01 5.4370988160371780e-02</leafValues></_>
        <_>
          <internalNodes>
            0 -1 161 -7.7506355009973049e-03</internalNodes>
          <leafValues>
            2.2050289809703827e-01 -8.4885902702808380e-02</leafValues></_>
        <_>
          <internalNodes>
            0 -1 602 -5.4845784325152636e-04</internalNodes>
          <leafValues>
            1.7210951447486877e-01 -1.1815711110830307e-01</leafValues></_>
        <_>
          <internalNodes>
            0 -1 577 2.8006974607706070e-03</internalNodes>
          <leafValues>
            -1.0896293073892593e-01 1.9910384714603424e-01</leafValues></_>
        <_>
          <internalNodes>
            0 -1 114 1.1550505459308624e-01</internalNodes>
          <leafValues>
            -3.0848696827888489e-02 6.0355693101882935e-01</leafValues></_>
        <_>
          <internalNodes>
            0 -1 144 -1.9337877631187439e-02</internalNodes>
          <leafValues>
            2.0889420807361603e-01 -9.6783995628356934e-02</leafValues></_>
        <_>
          <internalNodes>
            0 -1 291 2.9118265956640244e-04</internalNodes>
          <leafValues>
            1.0642599314451218e-01 -1.7939136922359467e-01</leafValues></_>
        <_>
          <internalNodes>
            0 -1 743 -1.2112161144614220e-02</internalNodes>
          <leafValues>
            1.4235657453536987e-01 -1.3970537483692169e-01</leafValues></_>
        <_>
          <internalNodes>
            0 -1 509 -3.5439312458038330e-02</internalNodes>
          <leafValues>
            -3.1571060419082642e-01 6.0090519487857819e-02</leafValues></_>
        <_>
          <internalNodes>
            0 -1 173 -7.0799179375171661e-03</internalNodes>
          <leafValues>
            1.0308762639760971e-01 -1.9268456101417542e-01</leafValues></_>
        <_>
          <internalNodes>
            0 -1 179 -5.3173508495092392e-03</internalNodes>
          <leafValues>
            -2.5357443094253540e-01 8.4511712193489075e-02</leafValues></_>
        <_>
          <internalNodes>
            0 -1 50 3.8231760263442993e-02</internalNodes>
          <leafValues>
            3.0610635876655579e-02 -7.0812672376632690e-01</leafValues></_>
        <_>
          <internalNodes>
            0 -1 375 1.5353527851402760e-02</internalNodes>
          <leafValues>
            -6.8476781249046326e-02 3.1106090545654297e-01</leafValues></_>
        <_>
          <internalNodes>
            0 -1 42 -4.3602357618510723e-04</internalNodes>
          <leafValues>
            -1.6088403761386871e-01 1.3598015904426575e-01</leafValues></_>
        <_>
          <internalNodes>
            0 -1 699 5.6670065969228745e-03</internalNodes>
          <leafValues>
            -8.4306806325912476e-02 2.2811004519462585e-01</leafValues></_>
        <_>
          <internalNodes>
            0 -1 717 -4.4062457978725433e-02</internalNodes>
          <leafValues>
            -4.8210668563842773e-01 4.2047865688800812e-02</leafValues></_>
        <_>
          <internalNodes>
            0 -1 827 6.5696905367076397e-03</internalNodes>
          <leafValues>
            -8.2120455801486969e-02 2.4539929628372192e-01</leafValues></_>
        <_>
          <internalNodes>
            0 -1 199 -6.9154966622591019e-03</internalNodes>
          <leafValues>
            -3.4016692638397217e-01 5.9168573468923569e-02</leafValues></_>
        <_>
          <internalNodes>
            0 -1 724 -2.2134208120405674e-03</internalNodes>
          <leafValues>
            1.1625003069639206e-01 -1.9285151362419128e-01</leafValues></_>
        <_>
          <internalNodes>
            0 -1 40 -3.1053956598043442e-02</internalNodes>
          <leafValues>
            1.5642322599887848e-01 -1.3900300860404968e-01</leafValues></_>
        <_>
          <internalNodes>
            0 -1 290 2.2133503109216690e-02</internalNodes>
          <leafValues>
            4.0720716118812561e-02 -4.5976367592811584e-01</leafValues></_>
        <_>
          <internalNodes>
            0 -1 772 -2.0019174553453922e-03</internalNodes>
          <leafValues>
            1.4863945543766022e-01 -1.4252345263957977e-01</leafValues></_>
        <_>
          <internalNodes>
            0 -1 671 -4.0664286352694035e-03</internalNodes>
          <leafValues>
            -7.2130256891250610e-01 2.6970783248543739e-02</leafValues></_>
        <_>
          <internalNodes>
            0 -1 408 -3.9852350950241089e-02</internalNodes>
          <leafValues>
            -8.9684581756591797e-01 1.6209935769438744e-02</leafValues></_>
        <_>
          <internalNodes>
            0 -1 398 1.1256333440542221e-02</internalNodes>
          <leafValues>
            6.4638860523700714e-02 -2.7993178367614746e-01</leafValues></_>
        <_>
          <internalNodes>
            0 -1 552 -5.7056098012253642e-04</internalNodes>
          <leafValues>
            1.6067627072334290e-01 -1.5865910053253174e-01</leafValues></_></weakClassifiers></_>
    <!-- stage 5 -->
    <_>
      <maxWeakCount>100</maxWeakCount>
      <stageThreshold>-2.0075638294219971e+00</stageThreshold>
      <weakClassifiers>
        <_>
          <internalNodes>
            0 -1 58 -1.7255200073122978e-02</internalNodes>
          <leafValues>
            6.0235249996185303e-01 -3.0282637476921082e-01</leafValues></_>
        <_>
          <internalNodes>
            0 -1 373 -2.4998614192008972e-01</internalNodes>
          <leafValues>
            4.8314639925956726e-01 -3.8023227453231812e-01</leafValues></_>
        <_>
          <internalNodes>
            0 -1 790 -8.1306742504239082e-03</internalNodes>
          <leafValues>
            4.4885653257369995e-01 -4.3676084280014038e-01</leafValues></_>
        <_>
          <internalNodes>
            0 -1 523 -2.4038711562752724e-03</internalNodes>
          <leafValues>
            3.1651183962821960e-01 -4.2368510365486145e-01</leafValues></_>
        <_>
          <internalNodes>
            0 -1 569 2.1247172262519598e-03</internalNodes>
          <leafValues>
            -2.9424050450325012e-01 2.8556537628173828e-01</leafValues></_>
        <_>
          <internalNodes>
            0 -1 729 -1.4149958733469248e-03</internalNodes>
          <leafValues>
            1.9158102571964264e-01 -3.5089889168739319e-01</leafValues></_>
        <_>
          <internalNodes>
            0 -1 63 1.6262226272374392e-03</internalNodes>
          <leafValues>
            -2.5134822726249695e-01 2.5566458702087402e-01</leafValues></_>
        <_>
          <internalNodes>
            0 -1 473 -6.2377108260989189e-03</internalNodes>
          <leafValues>
            4.4462236762046814e-01 -1.4842320978641510e-01</leafValues></_>
        <_>
          <internalNodes>
            0 -1 10 -2.7588224038481712e-02</internalNodes>
          <leafValues>
            1.3967001438140869e-01 -2.7869653701782227e-01</leafValues></_>
        <_>
          <internalNodes>
            0 -1 307 -1.7915010452270508e-02</internalNodes>
          <leafValues>
            1.5765456855297089e-01 -2.3164995014667511e-01</leafValues></_>
        <_>
          <internalNodes>
            0 -1 493 6.0150809586048126e-03</internalNodes>
          <leafValues>
            5.2622243762016296e-02 -5.7309484481811523e-01</leafValues></_>
        <_>
          <internalNodes>
            0 -1 814 4.4205896556377411e-03</internalNodes>
          <leafValues>
            -2.0881651341915131e-01 1.4414411783218384e-01</leafValues></_>
        <_>
          <internalNodes>
            0 -1 284 3.4358497709035873e-02</internalNodes>
          <leafValues>
            5.3379848599433899e-02 -4.8896118998527527e-01</leafValues></_>
        <_>
          <internalNodes>
            0 -1 110 -2.2440569009631872e-03</internalNodes>
          <leafValues>
            1.9782537221908569e-01 -1.5433096885681152e-01</leafValues></_>
        <_>
          <internalNodes>
            0 -1 575 1.1626044288277626e-03</internalNodes>
          <leafValues>
            1.0843538492918015e-01 -2.1758775413036346e-01</leafValues></_>
        <_>
          <internalNodes>
            0 -1 68 -1.6450393944978714e-02</internalNodes>
          <leafValues>
            -4.4661909341812134e-01 5.3145565092563629e-02</leafValues></_>
        <_>
          <internalNodes>
            0 -1 71 -3.8051193114370108e-03</internalNodes>
          <leafValues>
            2.3915265500545502e-01 -1.0577440261840820e-01</leafValues></_>
        <_>
          <internalNodes>
            0 -1 380 -4.8316903412342072e-02</internalNodes>
          <leafValues>
            8.6150243878364563e-02 -2.8693088889122009e-01</leafValues></_>
        <_>
          <internalNodes>
            0 -1 373 -2.4595671892166138e-01</internalNodes>
          <leafValues>
            -2.1513387560844421e-01 1.3518728315830231e-01</leafValues></_>
        <_>
          <internalNodes>
            0 -1 200 -3.6331653594970703e-02</internalNodes>
          <leafValues>
            -8.7093383073806763e-01 3.3631507307291031e-02</leafValues></_>
        <_>
          <internalNodes>
            0 -1 632 1.2800011783838272e-02</internalNodes>
          <leafValues>
            4.1227366775274277e-02 -4.5487844944000244e-01</leafValues></_>
        <_>
          <internalNodes>
            0 -1 677 -3.1466803047806025e-03</internalNodes>
          <leafValues>
            1.9606213271617889e-01 -1.2469647824764252e-01</leafValues></_>
        <_>
          <internalNodes>
            0 -1 597 4.1610719636082649e-03</internalNodes>
          <leafValues>
            5.5919129401445389e-02 -4.1617375612258911e-01</leafValues></_>
        <_>
          <internalNodes>
            0 -1 527 5.9582451358437538e-03</internalNodes>
          <leafValues>
            -6.7012973129749298e-02 3.1446760892868042e-01</leafValues></_>
        <_>
          <internalNodes>
            0 -1 527 -4.9978708848357201e-03</internalNodes>
          <leafValues>
            3.0403876304626465e-01 -8.9041672646999359e-02</leafValues></_>
        <_>
          <internalNodes>
            0 -1 741 -3.0446195974946022e-02</internalNodes>
          <leafValues>
            2.3316679894924164e-01 -1.0159070789813995e-01</leafValues></_>
        <_>
          <internalNodes>
            0 -1 763 2.3964213207364082e-02</internalNodes>
          <leafValues>
            6.6071130335330963e-02 -3.4729662537574768e-01</leafValues></_>
        <_>
          <internalNodes>
            0 -1 760 -2.2358171641826630e-02</internalNodes>
          <leafValues>
            -4.3327161669731140e-01 4.9412373453378677e-02</leafValues></_>
        <_>
          <internalNodes>
            0 -1 210 3.0933311209082603e-02</internalNodes>
          <leafValues>
            5.9531763195991516e-02 -3.4093990921974182e-01</leafValues></_>
        <_>
          <internalNodes>
            0 -1 732 -4.4398270547389984e-03</internalNodes>
          <leafValues>
            -4.4311323761940002e-01 4.6227633953094482e-02</leafValues></_>
        <_>
          <internalNodes>
            0 -1 324 -4.6382408589124680e-02</internalNodes>
          <leafValues>
            4.1514903306961060e-01 -5.1388613879680634e-02</leafValues></_>
        <_>
          <internalNodes>
            0 -1 150 -3.1587171833962202e-03</internalNodes>
          <leafValues>
            -3.0033883452415466e-01 6.9489754736423492e-02</leafValues></_>
        <_>
          <internalNodes>
            0 -1 232 1.8674677703529596e-03</internalNodes>
          <leafValues>
            -1.8933208286762238e-01 1.1320357769727707e-01</leafValues></_>
        <_>
          <internalNodes>
            0 -1 426 -9.5782037824392319e-03</internalNodes>
          <leafValues>
            -5.5407077074050903e-01 3.4723531454801559e-02</leafValues></_>
        <_>
          <internalNodes>
            0 -1 800 -1.8291730157216080e-05</internalNodes>
          <leafValues>
            1.1755469441413879e-01 -1.5663996338844299e-01</leafValues></_>
        <_>
          <internalNodes>
            0 -1 806 -1.1050479486584663e-02</internalNodes>
          <leafValues>
            3.5581156611442566e-01 -5.9315856546163559e-02</leafValues></_>
        <_>
          <internalNodes>
            0 -1 9 7.5231106020510197e-03</internalNodes>
          <leafValues>
            1.0942599922418594e-01 -1.9496096670627594e-01</leafValues></_>
        <_>
          <internalNodes>
            0 -1 333 -2.7072209864854813e-02</internalNodes>
          <leafValues>
            1.3232001662254333e-01 -1.6550724208354950e-01</leafValues></_>
        <_>
          <internalNodes>
            0 -1 223 -2.6165479421615601e-01</internalNodes>
          <leafValues>
            -6.3616365194320679e-01 2.9890509322285652e-02</leafValues></_>
        <_>
          <internalNodes>
            0 -1 639 -6.5410593524575233e-03</internalNodes>
          <leafValues>
            -6.4803874492645264e-01 2.5874132290482521e-02</leafValues></_>
        <_>
          <internalNodes>
            0 -1 438 1.1648820945993066e-03</internalNodes>
          <leafValues>
            9.5951527357101440e-02 -1.8453632295131683e-01</leafValues></_>
        <_>
          <internalNodes>
            0 -1 554 -5.1570665091276169e-03</internalNodes>
          <leafValues>
            2.2095339000225067e-01 -8.0907635390758514e-02</leafValues></_>
        <_>
          <internalNodes>
            0 -1 541 7.8516323119401932e-03</internalNodes>
          <leafValues>
            -9.2066243290901184e-02 2.7154079079627991e-01</leafValues></_>
        <_>
          <internalNodes>
            0 -1 462 -1.2096235528588295e-02</internalNodes>
          <leafValues>
            -3.0402886867523193e-01 6.2822744250297546e-02</leafValues></_>
        <_>
          <internalNodes>
            0 -1 545 1.0422778315842152e-02</internalNodes>
          <leafValues>
            2.9729325324296951e-02 -6.7536342144012451e-01</leafValues></_>
        <_>
          <internalNodes>
            0 -1 829 -5.0941230729222298e-03</internalNodes>
          <leafValues>
            2.7575880289077759e-01 -7.6130658388137817e-02</leafValues></_>
        <_>
          <internalNodes>
            0 -1 559 7.1098022162914276e-03</internalNodes>
          <leafValues>
            5.9280786663293839e-02 -3.6749747395515442e-01</leafValues></_>
        <_>
          <internalNodes>
            0 -1 330 -4.2769755236804485e-04</internalNodes>
          <leafValues>
            -1.8308714032173157e-01 1.1173684895038605e-01</leafValues></_>
        <_>
          <internalNodes>
            0 -1 259 -3.2816030085086823e-02</internalNodes>
          <leafValues>
            -8.6229753494262695e-01 2.2856026887893677e-02</leafValues></_>
        <_>
          <internalNodes>
            0 -1 135 -9.1425562277436256e-04</internalNodes>
          <leafValues>
            9.4486817717552185e-02 -1.9048324227333069e-01</leafValues></_>
        <_>
          <internalNodes>
            0 -1 441 1.6197906807065010e-03</internalNodes>
          <leafValues>
            9.5762692391872406e-02 -1.9355461001396179e-01</leafValues></_>
        <_>
          <internalNodes>
            0 -1 336 -7.4231708422303200e-03</internalNodes>
          <leafValues>
            3.0096596479415894e-01 -6.3047640025615692e-02</leafValues></_>
        <_>
          <internalNodes>
            0 -1 175 2.4774926714599133e-03</internalNodes>
          <leafValues>
            -1.1390311270952225e-01 1.6477426886558533e-01</leafValues></_>
        <_>
          <internalNodes>
            0 -1 100 -9.5223441720008850e-02</internalNodes>
          <leafValues>
            7.6810799539089203e-02 -2.4054726958274841e-01</leafValues></_>
        <_>
          <internalNodes>
            0 -1 158 6.7710295319557190e-02</internalNodes>
          <leafValues>
            -4.5991756021976471e-02 4.8590505123138428e-01</leafValues></_>
        <_>
          <internalNodes>
            0 -1 180 -9.4466013833880424e-03</internalNodes>
          <leafValues>
            -4.4775253534317017e-01 4.4308800250291824e-02</leafValues></_>
        <_>
          <internalNodes>
            0 -1 749 4.1496613994240761e-03</internalNodes>
          <leafValues>
            -1.1099442094564438e-01 1.6762287914752960e-01</leafValues></_>
        <_>
          <internalNodes>
            0 -1 105 8.2874181680381298e-04</internalNodes>
          <leafValues>
            1.3101537525653839e-01 -1.3337746262550354e-01</leafValues></_>
        <_>
          <internalNodes>
            0 -1 716 -3.1885183416306973e-03</internalNodes>
          <leafValues>
            2.0481266081333160e-01 -8.3001255989074707e-02</leafValues></_>
        <_>
          <internalNodes>
            0 -1 345 -2.2429244127124548e-03</internalNodes>
          <leafValues>
            1.8750724196434021e-01 -9.1686405241489410e-02</leafValues></_>
        <_>
          <internalNodes>
            0 -1 282 -2.1884817630052567e-02</internalNodes>
          <leafValues>
            -4.0022999048233032e-01 4.7869581729173660e-02</leafValues></_>
        <_>
          <internalNodes>
            0 -1 321 8.3021586760878563e-05</internalNodes>
          <leafValues>
            1.2509720027446747e-01 -1.4952452480792999e-01</leafValues></_>
        <_>
          <internalNodes>
            0 -1 633 -4.2691668495535851e-03</internalNodes>
          <leafValues>
            -7.6614087820053101e-01 2.4123808369040489e-02</leafValues></_>
        <_>
          <internalNodes>
            0 -1 87 6.0838740319013596e-03</internalNodes>
          <leafValues>
            -1.1140704154968262e-01 1.7725698649883270e-01</leafValues></_>
        <_>
          <internalNodes>
            0 -1 686 2.7979078004136682e-04</internalNodes>
          <leafValues>
            1.0067908465862274e-01 -1.8107309937477112e-01</leafValues></_>
        <_>
          <internalNodes>
            0 -1 457 -2.1152137778699398e-03</internalNodes>
          <leafValues>
            1.7801558971405029e-01 -1.0069353133440018e-01</leafValues></_>
        <_>
          <internalNodes>
            0 -1 182 -4.1631003841757774e-03</internalNodes>
          <leafValues>
            -2.6044130325317383e-01 6.3036814332008362e-02</leafValues></_>
        <_>
          <internalNodes>
            0 -1 688 2.9584174044430256e-03</internalNodes>
          <leafValues>
            1.1302115768194199e-01 -1.4402307569980621e-01</leafValues></_>
        <_>
          <internalNodes>
            0 -1 189 5.6453030556440353e-03</internalNodes>
          <leafValues>
            7.4059516191482544e-02 -2.5499340891838074e-01</leafValues></_>
        <_>
          <internalNodes>
            0 -1 453 1.1199796572327614e-03</internalNodes>
          <leafValues>
            -1.0350074619054794e-01 1.7869774997234344e-01</leafValues></_>
        <_>
          <internalNodes>
            0 -1 704 -7.9265295062214136e-04</internalNodes>
          <leafValues>
            1.9583632051944733e-01 -1.0106419026851654e-01</leafValues></_>
        <_>
          <internalNodes>
            0 -1 184 -4.4672726653516293e-03</internalNodes>
          <leafValues>
            -5.9482049942016602e-01 2.9780110344290733e-02</leafValues></_>
        <_>
          <internalNodes>
            0 -1 604 -1.2680059298872948e-02</internalNodes>
          <leafValues>
            4.7600880265235901e-01 -3.7669051438570023e-02</leafValues></_>
        <_>
          <internalNodes>
            0 -1 217 -1.4487691223621368e-03</internalNodes>
          <leafValues>
            -3.5319364070892334e-01 5.1008053123950958e-02</leafValues></_>
        <_>
          <internalNodes>
            0 -1 668 -4.5640943571925163e-03</internalNodes>
          <leafValues>
            2.0824791491031647e-01 -8.0502435564994812e-02</leafValues></_>
        <_>
          <internalNodes>
            0 -1 670 8.3114728331565857e-02</internalNodes>
          <leafValues>
            4.0424123406410217e-02 -4.0869721770286560e-01</leafValues></_>
        <_>
          <internalNodes>
            0 -1 499 -4.3037071824073792e-02</internalNodes>
          <leafValues>
            -7.4106734991073608e-01 2.0073393359780312e-02</leafValues></_>
        <_>
          <internalNodes>
            0 -1 563 9.2565761879086494e-03</internalNodes>
          <leafValues>
            2.5302123278379440e-02 -5.5182474851608276e-01</leafValues></_>
        <_>
          <internalNodes>
            0 -1 485 -5.2709726151078939e-04</internalNodes>
          <leafValues>
            1.4532899856567383e-01 -1.1032435297966003e-01</leafValues></_>
        <_>
          <internalNodes>
            0 -1 455 -3.8517531938850880e-03</internalNodes>
          <leafValues>
            1.5316109359264374e-01 -1.0278995335102081e-01</leafValues></_>
        <_>
          <internalNodes>
            0 -1 267 7.2631977673154324e-05</internalNodes>
          <leafValues>
            1.2156660854816437e-01 -1.4121158421039581e-01</leafValues></_>
        <_>
          <internalNodes>
            0 -1 269 -6.3919246196746826e-02</internalNodes>
          <leafValues>
            2.7259066700935364e-01 -6.2183223664760590e-02</leafValues></_>
        <_>
          <internalNodes>
            0 -1 662 -8.6354493396356702e-04</internalNodes>
          <leafValues>
            -2.3019710183143616e-01 7.5056463479995728e-02</leafValues></_>
        <_>
          <internalNodes>
            0 -1 66 -1.1389543302357197e-02</internalNodes>
          <leafValues>
            1.2837336957454681e-01 -1.2601402401924133e-01</leafValues></_>
        <_>
          <internalNodes>
            0 -1 460 4.2673768475651741e-03</internalNodes>
          <leafValues>
            3.5625752061605453e-02 -4.6890908479690552e-01</leafValues></_>
        <_>
          <internalNodes>
            0 -1 481 1.3252405449748039e-02</internalNodes>
          <leafValues>
            -5.6911099702119827e-02 3.0084773898124695e-01</leafValues></_>
        <_>
          <internalNodes>
            0 -1 467 -2.9381241649389267e-02</internalNodes>
          <leafValues>
            -4.7170275449752808e-01 4.2506508529186249e-02</leafValues></_>
        <_>
          <internalNodes>
            0 -1 813 1.7925590276718140e-02</internalNodes>
          <leafValues>
            -8.5751101374626160e-02 1.9565236568450928e-01</leafValues></_>
        <_>
          <internalNodes>
            0 -1 508 -3.9169140160083771e-02</internalNodes>
          <leafValues>
            5.4259175062179565e-01 -3.2193843275308609e-02</leafValues></_>
        <_>
          <internalNodes>
            0 -1 181 4.1057012276723981e-04</internalNodes>
          <leafValues>
            -1.4981593191623688e-01 1.1375209689140320e-01</leafValues></_>
        <_>
          <internalNodes>
            0 -1 612 -3.4762032330036163e-02</internalNodes>
          <leafValues>
            1.3294227421283722e-01 -1.3976673781871796e-01</leafValues></_>
        <_>
          <internalNodes>
            0 -1 297 8.1490360200405121e-02</internalNodes>
          <leafValues>
            -3.1483530998229980e-02 6.2363839149475098e-01</leafValues></_>
        <_>
          <internalNodes>
            0 -1 170 -8.0276854336261749e-02</internalNodes>
          <leafValues>
            8.7442284822463989e-01 -1.4510643668472767e-02</leafValues></_>
        <_>
          <internalNodes>
            0 -1 6 5.2115705329924822e-05</internalNodes>
          <leafValues>
            -1.3000187277793884e-01 1.3161520659923553e-01</leafValues></_>
        <_>
          <internalNodes>
            0 -1 622 5.6997388601303101e-03</internalNodes>
          <leafValues>
            1.0477969795465469e-01 -1.7284689843654633e-01</leafValues></_>
        <_>
          <internalNodes>
            0 -1 184 6.9798342883586884e-04</internalNodes>
          <leafValues>
            7.2714477777481079e-02 -2.3873969912528992e-01</leafValues></_>
        <_>
          <internalNodes>
            0 -1 674 1.4839322306215763e-02</internalNodes>
          <leafValues>
            3.1507492065429688e-02 -5.3040367364883423e-01</leafValues></_>
        <_>
          <internalNodes>
            0 -1 531 -1.0726531036198139e-02</internalNodes>
          <leafValues>
            2.4172127246856689e-01 -7.3849551379680634e-02</leafValues></_>
        <_>
          <internalNodes>
            0 -1 429 -5.2178977057337761e-04</internalNodes>
          <leafValues>
            1.0427209734916687e-01 -1.6439190506935120e-01</leafValues></_>
        <_>
          <internalNodes>
            0 -1 365 -2.1935237571597099e-02</internalNodes>
          <leafValues>
            4.1880327463150024e-01 -4.6017058193683624e-02</leafValues></_></weakClassifiers></_>
    <!-- stage 6 -->
    <_>
      <maxWeakCount>100</maxWeakCount>
      <stageThreshold>-2.2466397285461426e+00</stageThreshold>
      <weakClassifiers>
        <_>
          <internalNodes>
            0 -1 377 -1.1135165393352509e-01</internalNodes>
          <leafValues>
            6.1615061759948730e-01 -4.5675265789031982e-01</leafValues></_>
        <_>
          <internalNodes>
            0 -1 456 -2.6885299012064934e-03</internalNodes>
          <leafValues>
            3.6571690440177917e-01 -4.4525989890098572e-01</leafValues></_>
        <_>
          <internalNodes>
            0 -1 43 -1.7070032656192780e-02</internalNodes>
          <leafValues>
            2.8291067481040955e-01 -4.9619308114051819e-01</leafValues></_>
        <_>
          <internalNodes>
            0 -1 570 1.3835779391229153e-03</internalNodes>
          <leafValues>
            -3.4223216772079468e-01 3.0323779582977295e-01</leafValues></_>
        <_>
          <internalNodes>
            0 -1 812 4.0666535496711731e-03</internalNodes>
          <leafValues>
            -4.1393908858299255e-01 2.2967319190502167e-01</leafValues></_>
        <_>
          <internalNodes>
            0 -1 159 -9.9775210022926331e-02</internalNodes>
          <leafValues>
            2.8892114758491516e-01 -2.6502215862274170e-01</leafValues></_>
        <_>
          <internalNodes>
            0 -1 750 4.0618004277348518e-03</internalNodes>
          <leafValues>
            -2.8430506587028503e-01 1.7009909451007843e-01</leafValues></_>
        <_>
          <internalNodes>
            0 -1 64 2.6021487428806722e-04</internalNodes>
          <leafValues>
            -3.1014421582221985e-01 1.3191287219524384e-01</leafValues></_>
        <_>
          <internalNodes>
            0 -1 172 -5.1572453230619431e-03</internalNodes>
          <leafValues>
            1.5706625580787659e-01 -2.5762417912483215e-01</leafValues></_>
        <_>
          <internalNodes>
            0 -1 696 3.4277355298399925e-03</internalNodes>
          <leafValues>
            -1.7744891345500946e-01 1.9490642845630646e-01</leafValues></_>
        <_>
          <internalNodes>
            0 -1 610 3.8884490728378296e-02</internalNodes>
          <leafValues>
            -1.1243571341037750e-01 2.5540518760681152e-01</leafValues></_>
        <_>
          <internalNodes>
            0 -1 89 2.9885079129599035e-04</internalNodes>
          <leafValues>
            1.4530150592327118e-01 -1.8961441516876221e-01</leafValues></_>
        <_>
          <internalNodes>
            0 -1 475 -3.3715935423970222e-03</internalNodes>
          <leafValues>
            1.9281774759292603e-01 -1.4307792484760284e-01</leafValues></_>
        <_>
          <internalNodes>
            0 -1 748 -9.8782181739807129e-03</internalNodes>
          <leafValues>
            2.0442716777324677e-01 -1.4559033513069153e-01</leafValues></_>
        <_>
          <internalNodes>
            0 -1 447 4.9262620508670807e-02</internalNodes>
          <leafValues>
            6.4806692302227020e-02 -4.1755345463752747e-01</leafValues></_>
        <_>
          <internalNodes>
            0 -1 88 -1.3250067830085754e-01</internalNodes>
          <leafValues>
            3.6746117472648621e-01 -6.9032438099384308e-02</leafValues></_>
        <_>
          <internalNodes>
            0 -1 207 -3.7265762221068144e-03</internalNodes>
          <leafValues>
            1.9656471908092499e-01 -1.2857830524444580e-01</leafValues></_>
        <_>
          <internalNodes>
            0 -1 98 -3.2417897600680590e-03</internalNodes>
          <leafValues>
            2.0563210546970367e-01 -1.1929024755954742e-01</leafValues></_>
        <_>
          <internalNodes>
            0 -1 343 6.6948686726391315e-03</internalNodes>
          <leafValues>
            6.2207952141761780e-02 -4.2924201488494873e-01</leafValues></_>
        <_>
          <internalNodes>
            0 -1 314 -5.9103541076183319e-02</internalNodes>
          <leafValues>
            -5.0556868314743042e-01 3.9941795170307159e-02</leafValues></_>
        <_>
          <internalNodes>
            0 -1 377 -1.1425615102052689e-01</internalNodes>
          <leafValues>
            -1.3517814874649048e-01 1.8450400233268738e-01</leafValues></_>
        <_>
          <internalNodes>
            0 -1 117 1.4276915788650513e-01</internalNodes>
          <leafValues>
            -6.5482050180435181e-02 3.4960830211639404e-01</leafValues></_>
        <_>
          <internalNodes>
            0 -1 400 -3.9029918611049652e-02</internalNodes>
          <leafValues>
            -4.3684828281402588e-01 6.2513902783393860e-02</leafValues></_>
        <_>
          <internalNodes>
            0 -1 387 -2.6122100651264191e-02</internalNodes>
          <leafValues>
            1.5610685944557190e-01 -1.5611612796783447e-01</leafValues></_>
        <_>
          <internalNodes>
            0 -1 222 -1.7699497938156128e-01</internalNodes>
          <leafValues>
            -5.0036448240280151e-01 4.9038618803024292e-02</leafValues></_>
        <_>
          <internalNodes>
            0 -1 562 -9.7103416919708252e-03</internalNodes>
          <leafValues>
            -7.8993177413940430e-01 2.5640238076448441e-02</leafValues></_>
        <_>
          <internalNodes>
            0 -1 605 -4.4163935817778111e-03</internalNodes>
          <leafValues>
            1.5855748951435089e-01 -1.4969828724861145e-01</leafValues></_>
        <_>
          <internalNodes>
            0 -1 573 -2.3845075629651546e-03</internalNodes>
          <leafValues>
            3.3461743593215942e-01 -7.4098482728004456e-02</leafValues></_>
        <_>
          <internalNodes>
            0 -1 420 -2.5581340305507183e-03</internalNodes>
          <leafValues>
            1.1166463047266006e-01 -1.9175429642200470e-01</leafValues></_>
        <_>
          <internalNodes>
            0 -1 334 -5.0689862109720707e-03</internalNodes>
          <leafValues>
            1.5958374738693237e-01 -1.3346672058105469e-01</leafValues></_>
        <_>
          <internalNodes>
            0 -1 326 -1.9260201370343566e-03</internalNodes>
          <leafValues>
            -2.4195016920566559e-01 9.0009115636348724e-02</leafValues></_>
        <_>
          <internalNodes>
            0 -1 106 -1.0848371684551239e-01</internalNodes>
          <leafValues>
            3.9253234863281250e-01 -5.5098365992307663e-02</leafValues></_>
        <_>
          <internalNodes>
            0 -1 752 -1.5787571668624878e-02</internalNodes>
          <leafValues>
            -2.7251356840133667e-01 7.9044930636882782e-02</leafValues></_>
        <_>
          <internalNodes>
            0 -1 794 -5.9594894992187619e-04</internalNodes>
          <leafValues>
            1.1948338150978088e-01 -1.7133848369121552e-01</leafValues></_>
        <_>
          <internalNodes>
            0 -1 202 5.8219311758875847e-03</internalNodes>
          <leafValues>
            4.0006354451179504e-02 -4.8775681853294373e-01</leafValues></_>
        <_>
          <internalNodes>
            0 -1 630 -6.9139944389462471e-04</internalNodes>
          <leafValues>
            1.6768227517604828e-01 -1.2258665263652802e-01</leafValues></_>
        <_>
          <internalNodes>
            0 -1 123 2.9036873020231724e-03</internalNodes>
          <leafValues>
            9.5648504793643951e-02 -2.2627112269401550e-01</leafValues></_>
        <_>
          <internalNodes>
            0 -1 452 -7.0654146838933229e-04</internalNodes>
          <leafValues>
            1.8261717259883881e-01 -1.1030423641204834e-01</leafValues></_>
        <_>
          <internalNodes>
            0 -1 298 -1.0487993713468313e-03</internalNodes>
          <leafValues>
            1.3374698162078857e-01 -1.5263488888740540e-01</leafValues></_>
        <_>
          <internalNodes>
            0 -1 48 -1.5533361583948135e-02</internalNodes>
          <leafValues>
            -2.4745164811611176e-01 8.5077203810214996e-02</leafValues></_>
        <_>
          <internalNodes>
            0 -1 41 -2.5244061835110188e-03</internalNodes>
          <leafValues>
            1.0302394628524780e-01 -2.0713053643703461e-01</leafValues></_>
        <_>
          <internalNodes>
            0 -1 136 -9.8259723745286465e-04</internalNodes>
          <leafValues>
            9.7611658275127411e-02 -2.4372963607311249e-01</leafValues></_>
        <_>
          <internalNodes>
            0 -1 715 -5.0426973029971123e-03</internalNodes>
          <leafValues>
            -3.8812470436096191e-01 5.2817389369010925e-02</leafValues></_>
        <_>
          <internalNodes>
            0 -1 654 -1.5665760636329651e-01</internalNodes>
          <leafValues>
            -5.6886267662048340e-01 3.5167962312698364e-02</leafValues></_>
        <_>
          <internalNodes>
            0 -1 51 4.0419556200504303e-02</internalNodes>
          <leafValues>
            3.7518680095672607e-02 -4.4349285960197449e-01</leafValues></_>
        <_>
          <internalNodes>
            0 -1 413 -4.4835032895207405e-03</internalNodes>
          <leafValues>
            2.1504521369934082e-01 -8.1398144364356995e-02</leafValues></_>
        <_>
          <internalNodes>
            0 -1 342 -8.8957607746124268e-02</internalNodes>
          <leafValues>
            -6.9748032093048096e-01 2.8406256809830666e-02</leafValues></_>
        <_>
          <internalNodes>
            0 -1 596 -7.0376187562942505e-02</internalNodes>
          <leafValues>
            -6.8070614337921143e-01 2.3021936416625977e-02</leafValues></_>
        <_>
          <internalNodes>
            0 -1 240 2.5427434593439102e-02</internalNodes>
          <leafValues>
            -5.9155102819204330e-02 3.1563559174537659e-01</leafValues></_>
        <_>
          <internalNodes>
            0 -1 651 -2.8337766416370869e-03</internalNodes>
          <leafValues>
            1.9294382631778717e-01 -1.1243084073066711e-01</leafValues></_>
        <_>
          <internalNodes>
            0 -1 237 3.4034866839647293e-03</internalNodes>
          <leafValues>
            -1.1970694363117218e-01 1.8806470930576324e-01</leafValues></_>
        <_>
          <internalNodes>
            0 -1 618 -1.5671843290328979e-01</internalNodes>
          <leafValues>
            -5.0268340110778809e-01 3.7053916603326797e-02</leafValues></_>
        <_>
          <internalNodes>
            0 -1 818 3.2850623130798340e-02</internalNodes>
          <leafValues>
            -5.9087280184030533e-02 3.6922049522399902e-01</leafValues></_>
        <_>
          <internalNodes>
            0 -1 422 -8.8504236191511154e-03</internalNodes>
          <leafValues>
            -8.3496236801147461e-01 2.4113737046718597e-02</leafValues></_>
        <_>
          <internalNodes>
            0 -1 137 5.6384906172752380e-02</internalNodes>
          <leafValues>
            3.3358473330736160e-02 -4.7173604369163513e-01</leafValues></_>
        <_>
          <internalNodes>
            0 -1 768 5.4686116054654121e-03</internalNodes>
          <leafValues>
            3.0351351946592331e-02 -5.6845843791961670e-01</leafValues></_>
        <_>
          <internalNodes>
            0 -1 497 1.4402499422430992e-02</internalNodes>
          <leafValues>
            2.0065151154994965e-02 -7.2392320632934570e-01</leafValues></_>
        <_>
          <internalNodes>
            0 -1 289 -5.7083275169134140e-03</internalNodes>
          <leafValues>
            2.4507893621921539e-01 -7.7907256782054901e-02</leafValues></_>
        <_>
          <internalNodes>
            0 -1 434 4.3680155649781227e-03</internalNodes>
          <leafValues>
            -6.2451358884572983e-02 2.9477208852767944e-01</leafValues></_>
        <_>
          <internalNodes>
            0 -1 828 1.5418886323459446e-04</internalNodes>
          <leafValues>
            1.1265497654676437e-01 -1.4996738731861115e-01</leafValues></_>
        <_>
          <internalNodes>
            0 -1 363 -4.1704543400555849e-04</internalNodes>
          <leafValues>
            1.3450816273689270e-01 -1.2383282184600830e-01</leafValues></_>
        <_>
          <internalNodes>
            0 -1 171 -8.3456322550773621e-02</internalNodes>
          <leafValues>
            1.3604927062988281e-01 -1.2430817633867264e-01</leafValues></_>
        <_>
          <internalNodes>
            0 -1 737 -1.3888031244277954e-03</internalNodes>
          <leafValues>
            1.2713757157325745e-01 -1.3487094640731812e-01</leafValues></_>
        <_>
          <internalNodes>
            0 -1 505 -1.7372542060911655e-03</internalNodes>
          <leafValues>
            -2.4276188015937805e-01 7.0496127009391785e-02</leafValues></_>
        <_>
          <internalNodes>
            0 -1 595 4.3782424181699753e-02</internalNodes>
          <leafValues>
            2.6685534045100212e-02 -6.3831067085266113e-01</leafValues></_>
        <_>
          <internalNodes>
            0 -1 328 2.7122415602207184e-02</internalNodes>
          <leafValues>
            -5.0626136362552643e-02 3.5222595930099487e-01</leafValues></_>
        <_>
          <internalNodes>
            0 -1 13 4.6755112707614899e-02</internalNodes>
          <leafValues>
            5.7223327457904816e-02 -3.4421783685684204e-01</leafValues></_>
        <_>
          <internalNodes>
            0 -1 780 -1.7992393113672733e-03</internalNodes>
          <leafValues>
            1.3737945258617401e-01 -1.2796047329902649e-01</leafValues></_>
        <_>
          <internalNodes>
            0 -1 817 1.7992239445447922e-02</internalNodes>
          <leafValues>
            -4.4348701834678650e-02 3.7390494346618652e-01</leafValues></_>
        <_>
          <internalNodes>
            0 -1 435 1.9200215116143227e-02</internalNodes>
          <leafValues>
            3.3015046268701553e-02 -5.1781374216079712e-01</leafValues></_>
        <_>
          <internalNodes>
            0 -1 323 -1.1954272165894508e-02</internalNodes>
          <leafValues>
            2.3915967345237732e-01 -7.5817495584487915e-02</leafValues></_>
        <_>
          <internalNodes>
            0 -1 680 3.6129441577941179e-03</internalNodes>
          <leafValues>
            5.4636485874652863e-02 -3.0206602811813354e-01</leafValues></_>
        <_>
          <internalNodes>
            0 -1 36 -4.2438939213752747e-01</internalNodes>
          <leafValues>
            -4.9468544125556946e-01 3.3578827977180481e-02</leafValues></_>
        <_>
          <internalNodes>
            0 -1 219 3.3703476190567017e-02</internalNodes>
          <leafValues>
            4.5897163450717926e-02 -3.5676091909408569e-01</leafValues></_>
        <_>
          <internalNodes>
            0 -1 446 -6.2002688646316528e-03</internalNodes>
          <leafValues>
            1.5758578479290009e-01 -1.1572881042957306e-01</leafValues></_>
        <_>
          <internalNodes>
            0 -1 643 -2.2876784205436707e-03</internalNodes>
          <leafValues>
            1.5902280807495117e-01 -1.1262430995702744e-01</leafValues></_>
        <_>
          <internalNodes>
            0 -1 296 -7.6530035585165024e-03</internalNodes>
          <leafValues>
            2.6726490259170532e-01 -6.6937059164047241e-02</leafValues></_>
        <_>
          <internalNodes>
            0 -1 614 1.8046141485683620e-04</internalNodes>
          <leafValues>
            1.1403883248567581e-01 -1.5299585461616516e-01</leafValues></_>
        <_>
          <internalNodes>
            0 -1 19 -1.8502401653677225e-03</internalNodes>
          <leafValues>
            1.5937151014804840e-01 -1.1066715419292450e-01</leafValues></_>
        <_>
          <internalNodes>
            0 -1 73 -4.4132225215435028e-02</internalNodes>
          <leafValues>
            -3.9364230632781982e-01 4.4372297823429108e-02</leafValues></_>
        <_>
          <internalNodes>
            0 -1 60 -1.6580175608396530e-02</internalNodes>
          <leafValues>
            1.3511958718299866e-01 -1.4353281259536743e-01</leafValues></_>
        <_>
          <internalNodes>
            0 -1 147 -1.8264385871589184e-03</internalNodes>
          <leafValues>
            -2.6028478145599365e-01 8.0609999597072601e-02</leafValues></_>
        <_>
          <internalNodes>
            0 -1 705 -1.0863781906664371e-02</internalNodes>
          <leafValues>
            -7.8128516674041748e-01 2.2816037759184837e-02</leafValues></_>
        <_>
          <internalNodes>
            0 -1 253 -1.1846238747239113e-02</internalNodes>
          <leafValues>
            -5.5343180894851685e-01 2.4786759167909622e-02</leafValues></_>
        <_>
          <internalNodes>
            0 -1 216 -4.8209998756647110e-02</internalNodes>
          <leafValues>
            -7.8609991073608398e-01 1.8229370936751366e-02</leafValues></_>
        <_>
          <internalNodes>
            0 -1 702 2.1921796724200249e-02</internalNodes>
          <leafValues>
            3.4326218068599701e-02 -4.1471928358078003e-01</leafValues></_>
        <_>
          <internalNodes>
            0 -1 673 -1.7286362126469612e-03</internalNodes>
          <leafValues>
            1.3174712657928467e-01 -1.4498510956764221e-01</leafValues></_>
        <_>
          <internalNodes>
            0 -1 701 -3.0388110317289829e-03</internalNodes>
          <leafValues>
            2.4840639531612396e-01 -7.4773922562599182e-02</leafValues></_>
        <_>
          <internalNodes>
            0 -1 470 -4.6598337590694427e-02</internalNodes>
          <leafValues>
            -3.0528232455253601e-01 5.8008089661598206e-02</leafValues></_>
        <_>
          <internalNodes>
            0 -1 94 2.7903022710233927e-03</internalNodes>
          <leafValues>
            9.7826302051544189e-02 -1.6636100411415100e-01</leafValues></_>
        <_>
          <internalNodes>
            0 -1 234 -2.1947473287582397e-02</internalNodes>
          <leafValues>
            2.3378923535346985e-01 -7.2516046464443207e-02</leafValues></_>
        <_>
          <internalNodes>
            0 -1 606 -1.0502310469746590e-02</internalNodes>
          <leafValues>
            -8.9287096261978149e-01 1.9287301227450371e-02</leafValues></_>
        <_>
          <internalNodes>
            0 -1 152 -2.9834873974323273e-02</internalNodes>
          <leafValues>
            -7.1458137035369873e-01 1.7633406445384026e-02</leafValues></_>
        <_>
          <internalNodes>
            0 -1 244 2.0339121110737324e-03</internalNodes>
          <leafValues>
            -1.6147474944591522e-01 9.7609192132949829e-02</leafValues></_>
        <_>
          <internalNodes>
            0 -1 444 1.2129200994968414e-01</internalNodes>
          <leafValues>
            -4.0798660367727280e-02 4.1975060105323792e-01</leafValues></_>
        <_>
          <internalNodes>
            0 -1 518 -6.7945905029773712e-03</internalNodes>
          <leafValues>
            1.2212005257606506e-01 -1.5300181508064270e-01</leafValues></_>
        <_>
          <internalNodes>
            0 -1 85 3.6486673634499311e-03</internalNodes>
          <leafValues>
            -1.3703162968158722e-01 1.3183262944221497e-01</leafValues></_>
        <_>
          <internalNodes>
            0 -1 384 -1.6808394342660904e-02</internalNodes>
          <leafValues>
            -6.0977882146835327e-01 2.9292644932866096e-02</leafValues></_>
        <_>
          <internalNodes>
            0 -1 235 -4.6943267807364464e-03</internalNodes>
          <leafValues>
            2.9080638289451599e-01 -6.4687304198741913e-02</leafValues></_>
        <_>
          <internalNodes>
            0 -1 480 1.1802250519394875e-03</internalNodes>
          <leafValues>
            -9.3001402914524078e-02 1.7617854475975037e-01</leafValues></_></weakClassifiers></_>
    <!-- stage 7 -->
    <_>
      <maxWeakCount>100</maxWeakCount>
      <stageThreshold>-1.8953139781951904e+00</stageThreshold>
      <weakClassifiers>
        <_>
          <internalNodes>
            0 -1 162 -2.6808029413223267e-01</internalNodes>
          <leafValues>
            6.2064963579177856e-01 -3.0498281121253967e-01</leafValues></_>
        <_>
          <internalNodes>
            0 -1 568 1.1475178180262446e-03</internalNodes>
          <leafValues>
            -3.1940937042236328e-01 4.1592699289321899e-01</leafValues></_>
        <_>
          <internalNodes>
            0 -1 130 -1.9395223353058100e-03</internalNodes>
          <leafValues>
            2.6785990595817566e-01 -5.1841336488723755e-01</leafValues></_>
        <_>
          <internalNodes>
            0 -1 523 -3.5699587315320969e-03</internalNodes>
          <leafValues>
            3.1667265295982361e-01 -3.5851019620895386e-01</leafValues></_>
        <_>
          <internalNodes>
            0 -1 776 -7.1274861693382263e-03</internalNodes>
          <leafValues>
            2.4417595565319061e-01 -4.6678176522254944e-01</leafValues></_>
        <_>
          <internalNodes>
            0 -1 243 3.6937121767550707e-03</internalNodes>
          <leafValues>
            -3.0120828747749329e-01 2.0899374783039093e-01</leafValues></_>
        <_>
          <internalNodes>
            0 -1 727 -1.1900517856702209e-03</internalNodes>
          <leafValues>
            1.2502747774124146e-01 -2.8820496797561646e-01</leafValues></_>
        <_>
          <internalNodes>
            0 -1 129 -4.8493995564058423e-04</internalNodes>
          <leafValues>
            1.1651996523141861e-01 -2.9558026790618896e-01</leafValues></_>
        <_>
          <internalNodes>
            0 -1 338 3.0113212764263153e-02</internalNodes>
          <leafValues>
            9.4490654766559601e-02 -3.3999320864677429e-01</leafValues></_>
        <_>
          <internalNodes>
            0 -1 404 3.0792690813541412e-03</internalNodes>
          <leafValues>
            -1.4396303892135620e-01 2.2953222692012787e-01</leafValues></_>
        <_>
          <internalNodes>
            0 -1 274 -5.2399951964616776e-03</internalNodes>
          <leafValues>
            1.9567278027534485e-01 -1.6713173687458038e-01</leafValues></_>
        <_>
          <internalNodes>
            0 -1 592 1.1748524382710457e-02</internalNodes>
          <leafValues>
            7.3888376355171204e-02 -3.5008344054222107e-01</leafValues></_>
        <_>
          <internalNodes>
            0 -1 673 -2.7394019998610020e-03</internalNodes>
          <leafValues>
            1.7781308293342590e-01 -1.5321694314479828e-01</leafValues></_>
        <_>
          <internalNodes>
            0 -1 153 7.9744815826416016e-02</internalNodes>
          <leafValues>
            5.5785458534955978e-02 -4.5375892519950867e-01</leafValues></_>
        <_>
          <internalNodes>
            0 -1 186 1.4099315740168095e-04</internalNodes>
          <leafValues>
            -2.4135853350162506e-01 1.2312171608209610e-01</leafValues></_>
        <_>
          <internalNodes>
            0 -1 409 -3.7027556449174881e-02</internalNodes>
          <leafValues>
            -5.6462925672531128e-01 4.0694423019886017e-02</leafValues></_>
        <_>
          <internalNodes>
            0 -1 687 1.7035808414220810e-02</internalNodes>
          <leafValues>
            4.3970588594675064e-02 -5.0237762928009033e-01</leafValues></_>
        <_>
          <internalNodes>
            0 -1 263 3.5111061297357082e-03</internalNodes>
          <leafValues>
            1.1144285649061203e-01 -2.1418470144271851e-01</leafValues></_>
        <_>
          <internalNodes>
            0 -1 681 1.8488897010684013e-02</internalNodes>
          <leafValues>
            4.0365282446146011e-02 -5.4192382097244263e-01</leafValues></_>
        <_>
          <internalNodes>
            0 -1 804 -1.2696334160864353e-03</internalNodes>
          <leafValues>
            -2.4884223937988281e-01 7.8965559601783752e-02</leafValues></_>
        <_>
          <internalNodes>
            0 -1 236 -6.1900973320007324e-02</internalNodes>
          <leafValues>
            -6.6450941562652588e-01 3.0159469693899155e-02</leafValues></_>
        <_>
          <internalNodes>
            0 -1 214 2.7549680322408676e-02</internalNodes>
          <leafValues>
            -7.0664994418621063e-02 2.7494725584983826e-01</leafValues></_>
        <_>
          <internalNodes>
            0 -1 116 1.1516254395246506e-01</internalNodes>
          <leafValues>
            -7.2648838162422180e-02 3.3518597483634949e-01</leafValues></_>
        <_>
          <internalNodes>
            0 -1 115 -6.7684561014175415e-02</internalNodes>
          <leafValues>
            2.3315364122390747e-01 -9.7204595804214478e-02</leafValues></_>
        <_>
          <internalNodes>
            0 -1 385 -5.8050490915775299e-03</internalNodes>
          <leafValues>
            1.1288561671972275e-01 -1.8488620221614838e-01</leafValues></_>
        <_>
          <internalNodes>
            0 -1 795 -1.7092571943067014e-04</internalNodes>
          <leafValues>
            1.3384722173213959e-01 -1.4674121141433716e-01</leafValues></_>
        <_>
          <internalNodes>
            0 -1 745 -8.7126791477203369e-03</internalNodes>
          <leafValues>
            -2.4021251499652863e-01 1.1275748163461685e-01</leafValues></_>
        <_>
          <internalNodes>
            0 -1 81 -1.2419557198882103e-02</internalNodes>
          <leafValues>
            2.0514403283596039e-01 -9.9384233355522156e-02</leafValues></_>
        <_>
          <internalNodes>
            0 -1 316 -6.2387876212596893e-02</internalNodes>
          <leafValues>
            -8.1938058137893677e-01 2.3944005370140076e-02</leafValues></_>
        <_>
          <internalNodes>
            0 -1 527 5.0605125725269318e-03</internalNodes>
          <leafValues>
            -7.6156400144100189e-02 2.4950015544891357e-01</leafValues></_>
        <_>
          <internalNodes>
            0 -1 527 -5.1500350236892700e-03</internalNodes>
          <leafValues>
            2.9274371266365051e-01 -8.9683130383491516e-02</leafValues></_>
        <_>
          <internalNodes>
            0 -1 665 -2.8362516313791275e-02</internalNodes>
          <leafValues>
            -2.4358141422271729e-01 8.3475723862648010e-02</leafValues></_>
        <_>
          <internalNodes>
            0 -1 414 -1.9637506455183029e-02</internalNodes>
          <leafValues>
            -5.3564292192459106e-01 3.4149795770645142e-02</leafValues></_>
        <_>
          <internalNodes>
            0 -1 265 4.2313551902770996e-01</internalNodes>
          <leafValues>
            -3.7702269852161407e-02 5.6633633375167847e-01</leafValues></_>
        <_>
          <internalNodes>
            0 -1 34 -2.8433455154299736e-02</internalNodes>
          <leafValues>
            1.5691320598125458e-01 -1.3421015441417694e-01</leafValues></_>
        <_>
          <internalNodes>
            0 -1 75 9.4167777569964528e-04</internalNodes>
          <leafValues>
            -1.5341834723949432e-01 1.3207960128784180e-01</leafValues></_>
        <_>
          <internalNodes>
            0 -1 15 -4.2718954384326935e-02</internalNodes>
          <leafValues>
            2.8345984220504761e-01 -6.6326104104518890e-02</leafValues></_>
        <_>
          <internalNodes>
            0 -1 564 -5.7628157082945108e-04</internalNodes>
          <leafValues>
            1.2511730194091797e-01 -1.5207934379577637e-01</leafValues></_>
        <_>
          <internalNodes>
            0 -1 164 6.3435169868171215e-03</internalNodes>
          <leafValues>
            -5.7338595390319824e-02 3.5154038667678833e-01</leafValues></_>
        <_>
          <internalNodes>
            0 -1 96 4.4419459300115705e-04</internalNodes>
          <leafValues>
            9.9048778414726257e-02 -1.8985562026500702e-01</leafValues></_>
        <_>
          <internalNodes>
            0 -1 378 3.1248148530721664e-02</internalNodes>
          <leafValues>
            5.0848670303821564e-02 -3.5915011167526245e-01</leafValues></_>
        <_>
          <internalNodes>
            0 -1 641 -1.9156987546011806e-03</internalNodes>
          <leafValues>
            2.8605115413665771e-01 -8.3131328225135803e-02</leafValues></_>
        <_>
          <internalNodes>
            0 -1 770 -6.3458234071731567e-03</internalNodes>
          <leafValues>
            -3.4346055984497070e-01 5.7379681617021561e-02</leafValues></_>
        <_>
          <internalNodes>
            0 -1 183 -5.2445799112319946e-02</internalNodes>
          <leafValues>
            -5.4167807102203369e-01 3.0974620953202248e-02</leafValues></_>
        <_>
          <internalNodes>
            0 -1 548 2.4017438292503357e-02</internalNodes>
          <leafValues>
            5.8274123817682266e-02 -2.9299619793891907e-01</leafValues></_>
        <_>
          <internalNodes>
            0 -1 432 -3.7837371230125427e-02</internalNodes>
          <leafValues>
            3.7433999776840210e-01 -4.6801906079053879e-02</leafValues></_>
        <_>
          <internalNodes>
            0 -1 601 -5.3894286975264549e-03</internalNodes>
          <leafValues>
            1.1686855554580688e-01 -1.8112185597419739e-01</leafValues></_>
        <_>
          <internalNodes>
            0 -1 769 -1.1415435001254082e-03</internalNodes>
          <leafValues>
            -1.9245822727680206e-01 8.4706105291843414e-02</leafValues></_>
        <_>
          <internalNodes>
            0 -1 347 -6.8688774481415749e-03</internalNodes>
          <leafValues>
            1.6560173034667969e-01 -9.9622473120689392e-02</leafValues></_>
        <_>
          <internalNodes>
            0 -1 364 -2.4773307144641876e-02</internalNodes>
          <leafValues>
            -6.1201804876327515e-01 2.8404310345649719e-02</leafValues></_>
        <_>
          <internalNodes>
            0 -1 511 -5.3082974773133174e-05</internalNodes>
          <leafValues>
            1.2042373418807983e-01 -1.3875165581703186e-01</leafValues></_>
        <_>
          <internalNodes>
            0 -1 627 -1.3022369239479303e-03</internalNodes>
          <leafValues>
            1.5949660539627075e-01 -1.0760286450386047e-01</leafValues></_>
        <_>
          <internalNodes>
            0 -1 615 -2.6460912078619003e-02</internalNodes>
          <leafValues>
            -5.1454341411590576e-01 3.2048504799604416e-02</leafValues></_>
        <_>
          <internalNodes>
            0 -1 657 -5.3576519712805748e-03</internalNodes>
          <leafValues>
            -6.5609461069107056e-01 2.0930647850036621e-02</leafValues></_>
        <_>
          <internalNodes>
            0 -1 242 1.4912057667970657e-03</internalNodes>
          <leafValues>
            -1.3916277885437012e-01 1.1400477588176727e-01</leafValues></_>
        <_>
          <internalNodes>
