<?xml version="1.0"?>
<opencv_storage>
<cascade>
  <stageType>BOOST</stageType>
  <featureType>HAAR</featureType>
  <height>20</height>
  <width>20</width>
  <stageParams>
    <boostType>GAB</boostType>
    <minHitRate>9.9989998340606689e-01</minHitRate>
    <maxFalseAlarm>5.0000000000000000e-01</maxFalseAlarm>
    <weightTrimRate>9.4999999999999996e-01</weightTrimRate>
    <maxDepth>1</maxDepth>
    <maxWeakCount>100</maxWeakCount></stageParams>
  <featureParams>
    <maxCatCount>0</maxCatCount>
    <featSize>1</featSize>
    <mode>BASIC</mode></featureParams>
  <stageNum>10</stageNum>
  <stages>
    <!-- stage 0 -->
    <_>
      <maxWeakCount>7</maxWeakCount>
      <stageThreshold>-2.4308140277862549e+00</stageThreshold>
      <weakClassifiers>
        <_>
          <internalNodes>
            0 -1 174 2.5412000715732574e-02</internalNodes>
          <leafValues>
            -5.9530264139175415e-01 9.2312103509902954e-01</leafValues></_>
        <_>
          <internalNodes>
            0 -1 230 5.2604377269744873e-03</internalNodes>
          <leafValues>
            -5.4143977165222168e-01 8.8118201494216919e-01</leafValues></_>
        <_>
          <internalNodes>
            0 -1 18 -7.5512006878852844e-03</internalNodes>
          <leafValues>
            8.6948573589324951e-01 -5.2281457185745239e-01</leafValues></_>
        <_>
          <internalNodes>
            0 -1 103 -6.2965434044599533e-03</internalNodes>
          <leafValues>
            8.6333125829696655e-01 -4.4903877377510071e-01</leafValues></_>
        <_>
          <internalNodes>
            0 -1 26 1.5916552394628525e-02</internalNodes>
          <leafValues>
            -7.4655199050903320e-01 4.7190842032432556e-01</leafValues></_>
        <_>
          <internalNodes>
            0 -1 114 -8.3646550774574280e-03</internalNodes>
          <leafValues>
            4.1452500224113464e-01 -6.9322735071182251e-01</leafValues></_>
        <_>
          <internalNodes>
            0 -1 215 4.1542956605553627e-03</internalNodes>
          <leafValues>
            -4.0086251497268677e-01 7.2486531734466553e-01</leafValues></_></weakClassifiers></_>
    <!-- stage 1 -->
    <_>
      <maxWeakCount>12</maxWeakCount>
      <stageThreshold>-2.1440920829772949e+00</stageThreshold>
      <weakClassifiers>
        <_>
          <internalNodes>
            0 -1 18 -5.5539193563163280e-03</internalNodes>
          <leafValues>
            7.9830145835876465e-01 -5.7349896430969238e-01</leafValues></_>
        <_>
          <internalNodes>
            0 -1 98 -5.4640946909785271e-03</internalNodes>
          <leafValues>
            7.2466659545898438e-01 -6.0772812366485596e-01</leafValues></_>
        <_>
          <internalNodes>
            0 -1 228 8.4818284958600998e-03</internalNodes>
          <leafValues>
            -6.0266387462615967e-01 6.7024260759353638e-01</leafValues></_>
        <_>
          <internalNodes>
            0 -1 116 -8.0537311732769012e-03</internalNodes>
          <leafValues>
            6.5465235710144043e-01 -4.9204239249229431e-01</leafValues></_>
        <_>
          <internalNodes>
            0 -1 173 1.4664339832961559e-02</internalNodes>
          <leafValues>
            -5.0700974464416504e-01 5.6677442789077759e-01</leafValues></_>
        <_>
          <internalNodes>
            0 -1 33 3.0244350433349609e-02</internalNodes>
          <leafValues>
            -6.0120570659637451e-01 3.4472951292991638e-01</leafValues></_>
        <_>
          <internalNodes>
            0 -1 36 -1.0256746783852577e-02</internalNodes>
          <leafValues>
            2.5573086738586426e-01 -6.2963712215423584e-01</leafValues></_>
        <_>
          <internalNodes>
            0 -1 200 -5.9321499429643154e-03</internalNodes>
          <leafValues>
            5.9822398424148560e-01 -3.1054130196571350e-01</leafValues></_>
        <_>
          <internalNodes>
            0 -1 82 -1.8123667687177658e-03</internalNodes>
          <leafValues>
            2.6544973254203796e-01 -6.0741722583770752e-01</leafValues></_>
        <_>
          <internalNodes>
            0 -1 30 -1.0841192677617073e-02</internalNodes>
          <leafValues>
            7.7471780776977539e-01 -2.0193310081958771e-01</leafValues></_>
        <_>
          <internalNodes>
            0 -1 2 -3.1564936041831970e-02</internalNodes>
          <leafValues>
            4.8823979496955872e-01 -2.8086552023887634e-01</leafValues></_>
        <_>
          <internalNodes>
            0 -1 110 1.0697196703404188e-03</internalNodes>
          <leafValues>
            -3.4248447418212891e-01 4.4848287105560303e-01</leafValues></_></weakClassifiers></_>
    <!-- stage 2 -->
    <_>
      <maxWeakCount>14</maxWeakCount>
      <stageThreshold>-1.9824885129928589e+00</stageThreshold>
      <weakClassifiers>
        <_>
          <internalNodes>
            0 -1 91 -4.8185568302869797e-03</internalNodes>
          <leafValues>
            7.3259335756301880e-01 -5.7834100723266602e-01</leafValues></_>
        <_>
          <internalNodes>
            0 -1 230 8.3466134965419769e-03</internalNodes>
          <leafValues>
            -5.4494750499725342e-01 6.4494234323501587e-01</leafValues></_>
        <_>
          <internalNodes>
            0 -1 183 6.2263607978820801e-03</internalNodes>
          <leafValues>
            -5.0605630874633789e-01 6.0097783803939819e-01</leafValues></_>
        <_>
          <internalNodes>
            0 -1 132 7.8594125807285309e-03</internalNodes>
          <leafValues>
            -6.1594462394714355e-01 4.7704493999481201e-01</leafValues></_>
        <_>
          <internalNodes>
            0 -1 6 -1.2499940581619740e-02</internalNodes>
          <leafValues>
            4.1639280319213867e-01 -5.3924852609634399e-01</leafValues></_>
        <_>
          <internalNodes>
            0 -1 13 -2.8056384995579720e-02</internalNodes>
          <leafValues>
            2.6136368513107300e-01 -6.0773253440856934e-01</leafValues></_>
        <_>
          <internalNodes>
            0 -1 9 8.7399177253246307e-02</internalNodes>
          <leafValues>
            -3.3557856082916260e-01 5.3496110439300537e-01</leafValues></_>
        <_>
          <internalNodes>
            0 -1 105 -1.0733372764661908e-03</internalNodes>
          <leafValues>
            3.5290375351905823e-01 -4.5081597566604614e-01</leafValues></_>
        <_>
          <internalNodes>
            0 -1 131 -1.5595957636833191e-02</internalNodes>
          <leafValues>
            7.9834932088851929e-01 -2.1874162554740906e-01</leafValues></_>
        <_>
          <internalNodes>
            0 -1 150 3.2816040329635143e-03</internalNodes>
          <leafValues>
            2.6370084285736084e-01 -5.8507859706878662e-01</leafValues></_>
        <_>
          <internalNodes>
            0 -1 186 4.8523712903261185e-03</internalNodes>
          <leafValues>
            2.5983867049217224e-01 -5.1446837186813354e-01</leafValues></_>
        <_>
          <internalNodes>
            0 -1 165 -9.3815021682530642e-04</internalNodes>
          <leafValues>
            3.0866947770118713e-01 -4.1600519418716431e-01</leafValues></_>
        <_>
          <internalNodes>
            0 -1 126 -1.6148131340742111e-02</internalNodes>
          <leafValues>
            -6.7590206861495972e-01 2.0336380600929260e-01</leafValues></_>
        <_>
          <internalNodes>
            0 -1 4 -1.6997124999761581e-02</internalNodes>
          <leafValues>
            2.4252220988273621e-01 -4.6178206801414490e-01</leafValues></_></weakClassifiers></_>
    <!-- stage 3 -->
    <_>
      <maxWeakCount>20</maxWeakCount>
      <stageThreshold>-2.0880537033081055e+00</stageThreshold>
      <weakClassifiers>
        <_>
          <internalNodes>
            0 -1 221 -7.0955539122223854e-03</internalNodes>
          <leafValues>
            7.3534160852432251e-01 -4.2078709602355957e-01</leafValues></_>
        <_>
          <internalNodes>
            0 -1 38 -5.2402406930923462e-02</internalNodes>
          <leafValues>
            6.7368876934051514e-01 -4.6582686901092529e-01</leafValues></_>
        <_>
          <internalNodes>
            0 -1 18 -9.6432343125343323e-03</internalNodes>
          <leafValues>
            5.8128559589385986e-01 -5.2807039022445679e-01</leafValues></_>
        <_>
          <internalNodes>
            0 -1 203 -7.0833740755915642e-03</internalNodes>
          <leafValues>
            5.4740136861801147e-01 -4.1620323061943054e-01</leafValues></_>
        <_>
          <internalNodes>
            0 -1 138 2.3118957877159119e-02</internalNodes>
          <leafValues>
            -5.0771272182464600e-01 3.9791229367256165e-01</leafValues></_>
        <_>
          <internalNodes>
            0 -1 96 -6.6544460132718086e-03</internalNodes>
          <leafValues>
            3.4599056839942932e-01 -4.6227446198463440e-01</leafValues></_>
        <_>
          <internalNodes>
            0 -1 179 1.1378775350749493e-02</internalNodes>
          <leafValues>
            1.7281624674797058e-01 -6.4423942565917969e-01</leafValues></_>
        <_>
          <internalNodes>
            0 -1 145 -1.4696936123073101e-03</internalNodes>
          <leafValues>
            -5.5186992883682251e-01 1.9361299276351929e-01</leafValues></_>
        <_>
          <internalNodes>
            0 -1 29 -7.9524308443069458e-02</internalNodes>
          <leafValues>
            1.8528856337070465e-01 -4.7601884603500366e-01</leafValues></_>
        <_>
          <internalNodes>
            0 -1 184 4.1820839978754520e-03</internalNodes>
          <leafValues>
            -2.2732932865619659e-01 4.5578396320343018e-01</leafValues></_>
        <_>
          <internalNodes>
            0 -1 144 -2.6493696495890617e-03</internalNodes>
          <leafValues>
            2.6289424300193787e-01 -3.4711486101150513e-01</leafValues></_>
        <_>
          <internalNodes>
            0 -1 77 -1.8039259593933821e-03</internalNodes>
          <leafValues>
            1.6661918163299561e-01 -5.5633759498596191e-01</leafValues></_>
        <_>
          <internalNodes>
            0 -1 65 -5.7843454182147980e-02</internalNodes>
          <leafValues>
            -6.4607310295104980e-01 1.4663283526897430e-01</leafValues></_>
        <_>
          <internalNodes>
            0 -1 109 4.0535982698202133e-03</internalNodes>
          <leafValues>
            1.2190926074981689e-01 -6.2822663784027100e-01</leafValues></_>
        <_>
          <internalNodes>
            0 -1 191 -1.6156565397977829e-02</internalNodes>
          <leafValues>
            4.6912521123886108e-01 -1.7012913525104523e-01</leafValues></_>
        <_>
          <internalNodes>
            0 -1 81 2.1190838888287544e-03</internalNodes>
          <leafValues>
            -3.0112147331237793e-01 2.5539737939834595e-01</leafValues></_>
        <_>
          <internalNodes>
            0 -1 162 2.9165804386138916e-02</internalNodes>
          <leafValues>
            9.3786418437957764e-02 -8.1901961565017700e-01</leafValues></_>
        <_>
          <internalNodes>
            0 -1 196 -3.9245756343007088e-03</internalNodes>
          <leafValues>
            3.9369148015975952e-01 -2.3268987238407135e-01</leafValues></_>
        <_>
          <internalNodes>
            0 -1 59 -1.2688690796494484e-02</internalNodes>
          <leafValues>
            2.0766243338584900e-01 -3.8960972428321838e-01</leafValues></_>
        <_>
          <internalNodes>
            0 -1 119 -1.7953261733055115e-02</internalNodes>
          <leafValues>
            6.3908982276916504e-01 -1.5044565498828888e-01</leafValues></_></weakClassifiers></_>
    <!-- stage 4 -->
    <_>
      <maxWeakCount>24</maxWeakCount>
      <stageThreshold>-1.9003467559814453e+00</stageThreshold>
      <weakClassifiers>
        <_>
          <internalNodes>
            0 -1 148 -1.5589641407132149e-02</internalNodes>
          <leafValues>
            6.6783744096755981e-01 -4.4457408785820007e-01</leafValues></_>
        <_>
          <internalNodes>
            0 -1 231 3.6287638358771801e-03</internalNodes>
          <leafValues>
            -5.8236199617385864e-01 4.6031427383422852e-01</leafValues></_>
        <_>
          <internalNodes>
            0 -1 18 -5.6892428547143936e-03</internalNodes>
          <leafValues>
            3.8286587595939636e-01 -6.1234641075134277e-01</leafValues></_>
        <_>
          <internalNodes>
            0 -1 74 -1.0751307010650635e-02</internalNodes>
          <leafValues>
            4.6497768163681030e-01 -5.0094699859619141e-01</leafValues></_>
        <_>
          <internalNodes>
            0 -1 56 7.4413903057575226e-03</internalNodes>
          <leafValues>
            -4.5853841304779053e-01 4.2310810089111328e-01</leafValues></_>
        <_>
          <internalNodes>
            0 -1 67 -2.2993611637502909e-03</internalNodes>
          <leafValues>
            2.3794817924499512e-01 -6.3691014051437378e-01</leafValues></_>
        <_>
          <internalNodes>
            0 -1 100 -1.0892970487475395e-02</internalNodes>
          <leafValues>
            5.1440876722335815e-01 -2.5746047496795654e-01</leafValues></_>
        <_>
          <internalNodes>
            0 -1 140 1.7839870415627956e-03</internalNodes>
          <leafValues>
            1.7155738174915314e-01 -6.8846517801284790e-01</leafValues></_>
        <_>
          <internalNodes>
            0 -1 206 -1.1656123679131269e-03</internalNodes>
          <leafValues>
            1.8143746256828308e-01 -4.0118134021759033e-01</leafValues></_>
        <_>
          <internalNodes>
            0 -1 41 -1.1895241215825081e-02</internalNodes>
          <leafValues>
            2.0439909398555756e-01 -4.2452216148376465e-01</leafValues></_>
        <_>
          <internalNodes>
            0 -1 12 -5.1810024306178093e-03</internalNodes>
          <leafValues>
            3.3672538399696350e-01 -2.8263857960700989e-01</leafValues></_>
        <_>
          <internalNodes>
            0 -1 181 3.7086606025695801e-03</internalNodes>
          <leafValues>
            1.8986944854259491e-01 -4.9290150403976440e-01</leafValues></_>
        <_>
          <internalNodes>
            0 -1 129 -5.7762078940868378e-03</internalNodes>
          <leafValues>
            4.8076426982879639e-01 -1.9723121821880341e-01</leafValues></_>
        <_>
          <internalNodes>
            0 -1 47 -9.8843628074973822e-04</internalNodes>
          <leafValues>
            3.0225452780723572e-01 -3.0887070298194885e-01</leafValues></_>
        <_>
          <internalNodes>
            0 -1 89 7.2003668174147606e-03</internalNodes>
          <leafValues>
            1.2661194801330566e-01 -7.3036050796508789e-01</leafValues></_>
        <_>
          <internalNodes>
            0 -1 134 -2.5185998529195786e-03</internalNodes>
          <leafValues>
            -4.3079060316085815e-01 1.7467422783374786e-01</leafValues></_>
        <_>
          <internalNodes>
            0 -1 180 5.4919896647334099e-03</internalNodes>
          <leafValues>
            1.1236312240362167e-01 -7.0205605030059814e-01</leafValues></_>
        <_>
          <internalNodes>
            0 -1 24 -1.2182769132778049e-03</internalNodes>
          <leafValues>
            2.8740128874778748e-01 -2.3761236667633057e-01</leafValues></_>
        <_>
          <internalNodes>
            0 -1 125 -2.0760925486683846e-02</internalNodes>
          <leafValues>
            -8.3974611759185791e-01 8.1427633762359619e-02</leafValues></_>
        <_>
          <internalNodes>
            0 -1 20 2.4596087634563446e-02</internalNodes>
          <leafValues>
            8.0550648272037506e-02 -6.8058562278747559e-01</leafValues></_>
        <_>
          <internalNodes>
            0 -1 172 1.3577268458902836e-02</internalNodes>
          <leafValues>
            -1.1138919740915298e-01 7.4633800983428955e-01</leafValues></_>
        <_>
          <internalNodes>
            0 -1 209 -4.1003483347594738e-03</internalNodes>
          <leafValues>
            1.9205424189567566e-01 -4.1614750027656555e-01</leafValues></_>
        <_>
          <internalNodes>
            0 -1 14 2.4140261113643646e-02</internalNodes>
          <leafValues>
            -1.0210971534252167e-01 8.2816761732101440e-01</leafValues></_>
        <_>
          <internalNodes>
            0 -1 32 4.0799628943204880e-02</internalNodes>
          <leafValues>
            1.4088885486125946e-01 -6.4062321186065674e-01</leafValues></_></weakClassifiers></_>
    <!-- stage 5 -->
    <_>
      <maxWeakCount>29</maxWeakCount>
      <stageThreshold>-1.8583275079727173e+00</stageThreshold>
      <weakClassifiers>
        <_>
          <internalNodes>
            0 -1 223 -5.7754009030759335e-03</internalNodes>
          <leafValues>
            6.6087841987609863e-01 -3.8565021753311157e-01</leafValues></_>
        <_>
          <internalNodes>
            0 -1 161 -3.0072261579334736e-03</internalNodes>
          <leafValues>
            4.9333181977272034e-01 -5.1230996847152710e-01</leafValues></_>
        <_>
          <internalNodes>
            0 -1 103 -7.6461927965283394e-03</internalNodes>
          <leafValues>
            4.7485360503196716e-01 -4.8766410350799561e-01</leafValues></_>
        <_>
          <internalNodes>
            0 -1 73 -8.8525593280792236e-02</internalNodes>
          <leafValues>
            3.3908975124359131e-01 -6.0631048679351807e-01</leafValues></_>
        <_>
          <internalNodes>
            0 -1 19 -6.4189550466835499e-03</internalNodes>
          <leafValues>
            3.4857314825057983e-01 -5.0203984975814819e-01</leafValues></_>
        <_>
          <internalNodes>
            0 -1 149 -5.1638595759868622e-03</internalNodes>
          <leafValues>
            2.6184231042861938e-01 -5.6766444444656372e-01</leafValues></_>
        <_>
          <internalNodes>
            0 -1 187 -4.4057099148631096e-03</internalNodes>
          <leafValues>
            2.5501129031181335e-01 -3.9929297566413879e-01</leafValues></_>
        <_>
          <internalNodes>
            0 -1 34 2.9882285743951797e-02</internalNodes>
          <leafValues>
            -4.5066323876380920e-01 1.8939928710460663e-01</leafValues></_>
        <_>
          <internalNodes>
            0 -1 75 -9.8706372082233429e-03</internalNodes>
          <leafValues>
            2.4230131506919861e-01 -4.0846517682075500e-01</leafValues></_>
        <_>
          <internalNodes>
            0 -1 120 -1.4111712574958801e-02</internalNodes>
          <leafValues>
            -6.9806253910064697e-01 1.0206726938486099e-01</leafValues></_>
        <_>
          <internalNodes>
            0 -1 219 3.0062733218073845e-02</internalNodes>
          <leafValues>
            -2.8275415301322937e-01 2.8863161802291870e-01</leafValues></_>
        <_>
          <internalNodes>
            0 -1 131 -1.2073438614606857e-02</internalNodes>
          <leafValues>
            5.4776102304458618e-01 -1.3789428770542145e-01</leafValues></_>
        <_>
          <internalNodes>
            0 -1 131 4.1167135350406170e-03</internalNodes>
          <leafValues>
            -1.9019293785095215e-01 4.9186390638351440e-01</leafValues></_>
        <_>
          <internalNodes>
            0 -1 66 2.9392465949058533e-03</internalNodes>
          <leafValues>
            1.7594732344150543e-01 -4.8122203350067139e-01</leafValues></_>
        <_>
          <internalNodes>
            0 -1 190 -1.8143400084227324e-03</internalNodes>
          <leafValues>
            3.1699460744857788e-01 -2.3450969159603119e-01</leafValues></_>
        <_>
          <internalNodes>
            0 -1 40 -2.2768668830394745e-02</internalNodes>
          <leafValues>
            -6.4123582839965820e-01 1.1365269869565964e-01</leafValues></_>
        <_>
          <internalNodes>
            0 -1 106 -1.9549321383237839e-02</internalNodes>
          <leafValues>
            -8.1948906183242798e-01 7.2114571928977966e-02</leafValues></_>
        <_>
          <internalNodes>
            0 -1 137 -6.2449905090034008e-03</internalNodes>
          <leafValues>
            4.6917101740837097e-01 -1.9094745814800262e-01</leafValues></_>
        <_>
          <internalNodes>
            0 -1 165 9.7582524176687002e-04</internalNodes>
          <leafValues>
            1.4556260406970978e-01 -4.8565667867660522e-01</leafValues></_>
        <_>
          <internalNodes>
            0 -1 99 -4.6552158892154694e-03</internalNodes>
          <leafValues>
            2.2522111237049103e-01 -3.1530240178108215e-01</leafValues></_>
        <_>
          <internalNodes>
            0 -1 85 -1.4405738562345505e-02</internalNodes>
          <leafValues>
            -6.4314758777618408e-01 1.0768476873636246e-01</leafValues></_>
        <_>
          <internalNodes>
            0 -1 7 8.7434239685535431e-03</internalNodes>
          <leafValues>
            1.5529839694499969e-01 -4.0795573592185974e-01</leafValues></_>
        <_>
          <internalNodes>
            0 -1 195 2.1446533501148224e-03</internalNodes>
          <leafValues>
            -1.9743496179580688e-01 3.7017399072647095e-01</leafValues></_>
        <_>
          <internalNodes>
            0 -1 50 -2.4227309040725231e-03</internalNodes>
          <leafValues>
            2.1465209126472473e-01 -3.8580855727195740e-01</leafValues></_>
        <_>
          <internalNodes>
            0 -1 199 -3.2508303411304951e-03</internalNodes>
          <leafValues>
            3.3022725582122803e-01 -2.1156950294971466e-01</leafValues></_>
        <_>
          <internalNodes>
            0 -1 93 6.3875410705804825e-03</internalNodes>
          <leafValues>
            -1.1693784594535828e-01 5.5500948429107666e-01</leafValues></_>
        <_>
          <internalNodes>
            0 -1 55 1.6007014783099294e-03</internalNodes>
          <leafValues>
            -2.6530015468597412e-01 2.7000513672828674e-01</leafValues></_>
        <_>
          <internalNodes>
            0 -1 43 -1.2007449986413121e-03</internalNodes>
          <leafValues>
            2.4814878404140472e-01 -2.4995926022529602e-01</leafValues></_>
        <_>
          <internalNodes>
            0 -1 1 -7.4999958276748657e-02</internalNodes>
          <leafValues>
            1.7991460859775543e-01 -3.4608617424964905e-01</leafValues></_></weakClassifiers></_>
    <!-- stage 6 -->
    <_>
      <maxWeakCount>33</maxWeakCount>
      <stageThreshold>-1.7012267112731934e+00</stageThreshold>
      <weakClassifiers>
        <_>
          <internalNodes>
            0 -1 177 2.2735528647899628e-02</internalNodes>
          <leafValues>
            -4.1509434580802917e-01 5.9677422046661377e-01</leafValues></_>
        <_>
          <internalNodes>
            0 -1 60 -3.2860655337572098e-02</internalNodes>
          <leafValues>
            4.9084416031837463e-01 -4.6251404285430908e-01</leafValues></_>
        <_>
          <internalNodes>
            0 -1 224 -6.2366034835577011e-03</internalNodes>
          <leafValues>
            4.5111471414566040e-01 -4.5757797360420227e-01</leafValues></_>
        <_>
          <internalNodes>
            0 -1 141 5.0369434058666229e-02</internalNodes>
          <leafValues>
            -4.0376147627830505e-01 4.6464180946350098e-01</leafValues></_>
        <_>
          <internalNodes>
            0 -1 22 -5.0321975722908974e-03</internalNodes>
          <leafValues>
            3.7789431214332581e-01 -4.3099337816238403e-01</leafValues></_>
        <_>
          <internalNodes>
            0 -1 97 -9.0730171650648117e-03</internalNodes>
          <leafValues>
            3.4486445784568787e-01 -3.4779924154281616e-01</leafValues></_>
        <_>
          <internalNodes>
            0 -1 204 6.1602087225764990e-04</internalNodes>
          <leafValues>
            -3.9022788405418396e-01 2.3469820618629456e-01</leafValues></_>
        <_>
          <internalNodes>
            0 -1 158 3.9488906040787697e-03</internalNodes>
          <leafValues>
            -2.2280573844909668e-01 3.6926382780075073e-01</leafValues></_>
        <_>
          <internalNodes>
            0 -1 163 -9.8306257277727127e-03</internalNodes>
          <leafValues>
            -4.9533194303512573e-01 1.5834347903728485e-01</leafValues></_>
        <_>
          <internalNodes>
            0 -1 198 3.6671417765319347e-03</internalNodes>
          <leafValues>
            1.3509500026702881e-01 -4.9350470304489136e-01</leafValues></_>
        <_>
          <internalNodes>
            0 -1 156 2.8438004665076733e-04</internalNodes>
          <leafValues>
            -3.5998636484146118e-01 2.1054634451866150e-01</leafValues></_>
        <_>
          <internalNodes>
            0 -1 185 -4.4017457403242588e-03</internalNodes>
          <leafValues>
            3.3426880836486816e-01 -2.2361497581005096e-01</leafValues></_>
        <_>
          <internalNodes>
            0 -1 202 -2.1564915776252747e-02</internalNodes>
          <leafValues>
            -6.9630986452102661e-01 1.1622433364391327e-01</leafValues></_>
        <_>
          <internalNodes>
            0 -1 78 -1.4443332329392433e-03</internalNodes>
          <leafValues>
            1.4521488547325134e-01 -5.1909339427947998e-01</leafValues></_>
        <_>
          <internalNodes>
            0 -1 54 -7.3409341275691986e-03</internalNodes>
          <leafValues>
            -5.9861719608306885e-01 1.0130842030048370e-01</leafValues></_>
        <_>
          <internalNodes>
            0 -1 70 3.7729337345808744e-03</internalNodes>
          <leafValues>
            1.0580381751060486e-01 -5.1809978485107422e-01</leafValues></_>
        <_>
          <internalNodes>
            0 -1 15 6.1923854053020477e-02</internalNodes>
          <leafValues>
            1.3621693849563599e-01 -4.4121137261390686e-01</leafValues></_>
        <_>
          <internalNodes>
            0 -1 112 9.8756188526749611e-04</internalNodes>
          <leafValues>
            1.0152343660593033e-01 -4.9693432450294495e-01</leafValues></_>
        <_>
          <internalNodes>
            0 -1 147 1.8243934959173203e-02</internalNodes>
          <leafValues>
            1.0530032217502594e-01 -5.8725035190582275e-01</leafValues></_>
        <_>
          <internalNodes>
            0 -1 88 2.8397201094776392e-03</internalNodes>
          <leafValues>
            -2.0745885372161865e-01 2.6141804456710815e-01</leafValues></_>
        <_>
          <internalNodes>
            0 -1 83 -7.6411608606576920e-03</internalNodes>
          <leafValues>
            1.6897614300251007e-01 -3.7476259469985962e-01</leafValues></_>
        <_>
          <internalNodes>
            0 -1 135 1.8562766490504146e-04</internalNodes>
          <leafValues>
            -3.8822051882743835e-01 1.4059846103191376e-01</leafValues></_>
        <_>
          <internalNodes>
            0 -1 121 -2.8822861611843109e-02</internalNodes>
          <leafValues>
            -4.5326754450798035e-01 1.2200433760881424e-01</leafValues></_>
        <_>
          <internalNodes>
            0 -1 152 -3.8817822933197021e-03</internalNodes>
          <leafValues>
            -4.8879086971282959e-01 1.1593198776245117e-01</leafValues></_>
        <_>
          <internalNodes>
            0 -1 127 5.5880095809698105e-02</internalNodes>
          <leafValues>
            6.6196344792842865e-02 -8.2498586177825928e-01</leafValues></_>
        <_>
          <internalNodes>
            0 -1 130 6.6738948225975037e-03</internalNodes>
          <leafValues>
            -1.4284017682075500e-01 4.7319120168685913e-01</leafValues></_>
        <_>
          <internalNodes>
            0 -1 123 -4.4918172061443329e-03</internalNodes>
          <leafValues>
            3.0972677469253540e-01 -1.7208415269851685e-01</leafValues></_>
        <_>
          <internalNodes>
            0 -1 143 -3.0384842306375504e-02</internalNodes>
          <leafValues>
            2.8810724616050720e-01 -1.6599325835704803e-01</leafValues></_>
        <_>
          <internalNodes>
            0 -1 63 -3.0670501291751862e-02</internalNodes>
          <leafValues>
            -7.0502859354019165e-01 7.2977736592292786e-02</leafValues></_>
        <_>
          <internalNodes>
            0 -1 23 -2.6546502485871315e-03</internalNodes>
          <leafValues>
            1.7377650737762451e-01 -2.9910111427307129e-01</leafValues></_>
        <_>
          <internalNodes>
            0 -1 94 5.0871232524514198e-03</internalNodes>
          <leafValues>
            5.9889070689678192e-02 -8.1526148319244385e-01</leafValues></_>
        <_>
          <internalNodes>
            0 -1 213 -9.1483434662222862e-03</internalNodes>
          <leafValues>
            5.2675652503967285e-01 -1.1325748264789581e-01</leafValues></_>
        <_>
          <internalNodes>
            0 -1 30 -1.1371795088052750e-02</internalNodes>
          <leafValues>
            5.0375396013259888e-01 -9.9379740655422211e-02</leafValues></_></weakClassifiers></_>
    <!-- stage 7 -->
    <_>
      <maxWeakCount>42</maxWeakCount>
      <stageThreshold>-1.7456974983215332e+00</stageThreshold>
      <weakClassifiers>
        <_>
          <internalNodes>
            0 -1 228 8.7532475590705872e-03</internalNodes>
          <leafValues>
            -3.5585042834281921e-01 6.1603164672851563e-01</leafValues></_>
        <_>
          <internalNodes>
            0 -1 201 -1.0498592630028725e-02</internalNodes>
          <leafValues>
            5.3692305088043213e-01 -3.6864343285560608e-01</leafValues></_>
        <_>
          <internalNodes>
            0 -1 113 -1.1580528318881989e-01</internalNodes>
          <leafValues>
            3.9722171425819397e-01 -4.0620374679565430e-01</leafValues></_>
        <_>
          <internalNodes>
            0 -1 16 -1.1639512144029140e-02</internalNodes>
          <leafValues>
            4.3199315667152405e-01 -3.6338493227958679e-01</leafValues></_>
        <_>
          <internalNodes>
            0 -1 108 -8.6558330804109573e-03</internalNodes>
          <leafValues>
            4.4888079166412354e-01 -2.6554927229881287e-01</leafValues></_>
        <_>
          <internalNodes>
            0 -1 90 -1.9633717834949493e-02</internalNodes>
          <leafValues>
            2.1861945092678070e-01 -3.8929334282875061e-01</leafValues></_>
        <_>
          <internalNodes>
            0 -1 153 -2.9035436455160379e-03</internalNodes>
          <leafValues>
            1.2872211635112762e-01 -4.2970234155654907e-01</leafValues></_>
        <_>
          <internalNodes>
            0 -1 8 -1.2652718462049961e-02</internalNodes>
          <leafValues>
            1.6850781440734863e-01 -4.0983828902244568e-01</leafValues></_>
        <_>
          <internalNodes>
            0 -1 205 1.3382626930251718e-03</internalNodes>
          <leafValues>
            1.6785277426242828e-01 -3.8242188096046448e-01</leafValues></_>
        <_>
          <internalNodes>
            0 -1 139 -4.6676425263285637e-03</internalNodes>
          <leafValues>
            4.5325306057929993e-01 -1.6469614207744598e-01</leafValues></_>
        <_>
          <internalNodes>
            0 -1 44 -1.2042901478707790e-02</internalNodes>
          <leafValues>
            -6.8914443254470825e-01 1.0674915462732315e-01</leafValues></_>
        <_>
          <internalNodes>
            0 -1 188 7.9744551330804825e-03</internalNodes>
          <leafValues>
            9.9554039537906647e-02 -5.2043735980987549e-01</leafValues></_>
        <_>
          <internalNodes>
            0 -1 52 -2.3283602204173803e-03</internalNodes>
          <leafValues>
            -3.7061125040054321e-01 1.4968842267990112e-01</leafValues></_>
        <_>
          <internalNodes>
            0 -1 64 -2.8283674269914627e-02</internalNodes>
          <leafValues>
            1.5935930609703064e-01 -3.8212180137634277e-01</leafValues></_>
        <_>
          <internalNodes>
            0 -1 45 1.4428357593715191e-02</internalNodes>
          <leafValues>
            1.0358645021915436e-01 -5.6195771694183350e-01</leafValues></_>
        <_>
          <internalNodes>
            0 -1 95 1.4129441231489182e-02</internalNodes>
          <leafValues>
            1.3145689666271210e-01 -3.9888116717338562e-01</leafValues></_>
        <_>
          <internalNodes>
            0 -1 166 -8.2771689631044865e-04</internalNodes>
          <leafValues>
            2.4287874996662140e-01 -2.4459898471832275e-01</leafValues></_>
        <_>
          <internalNodes>
            0 -1 217 -1.1171516962349415e-03</internalNodes>
          <leafValues>
            2.3900996148586273e-01 -2.5066474080085754e-01</leafValues></_>
        <_>
          <internalNodes>
            0 -1 48 5.5887131020426750e-03</internalNodes>
          <leafValues>
            9.9554881453514099e-02 -5.7502973079681396e-01</leafValues></_>
        <_>
          <internalNodes>
            0 -1 107 -8.1444885581731796e-03</internalNodes>
          <leafValues>
            -4.3990474939346313e-01 1.1118626594543457e-01</leafValues></_>
        <_>
          <internalNodes>
            0 -1 189 -1.5937609132379293e-03</internalNodes>
          <leafValues>
            3.7396711111068726e-01 -1.5367011725902557e-01</leafValues></_>
        <_>
          <internalNodes>
            0 -1 23 -2.7122339233756065e-03</internalNodes>
          <leafValues>
            1.7646580934524536e-01 -3.0127924680709839e-01</leafValues></_>
        <_>
          <internalNodes>
            0 -1 62 7.3258439078927040e-03</internalNodes>
          <leafValues>
            1.0393464565277100e-01 -5.0980472564697266e-01</leafValues></_>
        <_>
          <internalNodes>
            0 -1 27 2.7096299454569817e-03</internalNodes>
          <leafValues>
            -1.4823396503925323e-01 3.4042295813560486e-01</leafValues></_>
        <_>
          <internalNodes>
            0 -1 92 -6.7287813872098923e-03</internalNodes>
          <leafValues>
            4.9486362934112549e-01 -9.6046537160873413e-02</leafValues></_>
        <_>
          <internalNodes>
            0 -1 92 1.7730651888996363e-03</internalNodes>
          <leafValues>
            -1.7667345702648163e-01 4.0802735090255737e-01</leafValues></_>
        <_>
          <internalNodes>
            0 -1 117 -1.9800737500190735e-03</internalNodes>
          <leafValues>
            1.6480857133865356e-01 -3.4811002016067505e-01</leafValues></_>
        <_>
          <internalNodes>
            0 -1 28 -4.0685169398784637e-02</internalNodes>
          <leafValues>
            4.1070130467414856e-01 -1.6991128027439117e-01</leafValues></_>
        <_>
          <internalNodes>
            0 -1 104 -4.1986476629972458e-02</internalNodes>
          <leafValues>
            -7.9896247386932373e-01 7.4223250150680542e-02</leafValues></_>
        <_>
          <internalNodes>
            0 -1 164 -3.4991742577403784e-03</internalNodes>
          <leafValues>
            -7.0618385076522827e-01 5.7076677680015564e-02</leafValues></_>
        <_>
          <internalNodes>
            0 -1 125 2.1832343190908432e-02</internalNodes>
          <leafValues>
            4.3261453509330750e-02 -8.5699051618576050e-01</leafValues></_>
        <_>
          <internalNodes>
            0 -1 231 1.7139721661806107e-02</internalNodes>
          <leafValues>
            -9.8730005323886871e-02 5.2700006961822510e-01</leafValues></_>
        <_>
          <internalNodes>
            0 -1 115 -5.8161858469247818e-03</internalNodes>
          <leafValues>
            1.3633644580841064e-01 -3.6614581942558289e-01</leafValues></_>
        <_>
          <internalNodes>
            0 -1 61 8.8823549449443817e-03</internalNodes>
          <leafValues>
            -7.4900537729263306e-02 7.1857923269271851e-01</leafValues></_>
        <_>
          <internalNodes>
            0 -1 169 4.9077579751610756e-04</internalNodes>
          <leafValues>
            -2.2949077188968658e-01 2.1927602589130402e-01</leafValues></_>
        <_>
          <internalNodes>
            0 -1 71 -2.6882474776357412e-04</internalNodes>
          <leafValues>
            2.3583884537220001e-01 -2.1540500223636627e-01</leafValues></_>
        <_>
          <internalNodes>
            0 -1 17 -7.1908049285411835e-03</internalNodes>
          <leafValues>
            1.8867497146129608e-01 -2.8158655762672424e-01</leafValues></_>
        <_>
          <internalNodes>
            0 -1 111 -1.0462887585163116e-02</internalNodes>
          <leafValues>
            -4.6946090459823608e-01 1.0745574533939362e-01</leafValues></_>
        <_>
          <internalNodes>
            0 -1 212 7.8523214906454086e-03</internalNodes>
          <leafValues>
            -1.3650918006896973e-01 4.1177621483802795e-01</leafValues></_>
        <_>
          <internalNodes>
            0 -1 210 8.6798723787069321e-03</internalNodes>
          <leafValues>
            -1.5317778289318085e-01 4.3415182828903198e-01</leafValues></_>
        <_>
          <internalNodes>
            0 -1 192 5.9605641290545464e-03</internalNodes>
          <leafValues>
            1.2968394160270691e-01 -4.0823146700859070e-01</leafValues></_>
        <_>
          <internalNodes>
            0 -1 136 -2.8276376426219940e-02</internalNodes>
          <leafValues>
            -5.8708840608596802e-01 8.0846883356571198e-02</leafValues></_></weakClassifiers></_>
    <!-- stage 8 -->
    <_>
      <maxWeakCount>40</maxWeakCount>
      <stageThreshold>-1.4960100650787354e+00</stageThreshold>
      <weakClassifiers>
        <_>
          <internalNodes>
            0 -1 221 -1.2203994207084179e-02</internalNodes>
          <leafValues>
            6.6532027721405029e-01 -1.8173679709434509e-01</leafValues></_>
        <_>
          <internalNodes>
            0 -1 116 -7.4268979951739311e-03</internalNodes>
          <leafValues>
            3.8272294402122498e-01 -4.6532306075096130e-01</leafValues></_>
        <_>
          <internalNodes>
            0 -1 101 -4.5973081141710281e-03</internalNodes>
          <leafValues>
            2.8765019774436951e-01 -5.3518605232238770e-01</leafValues></_>
        <_>
          <internalNodes>
            0 -1 3 -1.9510669633746147e-02</internalNodes>
          <leafValues>
            2.9554268717765808e-01 -5.0425517559051514e-01</leafValues></_>
        <_>
          <internalNodes>
            0 -1 57 1.3770351186394691e-02</internalNodes>
          <leafValues>
            -3.3137613534927368e-01 3.5313159227371216e-01</leafValues></_>
        <_>
          <internalNodes>
            0 -1 171 1.9544277340173721e-02</internalNodes>
          <leafValues>
            -4.3857893347740173e-01 2.3495419323444366e-01</leafValues></_>
        <_>
          <internalNodes>
            0 -1 31 -4.0113786235451698e-03</internalNodes>
          <leafValues>
            -4.4149312376976013e-01 9.6447043120861053e-02</leafValues></_>
        <_>
          <internalNodes>
            0 -1 176 1.1314783245325089e-02</internalNodes>
          <leafValues>
            9.6188314259052277e-02 -5.9290397167205811e-01</leafValues></_>
        <_>
          <internalNodes>
            0 -1 5 -5.2399508655071259e-02</internalNodes>
          <leafValues>
            1.9071537256240845e-01 -3.1973364949226379e-01</leafValues></_>
        <_>
          <internalNodes>
            0 -1 182 2.8045479208230972e-02</internalNodes>
          <leafValues>
            9.1331548988819122e-02 -6.1585372686386108e-01</leafValues></_>
        <_>
          <internalNodes>
            0 -1 140 3.5183802247047424e-03</internalNodes>
          <leafValues>
            7.2562061250209808e-02 -6.6416126489639282e-01</leafValues></_>
        <_>
          <internalNodes>
            0 -1 218 -1.4511829242110252e-02</internalNodes>
          <leafValues>
            5.2381241321563721e-01 -1.1614482849836349e-01</leafValues></_>
        <_>
          <internalNodes>
            0 -1 72 -3.7652373313903809e-02</internalNodes>
          <leafValues>
            2.2187969088554382e-01 -2.4371655285358429e-01</leafValues></_>
        <_>
          <internalNodes>
            0 -1 220 9.3893706798553467e-03</internalNodes>
          <leafValues>
            -1.4062574505805969e-01 3.9433783292770386e-01</leafValues></_>
        <_>
          <internalNodes>
            0 -1 86 -2.8715915977954865e-02</internalNodes>
          <leafValues>
            -6.4754420518875122e-01 8.7791241705417633e-02</leafValues></_>
        <_>
          <internalNodes>
            0 -1 175 7.1060787886381149e-03</internalNodes>
          <leafValues>
            5.7907670736312866e-02 -7.5220257043838501e-01</leafValues></_>
        <_>
          <internalNodes>
            0 -1 79 4.8759058117866516e-03</internalNodes>
          <leafValues>
            9.3234956264495850e-02 -4.8814296722412109e-01</leafValues></_>
        <_>
          <internalNodes>
            0 -1 154 1.9759219139814377e-03</internalNodes>
          <leafValues>
            1.1330627650022507e-01 -4.6397453546524048e-01</leafValues></_>
        <_>
          <internalNodes>
            0 -1 170 2.6665409677661955e-04</internalNodes>
          <leafValues>
            1.9320213794708252e-01 -2.5501233339309692e-01</leafValues></_>
        <_>
          <internalNodes>
            0 -1 51 -9.6756117418408394e-03</internalNodes>
          <leafValues>
            1.3516628742218018e-01 -3.8965913653373718e-01</leafValues></_>
        <_>
          <internalNodes>
            0 -1 124 -1.2254716828465462e-02</internalNodes>
          <leafValues>
            -9.2171096801757813e-01 5.1276221871376038e-02</leafValues></_>
        <_>
          <internalNodes>
            0 -1 157 2.8158116620033979e-03</internalNodes>
          <leafValues>
            -9.3908444046974182e-02 6.2787264585494995e-01</leafValues></_>
        <_>
          <internalNodes>
            0 -1 194 1.1533877812325954e-02</internalNodes>
          <leafValues>
            9.2352360486984253e-02 -5.3685224056243896e-01</leafValues></_>
        <_>
          <internalNodes>
            0 -1 216 3.3940379507839680e-03</internalNodes>
          <leafValues>
            -2.1716354787349701e-01 2.5087004899978638e-01</leafValues></_>
        <_>
          <internalNodes>
            0 -1 69 -4.3342839926481247e-03</internalNodes>
          <leafValues>
            -6.2885451316833496e-01 7.3189966380596161e-02</leafValues></_>
        <_>
          <internalNodes>
            0 -1 44 -1.1593947187066078e-02</internalNodes>
          <leafValues>
            -6.8381446599960327e-01 6.1362579464912415e-02</leafValues></_>
        <_>
          <internalNodes>
            0 -1 130 -1.2385083362460136e-02</internalNodes>
          <leafValues>
            5.8458721637725830e-01 -9.1098576784133911e-02</leafValues></_>
        <_>
          <internalNodes>
            0 -1 118 -4.6721417456865311e-03</internalNodes>
          <leafValues>
            3.3277484774589539e-01 -1.4286273717880249e-01</leafValues></_>
        <_>
          <internalNodes>
            0 -1 35 8.7013617157936096e-03</internalNodes>
          <leafValues>
            8.4001213312149048e-02 -5.4370117187500000e-01</leafValues></_>
        <_>
          <internalNodes>
            0 -1 159 -8.9167812839150429e-03</internalNodes>
          <leafValues>
            -4.6655198931694031e-01 9.4895347952842712e-02</leafValues></_>
        <_>
          <internalNodes>
            0 -1 211 -9.9228052422404289e-03</internalNodes>
          <leafValues>
            1.9585955142974854e-01 -2.7614140510559082e-01</leafValues></_>
        <_>
          <internalNodes>
            0 -1 76 -2.5326927425339818e-04</internalNodes>
          <leafValues>
            1.3378359377384186e-01 -3.1795990467071533e-01</leafValues></_>
        <_>
          <internalNodes>
            0 -1 133 -2.1761870011687279e-03</internalNodes>
          <leafValues>
            -4.5376813411712646e-01 8.2753345370292664e-02</leafValues></_>
        <_>
          <internalNodes>
            0 -1 227 6.5207914449274540e-03</internalNodes>
          <leafValues>
            -1.5985433757305145e-01 2.4750088155269623e-01</leafValues></_>
        <_>
          <internalNodes>
            0 -1 168 1.8142140470445156e-03</internalNodes>
          <leafValues>
            -9.5820628106594086e-02 4.5862281322479248e-01</leafValues></_>
        <_>
          <internalNodes>
            0 -1 208 3.7063625641167164e-03</internalNodes>
          <leafValues>
            7.6264269649982452e-02 -5.9313988685607910e-01</leafValues></_>
        <_>
          <internalNodes>
            0 -1 25 -3.3314726315438747e-03</internalNodes>
          <leafValues>
            2.1899950504302979e-01 -1.9202145934104919e-01</leafValues></_>
        <_>
          <internalNodes>
            0 -1 193 -7.7719180844724178e-03</internalNodes>
          <leafValues>
            -5.0826215744018555e-01 7.9021036624908447e-02</leafValues></_>
        <_>
          <internalNodes>
            0 -1 232 -4.5069931074976921e-03</internalNodes>
          <leafValues>
            3.5570728778839111e-01 -1.1065519601106644e-01</leafValues></_>
        <_>
          <internalNodes>
            0 -1 58 1.3865530490875244e-03</internalNodes>
          <leafValues>
            1.2069687992334366e-01 -3.4114536643028259e-01</leafValues></_></weakClassifiers></_>
    <!-- stage 9 -->
    <_>
      <maxWeakCount>34</maxWeakCount>
      <stageThreshold>-1.2960827350616455e+00</stageThreshold>
      <weakClassifiers>
        <_>
          <internalNodes>
            0 -1 146 -1.5024220570921898e-02</internalNodes>
          <leafValues>
            5.7728117704391479e-01 -4.1310539841651917e-01</leafValues></_>
        <_>
          <internalNodes>
            0 -1 102 -1.4097157865762711e-02</internalNodes>
          <leafValues>
            4.7815200686454773e-01 -3.0652439594268799e-01</leafValues></_>
        <_>
          <internalNodes>
            0 -1 21 -3.3694002777338028e-03</internalNodes>
          <leafValues>
            3.0129098892211914e-01 -4.4240391254425049e-01</leafValues></_>
        <_>
          <internalNodes>
            0 -1 207 -5.8008125051856041e-03</internalNodes>
          <leafValues>
            3.2126417756080627e-01 -3.9055931568145752e-01</leafValues></_>
        <_>
          <internalNodes>
            0 -1 37 -7.9772695899009705e-02</internalNodes>
          <leafValues>
            2.2191670536994934e-01 -6.2320613861083984e-01</leafValues></_>
        <_>
          <internalNodes>
            0 -1 160 -1.5862998552620411e-03</internalNodes>
          <leafValues>
            2.3780958354473114e-01 -4.4103506207466125e-01</leafValues></_>
        <_>
          <internalNodes>
            0 -1 68 3.0782767571508884e-03</internalNodes>
          <leafValues>
            9.5214396715164185e-02 -6.9569253921508789e-01</leafValues></_>
        <_>
          <internalNodes>
            0 -1 178 7.3890108615159988e-04</internalNodes>
          <leafValues>
            -3.3711504936218262e-01 2.0117172598838806e-01</leafValues></_>
        <_>
          <internalNodes>
            0 -1 119 -1.2235034257173538e-02</internalNodes>
          <leafValues>
            4.1346284747123718e-01 -1.5257894992828369e-01</leafValues></_>
        <_>
          <internalNodes>
            0 -1 80 -4.0123973041772842e-02</internalNodes>
          <leafValues>
            -6.1830824613571167e-01 1.0879185795783997e-01</leafValues></_>
        <_>
          <internalNodes>
            0 -1 226 -5.6687984615564346e-03</internalNodes>
          <leafValues>
            3.4862956404685974e-01 -1.8589462339878082e-01</leafValues></_>
        <_>
          <internalNodes>
            0 -1 42 -1.2244821991771460e-03</internalNodes>
          <leafValues>
            2.5283262133598328e-01 -2.4094723165035248e-01</leafValues></_>
        <_>
          <internalNodes>
            0 -1 39 -7.1739261038601398e-03</internalNodes>
          <leafValues>
            1.2867696583271027e-01 -4.6119451522827148e-01</leafValues></_>
        <_>
          <internalNodes>
            0 -1 225 1.8610863480716944e-04</internalNodes>
          <leafValues>
            1.7568762600421906e-01 -2.7690681815147400e-01</leafValues></_>
        <_>
          <internalNodes>
            0 -1 197 4.2675337754189968e-03</internalNodes>
          <leafValues>
            -1.5598711371421814e-01 3.5069459676742554e-01</leafValues></_>
        <_>
          <internalNodes>
            0 -1 214 -7.0670498535037041e-03</internalNodes>
          <leafValues>
            -4.6226707100868225e-01 1.3296023011207581e-01</leafValues></_>
        <_>
          <internalNodes>
            0 -1 53 6.7014945670962334e-04</internalNodes>
          <leafValues>
            1.1025614291429520e-01 -4.5135262608528137e-01</leafValues></_>
        <_>
          <internalNodes>
            0 -1 84 2.0287404768168926e-03</internalNodes>
          <leafValues>
            -3.1190991401672363e-01 1.6073611378669739e-01</leafValues></_>
        <_>
          <internalNodes>
            0 -1 229 -5.3730225190520287e-03</internalNodes>
          <leafValues>
            2.6592874526977539e-01 -2.0164909958839417e-01</leafValues></_>
        <_>
          <internalNodes>
            0 -1 10 -1.3861423358321190e-03</internalNodes>
          <leafValues>
            4.7288939356803894e-01 -1.0506580770015717e-01</leafValues></_>
        <_>
          <internalNodes>
            0 -1 87 -1.0492117144167423e-02</internalNodes>
          <leafValues>
            -5.8583599328994751e-01 9.1458342969417572e-02</leafValues></_>
        <_>
          <internalNodes>
            0 -1 222 -4.5654373243451118e-03</internalNodes>
          <leafValues>
            1.7786510288715363e-01 -2.8308168053627014e-01</leafValues></_>
        <_>
          <internalNodes>
            0 -1 142 9.8116360604763031e-03</internalNodes>
          <leafValues>
            -2.0083129405975342e-01 2.5033110380172729e-01</leafValues></_>
        <_>
          <internalNodes>
            0 -1 155 -1.6709331423044205e-02</internalNodes>
          <leafValues>
            -8.4371525049209595e-01 5.5115025490522385e-02</leafValues></_>
        <_>
          <internalNodes>
            0 -1 168 -1.7088088206946850e-03</internalNodes>
          <leafValues>
            4.6029281616210938e-01 -1.1053995788097382e-01</leafValues></_>
        <_>
          <internalNodes>
            0 -1 167 -4.2565076728351414e-04</internalNodes>
          <leafValues>
            2.4730604887008667e-01 -2.0877178013324738e-01</leafValues></_>
        <_>
          <internalNodes>
            0 -1 0 -2.6906030252575874e-02</internalNodes>
          <leafValues>
            4.7794193029403687e-01 -1.0371796786785126e-01</leafValues></_>
        <_>
          <internalNodes>
            0 -1 49 4.3478514999151230e-03</internalNodes>
          <leafValues>
            8.0192714929580688e-02 -6.7060667276382446e-01</leafValues></_>
        <_>
          <internalNodes>
            0 -1 122 2.8665037825703621e-03</internalNodes>
          <leafValues>
            -1.5423831343650818e-01 3.3041766285896301e-01</leafValues></_>
        <_>
          <internalNodes>
            0 -1 128 -6.0068396851420403e-04</internalNodes>
          <leafValues>
            3.4597522020339966e-01 -1.6361688077449799e-01</leafValues></_>
        <_>
          <internalNodes>
            0 -1 46 -3.7667740136384964e-02</internalNodes>
          <leafValues>
            -5.1230442523956299e-01 1.0372049361467361e-01</leafValues></_>
        <_>
          <internalNodes>
            0 -1 151 -4.6115312725305557e-03</internalNodes>
          <leafValues>
            -6.2303680181503296e-01 5.9727951884269714e-02</leafValues></_>
        <_>
          <internalNodes>
            0 -1 11 -5.6932575535029173e-04</internalNodes>
          <leafValues>
            2.0274658501148224e-01 -2.0093825459480286e-01</leafValues></_>
        <_>
          <internalNodes>
            0 -1 233 1.1525077279657125e-03</internalNodes>
          <leafValues>
            -1.4938165247440338e-01 2.6569238305091858e-01</leafValues></_></weakClassifiers></_></stages>
  <features>
    <_>
      <rects>
        <_>
          0 0 6 6 -1.</_>
        <_>
          0 0 3 3 2.</_>
        <_>
          3 3 3 3 2.</_></rects>
      <tilted>0</tilted></_>
    <_>
      <rects>
        <_>
          0 0 20 15 -1.</_>
        <_>
          0 5 20 5 3.</_></rects>
      <tilted>0</tilted></_>
    <_>
      <rects>
        <_>
          0 3 6 13 -1.</_>
        <_>
          3 3 3 13 2.</_></rects>
      <tilted>0</tilted></_>
    <_>
      <rects>
        <_>
          0 4 4 9 -1.</_>
        <_>
          2 4 2 9 2.</_></rects>
      <tilted>0</tilted></_>
    <_>
      <rects>
        <_>
          0 4 18 3 -1.</_>
        <_>
          6 4 6 3 3.</_></rects>
      <tilted>0</tilted></_>
    <_>
      <rects>
        <_>
          0 4 18 5 -1.</_>
        <_>
          6 4 6 5 3.</_></rects>
      <tilted>0</tilted></_>
    <_>
      <rects>
        <_>
          0 5 4 6 -1.</_>
        <_>
          2 5 2 6 2.</_></rects>
      <tilted>0</tilted></_>
    <_>
      <rects>
        <_>
          0 6 9 5 -1.</_>
        <_>
          3 6 3 5 3.</_></rects>
      <tilted>0</tilted></_>
    <_>
      <rects>
        <_>
          0 9 15 5 -1.</_>
        <_>
          5 9 5 5 3.</_></rects>
      <tilted>0</tilted></_>
    <_>
      <rects>
        <_>
          0 13 17 6 -1.</_>
        <_>
          0 16 17 3 2.</_></rects>
      <tilted>0</tilted></_>
    <_>
      <rects>
        <_>
          0 15 2 2 -1.</_>
        <_>
          0 15 1 1 2.</_>
        <_>
          1 16 1 1 2.</_></rects>
      <tilted>0</tilted></_>
    <_>
      <rects>
        <_>
          0 15 3 3 -1.</_>
        <_>
          0 16 3 1 3.</_></rects>
      <tilted>0</tilted></_>
    <_>
      <rects>
        <_>
          1 0 4 6 -1.</_>
        <_>
          1 0 2 3 2.</_>
        <_>
          3 3 2 3 2.</_></rects>
      <tilted>0</tilted></_>
    <_>
      <rects>
        <_>
          1 0 18 8 -1.</_>
        <_>
          1 4 18 4 2.</_></rects>
      <tilted>0</tilted></_>
    <_>
      <rects>
        <_>
          1 2 2 15 -1.</_>
        <_>
          2 2 1 15 2.</_></rects>
      <tilted>0</tilted></_>
    <_>
      <rects>
        <_>
          1 2 9 18 -1.</_>
        <_>
          4 2 3 18 3.</_></rects>
      <tilted>0</tilted></_>
    <_>
      <rects>
        <_>
          1 4 2 8 -1.</_>
        <_>
          2 4 1 8 2.</_></rects>
      <tilted>0</tilted></_>
    <_>
      <rects>
        <_>
          1 5 6 14 -1.</_>
        <_>
          3 5 2 14 3.</_></rects>
      <tilted>0</tilted></_>
    <_>
      <rects>
        <_>
          1 6 2 8 -1.</_>
        <_>
          2 6 1 8 2.</_></rects>
      <tilted>0</tilted></_>
    <_>
      <rects>
        <_>
          1 7 2 7 -1.</_>
        <_>
          2 7 1 7 2.</_></rects>
      <tilted>0</tilted></_>
    <_>
      <rects>
        <_>
          1 7 18 5 -1.</_>
        <_>
          7 7 6 5 3.</_></rects>
      <tilted>0</tilted></_>
    <_>
      <rects>
        <_>
          1 8 2 3 -1.</_>
        <_>
          2 8 1 3 2.</_></rects>
      <tilted>0</tilted></_>
    <_>
      <rects>
        <_>
          1 8 2 4 -1.</_>
        <_>
          2 8 1 4 2.</_></rects>
      <tilted>0</tilted></_>
    <_>
      <rects>
        <_>
          1 8 3 6 -1.</_>
        <_>
          2 8 1 6 3.</_></rects>
      <tilted>0</tilted></_>
    <_>
      <rects>
        <_>
          1 10 3 1 -1.</_>
        <_>
          2 10 1 1 3.</_></rects>
      <tilted>0</tilted></_>
    <_>
      <rects>
        <_>
          1 11 3 4 -1.</_>
        <_>
          2 11 1 4 3.</_></rects>
      <tilted>0</tilted></_>
    <_>
      <rects>
        <_>
          1 12 17 8 -1.</_>
        <_>
          1 16 17 4 2.</_></rects>
      <tilted>0</tilted></_>
    <_>
      <rects>
        <_>
          1 15 4 2 -1.</_>
        <_>
          1 15 2 1 2.</_>
        <_>
          3 16 2 1 2.</_></rects>
      <tilted>0</tilted></_>
    <_>
      <rects>
        <_>
          2 0 15 4 -1.</_>
        <_>
          7 0 5 4 3.</_></rects>
      <tilted>0</tilted></_>
    <_>
      <rects>
        <_>
          2 2 9 18 -1.</_>
        <_>
          2 8 9 6 3.</_></rects>
      <tilted>0</tilted></_>
    <_>
      <rects>
        <_>
          2 6 2 10 -1.</_>
        <_>
          2 6 1 5 2.</_>
        <_>
          3 11 1 5 2.</_></rects>
      <tilted>0</tilted></_>
    <_>
      <rects>
        <_>
          2 8 3 4 -1.</_>
        <_>
          3 8 1 4 3.</_></rects>
      <tilted>0</tilted></_>
    <_>
      <rects>
        <_>
          2 9 16 6 -1.</_>
        <_>
          2 9 8 3 2.</_>
        <_>
          10 12 8 3 2.</_></rects>
      <tilted>0</tilted></_>
    <_>
      <rects>
        <_>
          2 13 15 6 -1.</_>
        <_>
          2 16 15 3 2.</_></rects>
      <tilted>0</tilted></_>
    <_>
      <rects>
        <_>
          2 13 16 6 -1.</_>
        <_>
          2 16 16 3 2.</_></rects>
      <tilted>0</tilted></_>
    <_>
      <rects>
        <_>
          2 14 12 2 -1.</_>
        <_>
          2 14 6 1 2.</_>
        <_>
          8 15 6 1 2.</_></rects>
      <tilted>0</tilted></_>
    <_>
      <rects>
        <_>
          3 0 17 8 -1.</_>
        <_>
          3 4 17 4 2.</_></rects>
      <tilted>0</tilted></_>
    <_>
      <rects>
        <_>
          3 2 8 18 -1.</_>
        <_>
          3 8 8 6 3.</_></rects>
      <tilted>0</tilted></_>
    <_>
      <rects>
        <_>
          3 2 15 4 -1.</_>
        <_>
          3 4 15 2 2.</_></rects>
      <tilted>0</tilted></_>
    <_>
      <rects>
        <_>
          3 2 15 9 -1.</_>
        <_>
          3 5 15 3 3.</_></rects>
      <tilted>0</tilted></_>
    <_>
      <rects>
        <_>
          3 5 6 10 -1.</_>
        <_>
          3 5 3 5 2.</_>
        <_>
          6 10 3 5 2.</_></rects>
      <tilted>0</tilted></_>
    <_>
      <rects>
        <_>
          3 5 5 15 -1.</_>
        <_>
          3 10 5 5 3.</_></rects>
      <tilted>0</tilted></_>
    <_>
      <rects>
        <_>
          3 6 3 3 -1.</_>
        <_>
          4 6 1 3 3.</_></rects>
      <tilted>0</tilted></_>
    <_>
      <rects>
        <_>
          3 6 3 5 -1.</_>
        <_>
          4 6 1 5 3.</_></rects>
      <tilted>0</tilted></_>
    <_>
      <rects>
        <_>
          3 6 9 1 -1.</_>
        <_>
          6 6 3 1 3.</_></rects>
      <tilted>0</tilted></_>
    <_>
      <rects>
        <_>
          3 6 9 4 -1.</_>
        <_>
          6 6 3 4 3.</_></rects>
      <tilted>0</tilted></_>
    <_>
      <rects>
        <_>
          3 6 15 2 -1.</_>
        <_>
          8 6 5 2 3.</_></rects>
      <tilted>0</tilted></_>
    <_>
      <rects>
        <_>
          3 7 3 4 -1.</_>
        <_>
          4 7 1 4 3.</_></rects>
      <tilted>0</tilted></_>
    <_>
      <rects>
        <_>
          3 7 2 6 -1.</_>
        <_>
          4 7 1 6 2.</_></rects>
      <tilted>0</tilted></_>
    <_>
      <rects>
        <_>
          3 7 6 1 -1.</_>
        <_>
          6 7 3 1 2.</_></rects>
      <tilted>0</tilted></_>
    <_>
      <rects>
        <_>
          3 8 6 6 -1.</_>
        <_>
          6 8 3 6 2.</_></rects>
      <tilted>0</tilted></_>
    <_>
      <rects>
        <_>
          3 8 14 12 -1.</_>
        <_>
          3 12 14 4 3.</_></rects>
      <tilted>0</tilted></_>
    <_>
      <rects>
        <_>
          3 9 6 7 -1.</_>
        <_>
          5 9 2 7 3.</_></rects>
      <tilted>0</tilted></_>
    <_>
      <rects>
        <_>
          3 9 8 9 -1.</_>
        <_>
          3 12 8 3 3.</_></rects>
      <tilted>0</tilted></_>
    <_>
      <rects>
        <_>
          3 12 6 1 -1.</_>
        <_>
          6 12 3 1 2.</_></rects>
      <tilted>0</tilted></_>
    <_>
      <rects>
        <_>
          3 14 1 4 -1.</_>
        <_>
          3 16 1 2 2.</_></rects>
      <tilted>0</tilted></_>
    <_>
      <rects>
        <_>
          3 15 11 2 -1.</_>
        <_>
          3 16 11 1 2.</_></rects>
      <tilted>0</tilted></_>
    <_>
      <rects>
        <_>
          3 15 14 2 -1.</_>
        <_>
          3 16 14 1 2.</_></rects>
      <tilted>0</tilted></_>
    <_>
      <rects>
        <_>
          4 0 1 4 -1.</_>
        <_>
          4 2 1 2 2.</_></rects>
      <tilted>0</tilted></_>
    <_>
      <rects>
        <_>
          4 1 9 9 -1.</_>
        <_>
          4 4 9 3 3.</_></rects>
      <tilted>0</tilted></_>
    <_>
      <rects>
        <_>
          4 2 8 4 -1.</_>
        <_>
          4 4 8 2 2.</_></rects>
      <tilted>0</tilted></_>
    <_>
      <rects>
        <_>
          4 3 15 2 -1.</_>
        <_>
          4 4 15 1 2.</_></rects>
      <tilted>0</tilted></_>
    <_>
      <rects>
        <_>
          4 4 14 3 -1.</_>
        <_>
          4 5 14 1 3.</_></rects>
      <tilted>0</tilted></_>
    <_>
      <rects>
        <_>
          4 5 8 3 -1.</_>
        <_>
          8 5 4 3 2.</_></rects>
      <tilted>0</tilted></_>
    <_>
      <rects>
        <_>
          4 5 7 15 -1.</_>
        <_>
          4 10 7 5 3.</_></rects>
      <tilted>0</tilted></_>
    <_>
      <rects>
        <_>
          4 6 9 7 -1.</_>
        <_>
          7 6 3 7 3.</_></rects>
      <tilted>0</tilted></_>
    <_>
      <rects>
        <_>
          4 6 12 2 -1.</_>
        <_>
          8 6 4 2 3.</_></rects>
      <tilted>0</tilted></_>
    <_>
      <rects>
        <_>
          4 7 9 6 -1.</_>
        <_>
          7 7 3 6 3.</_></rects>
      <tilted>0</tilted></_>
    <_>
      <rects>
        <_>
          4 7 9 7 -1.</_>
        <_>
          7 7 3 7 3.</_></rects>
      <tilted>0</tilted></_>
    <_>
      <rects>
        <_>
          4 12 4 2 -1.</_>
        <_>
          4 13 4 1 2.</_></rects>
      <tilted>0</tilted></_>
    <_>
      <rects>
        <_>
          4 13 8 1 -1.</_>
        <_>
          8 13 4 1 2.</_></rects>
      <tilted>0</tilted></_>
    <_>
      <rects>
        <_>
          4 14 3 1 -1.</_>
        <_>
          5 14 1 1 3.</_></rects>
      <tilted>0</tilted></_>
    <_>
      <rects>
        <_>
          5 0 9 6 -1.</_>
        <_>
          5 3 9 3 2.</_></rects>
      <tilted>0</tilted></_>
    <_>
      <rects>
        <_>
          5 1 7 18 -1.</_>
        <_>
          5 7 7 6 3.</_></rects>
      <tilted>0</tilted></_>
    <_>
      <rects>
        <_>
          5 3 8 2 -1.</_>
        <_>
          5 4 8 1 2.</_></rects>
      <tilted>0</tilted></_>
    <_>
      <rects>
        <_>
          5 3 11 6 -1.</_>
        <_>
          5 5 11 2 3.</_></rects>
      <tilted>0</tilted></_>
    <_>
      <rects>
        <_>
          5 4 9 1 -1.</_>
        <_>
          8 4 3 1 3.</_></rects>
      <tilted>0</tilted></_>
    <_>
      <rects>
        <_>
          5 6 6 11 -1.</_>
        <_>
          7 6 2 11 3.</_></rects>
      <tilted>0</tilted></_>
    <_>
      <rects>
        <_>
          5 7 6 5 -1.</_>
        <_>
          7 7 2 5 3.</_></rects>
      <tilted>0</tilted></_>
    <_>
      <rects>
        <_>
          5 7 6 10 -1.</_>
        <_>
          7 7 2 10 3.</_></rects>
      <tilted>0</tilted></_>
    <_>
      <rects>
        <_>
          5 7 6 7 -1.</_>
        <_>
          8 7 3 7 2.</_></rects>
      <tilted>0</tilted></_>
    <_>
      <rects>
        <_>
          5 8 3 7 -1.</_>
        <_>
          6 8 1 7 3.</_></rects>
      <tilted>0</tilted></_>
    <_>
      <rects>
        <_>
          5 8 6 6 -1.</_>
        <_>
          7 8 2 6 3.</_></rects>
      <tilted>0</tilted></_>
    <_>
      <rects>
        <_>
          5 8 6 9 -1.</_>
        <_>
          5 11 6 3 3.</_></rects>
      <tilted>0</tilted></_>
    <_>
      <rects>
        <_>
          5 9 3 6 -1.</_>
        <_>
          6 9 1 6 3.</_></rects>
      <tilted>0</tilted></_>
    <_>
      <rects>
        <_>
          5 9 6 6 -1.</_>
        <_>
          5 9 3 3 2.</_>
        <_>
          8 12 3 3 2.</_></rects>
      <tilted>0</tilted></_>
    <_>
      <rects>
        <_>
          5 10 9 2 -1.</_>
        <_>
          8 10 3 2 3.</_></rects>
      <tilted>0</tilted></_>
    <_>
      <rects>
        <_>
          5 11 7 3 -1.</_>
        <_>
          5 12 7 1 3.</_></rects>
      <tilted>0</tilted></_>
    <_>
      <rects>
        <_>
          5 12 3 3 -1.</_>
        <_>
          6 12 1 3 3.</_></rects>
      <tilted>0</tilted></_>
    <_>
      <rects>
        <_>
          6 2 5 6 -1.</_>
        <_>
          6 4 5 2 3.</_></rects>
      <tilted>0</tilted></_>
    <_>
      <rects>
        <_>
          6 2 10 6 -1.</_>
        <_>
          6 4 10 2 3.</_></rects>
      <tilted>0</tilted></_>
    <_>
      <rects>
        <_>
          6 3 6 2 -1.</_>
        <_>
          6 4 6 1 2.</_></rects>
      <tilted>0</tilted></_>
    <_>
      <rects>
        <_>
          6 4 3 2 -1.</_>
        <_>
          7 4 1 2 3.</_></rects>
      <tilted>0</tilted></_>
    <_>
      <rects>
        <_>
          6 4 3 4 -1.</_>
        <_>
          7 4 1 4 3.</_></rects>
      <tilted>0</tilted></_>
    <_>
      <rects>
        <_>
          6 4 4 1 -1.</_>
        <_>
          8 4 2 1 2.</_></rects>
      <tilted>0</tilted></_>
    <_>
      <rects>
        <_>
          6 4 12 6 -1.</_>
        <_>
          6 4 6 3 2.</_>
        <_>
          12 7 6 3 2.</_></rects>
      <tilted>0</tilted></_>
    <_>
      <rects>
        <_>
          6 5 2 13 -1.</_>
        <_>
          7 5 1 13 2.</_></rects>
      <tilted>0</tilted></_>
    <_>
      <rects>
        <_>
          6 6 3 6 -1.</_>
        <_>
          7 6 1 6 3.</_></rects>
      <tilted>0</tilted></_>
    <_>
      <rects>
        <_>
          6 6 2 8 -1.</_>
        <_>
          7 6 1 8 2.</_></rects>
      <tilted>0</tilted></_>
    <_>
      <rects>
        <_>
          6 6 3 8 -1.</_>
        <_>
          7 6 1 8 3.</_></rects>
      <tilted>0</tilted></_>
    <_>
      <rects>
        <_>
          6 7 3 4 -1.</_>
        <_>
          7 7 1 4 3.</_></rects>
      <tilted>0</tilted></_>
    <_>
      <rects>
        <_>
          6 7 2 6 -1.</_>
        <_>
          7 7 1 6 2.</_></rects>
      <tilted>0</tilted></_>
    <_>
      <rects>
        <_>
          6 7 3 6 -1.</_>
        <_>
          7 7 1 6 3.</_></rects>
      <tilted>0</tilted></_>
    <_>
      <rects>
        <_>
          6 7 2 7 -1.</_>
        <_>
          7 7 1 7 2.</_></rects>
      <tilted>0</tilted></_>
    <_>
      <rects>
        <_>
          6 7 6 7 -1.</_>
        <_>
          8 7 2 7 3.</_></rects>
      <tilted>0</tilted></_>
    <_>
      <rects>
        <_>
          6 8 2 3 -1.</_>
        <_>
          7 8 1 3 2.</_></rects>
      <tilted>0</tilted></_>
    <_>
      <rects>
        <_>
          6 8 6 3 -1.</_>
        <_>
          8 8 2 3 3.</_></rects>
      <tilted>0</tilted></_>
    <_>
      <rects>
        <_>
          6 8 6 6 -1.</_>
        <_>
          6 8 3 3 2.</_>
        <_>
          9 11 3 3 2.</_></rects>
      <tilted>0</tilted></_>
    <_>
      <rects>
        <_>
          6 10 3 4 -1.</_>
        <_>
          7 10 1 4 3.</_></rects>
      <tilted>0</tilted></_>
    <_>
      <rects>
        <_>
          6 12 7 3 -1.</_>
        <_>
          6 13 7 1 3.</_></rects>
      <tilted>0</tilted></_>
    <_>
      <rects>
        <_>
          6 13 7 3 -1.</_>
        <_>
          6 14 7 1 3.</_></rects>
      <tilted>0</tilted></_>
    <_>
      <rects>
        <_>
          6 13 12 3 -1.</_>
        <_>
          6 14 12 1 3.</_></rects>
      <tilted>0</tilted></_>
    <_>
      <rects>
        <_>
          7 1 5 9 -1.</_>
        <_>
          7 4 5 3 3.</_></rects>
      <tilted>0</tilted></_>
    <_>
      <rects>
        <_>
          7 1 5 18 -1.</_>
        <_>
          7 7 5 6 3.</_></rects>
      <tilted>0</tilted></_>
    <_>
      <rects>
        <_>
          7 2 5 4 -1.</_>
        <_>
          7 4 5 2 2.</_></rects>
      <tilted>0</tilted></_>
    <_>
      <rects>
        <_>
          7 2 5 9 -1.</_>
        <_>
          7 5 5 3 3.</_></rects>
      <tilted>0</tilted></_>
    <_>
      <rects>
        <_>
          7 3 5 2 -1.</_>
        <_>
          7 4 5 1 2.</_></rects>
      <tilted>0</tilted></_>
    <_>
      <rects>
        <_>
          7 3 6 3 -1.</_>
        <_>
          7 4 6 1 3.</_></rects>
      <tilted>0</tilted></_>
    <_>
      <rects>
        <_>
          7 4 2 14 -1.</_>
        <_>
          7 4 1 7 2.</_>
        <_>
          8 11 1 7 2.</_></rects>
      <tilted>0</tilted></_>
    <_>
      <rects>
        <_>
          7 4 3 8 -1.</_>
        <_>
          8 4 1 8 3.</_></rects>
      <tilted>0</tilted></_>
    <_>
      <rects>
        <_>
          7 4 4 8 -1.</_>
        <_>
          9 4 2 8 2.</_></rects>
      <tilted>0</tilted></_>
    <_>
      <rects>
        <_>
          7 4 3 12 -1.</_>
        <_>
          7 8 3 4 3.</_></rects>
      <tilted>0</tilted></_>
    <_>
      <rects>
        <_>
          7 5 3 3 -1.</_>
        <_>
          8 5 1 3 3.</_></rects>
      <tilted>0</tilted></_>
    <_>
      <rects>
        <_>
          7 5 3 4 -1.</_>
        <_>
          8 5 1 4 3.</_></rects>
      <tilted>0</tilted></_>
    <_>
      <rects>
        <_>
          7 5 2 4 -1.</_>
        <_>
          7 7 2 2 2.</_></rects>
      <tilted>0</tilted></_>
    <_>
      <rects>
        <_>
          7 5 2 9 -1.</_>
        <_>
          7 8 2 3 3.</_></rects>
      <tilted>0</tilted></_>
    <_>
      <rects>
        <_>
          7 5 4 13 -1.</_>
        <_>
          9 5 2 13 2.</_></rects>
      <tilted>0</tilted></_>
    <_>
      <rects>
        <_>
          7 5 12 2 -1.</_>
        <_>
          13 5 6 2 2.</_></rects>
      <tilted>0</tilted></_>
    <_>
      <rects>
        <_>
          7 6 2 1 -1.</_>
        <_>
          8 6 1 1 2.</_></rects>
      <tilted>0</tilted></_>
    <_>
      <rects>
        <_>
          7 6 3 3 -1.</_>
        <_>
          8 6 1 3 3.</_></rects>
      <tilted>0</tilted></_>
    <_>
      <rects>
        <_>
          7 7 3 3 -1.</_>
        <_>
          8 7 1 3 3.</_></rects>
      <tilted>0</tilted></_>
    <_>
      <rects>
        <_>
          7 7 3 4 -1.</_>
        <_>
          8 7 1 4 3.</_></rects>
      <tilted>0</tilted></_>
    <_>
      <rects>
        <_>
          7 8 1 12 -1.</_>
        <_>
          7 14 1 6 2.</_></rects>
      <tilted>0</tilted></_>
    <_>
      <rects>
        <_>
          7 8 4 1 -1.</_>
        <_>
          9 8 2 1 2.</_></rects>
      <tilted>0</tilted></_>
    <_>
      <rects>
        <_>
          7 8 6 9 -1.</_>
        <_>
          10 8 3 9 2.</_></rects>
      <tilted>0</tilted></_>
    <_>
      <rects>
        <_>
          7 8 10 1 -1.</_>
        <_>
          12 8 5 1 2.</_></rects>
      <tilted>0</tilted></_>
    <_>
      <rects>
        <_>
          7 8 12 6 -1.</_>
        <_>
          7 8 6 3 2.</_>
        <_>
          13 11 6 3 2.</_></rects>
      <tilted>0</tilted></_>
    <_>
      <rects>
        <_>
          7 10 3 4 -1.</_>
        <_>
          8 10 1 4 3.</_></rects>
      <tilted>0</tilted></_>
    <_>
      <rects>
        <_>
          7 10 5 8 -1.</_>
        <_>
          7 14 5 4 2.</_></rects>
      <tilted>0</tilted></_>
    <_>
      <rects>
        <_>
          7 12 3 2 -1.</_>
        <_>
          8 12 1 2 3.</_></rects>
      <tilted>0</tilted></_>
    <_>
      <rects>
        <_>
          7 12 4 3 -1.</_>
        <_>
          7 13 4 1 3.</_></rects>
      <tilted>0</tilted></_>
    <_>
      <rects>
        <_>
          7 12 6 8 -1.</_>
        <_>
          7 16 6 4 2.</_></rects>
      <tilted>0</tilted></_>
    <_>
      <rects>
        <_>
          8 1 6 6 -1.</_>
        <_>
          8 1 3 3 2.</_>
        <_>
          11 4 3 3 2.</_></rects>
      <tilted>0</tilted></_>
    <_>
      <rects>
        <_>
          8 1 10 4 -1.</_>
        <_>
          8 3 10 2 2.</_></rects>
      <tilted>0</tilted></_>
    <_>
      <rects>
        <_>
          8 3 5 3 -1.</_>
        <_>
          8 4 5 1 3.</_></rects>
      <tilted>0</tilted></_>
    <_>
      <rects>
        <_>
          8 4 6 3 -1.</_>
        <_>
          11 4 3 3 2.</_></rects>
      <tilted>0</tilted></_>
    <_>
      <rects>
        <_>
          8 5 6 9 -1.</_>
        <_>
          10 5 2 9 3.</_></rects>
      <tilted>0</tilted></_>
    <_>
      <rects>
        <_>
          8 5 9 4 -1.</_>
        <_>
          8 7 9 2 2.</_></rects>
      <tilted>0</tilted></_>
    <_>
      <rects>
        <_>
          8 6 6 8 -1.</_>
        <_>
          10 6 2 8 3.</_></rects>
      <tilted>0</tilted></_>
    <_>
      <rects>
        <_>
          8 7 6 6 -1.</_>
        <_>
          10 7 2 6 3.</_></rects>
      <tilted>0</tilted></_>
    <_>
      <rects>
        <_>
          8 8 6 7 -1.</_>
        <_>
          10 8 2 7 3.</_></rects>
      <tilted>0</tilted></_>
    <_>
      <rects>
        <_>
          8 9 4 1 -1.</_>
        <_>
          10 9 2 1 2.</_></rects>
      <tilted>0</tilted></_>
    <_>
      <rects>
        <_>
          8 9 2 4 -1.</_>
        <_>
          8 11 2 2 2.</_></rects>
      <tilted>0</tilted></_>
    <_>
      <rects>
        <_>
          8 9 6 5 -1.</_>
        <_>
          10 9 2 5 3.</_></rects>
      <tilted>0</tilted></_>
    <_>
      <rects>
        <_>
          8 12 6 2 -1.</_>
        <_>
          10 12 2 2 3.</_></rects>
      <tilted>0</tilted></_>
    <_>
      <rects>
        <_>
          8 12 4 3 -1.</_>
        <_>
          8 13 4 1 3.</_></rects>
      <tilted>0</tilted></_>
    <_>
      <rects>
        <_>
          8 13 1 2 -1.</_>
        <_>
          8 14 1 1 2.</_></rects>
      <tilted>0</tilted></_>
    <_>
      <rects>
        <_>
          8 14 2 2 -1.</_>
        <_>
          8 14 1 1 2.</_>
        <_>
          9 15 1 1 2.</_></rects>
      <tilted>0</tilted></_>
    <_>
      <rects>
        <_>
          9 2 2 3 -1.</_>
        <_>
          9 3 2 1 3.</_></rects>
      <tilted>0</tilted></_>
    <_>
      <rects>
        <_>
          9 2 6 8 -1.</_>
        <_>
          9 2 3 4 2.</_>
        <_>
          12 6 3 4 2.</_></rects>
      <tilted>0</tilted></_>
    <_>
      <rects>
        <_>
          9 3 2 3 -1.</_>
        <_>
          9 4 2 1 3.</_></rects>
      <tilted>0</tilted></_>
    <_>
      <rects>
        <_>
          9 3 3 3 -1.</_>
        <_>
          9 4 3 1 3.</_></rects>
      <tilted>0</tilted></_>
    <_>
      <rects>
        <_>
          9 3 3 12 -1.</_>
        <_>
          9 7 3 4 3.</_></rects>
      <tilted>0</tilted></_>
    <_>
      <rects>
        <_>
          9 5 10 4 -1.</_>
        <_>
          14 5 5 4 2.</_></rects>
      <tilted>0</tilted></_>
    <_>
      <rects>
        <_>
          9 8 2 2 -1.</_>
        <_>
          9 9 2 1 2.</_></rects>
      <tilted>0</tilted></_>
    <_>
      <rects>
        <_>
          9 12 3 3 -1.</_>
        <_>
          9 13 3 1 3.</_></rects>
      <tilted>0</tilted></_>
    <_>
      <rects>
        <_>
          9 13 3 2 -1.</_>
        <_>
          10 13 1 2 3.</_></rects>
      <tilted>0</tilted></_>
    <_>
      <rects>
        <_>
          9 14 3 1 -1.</_>
        <_>
          10 14 1 1 3.</_></rects>
      <tilted>0</tilted></_>
    <_>
      <rects>
        <_>
          9 14 2 2 -1.</_>
        <_>
          9 14 1 1 2.</_>
        <_>
          10 15 1 1 2.</_></rects>
      <tilted>0</tilted></_>
    <_>
      <rects>
        <_>
          9 15 2 3 -1.</_>
        <_>
          9 16 2 1 3.</_></rects>
      <tilted>0</tilted></_>
    <_>
      <rects>
        <_>
          9 16 9 1 -1.</_>
        <_>
          12 16 3 1 3.</_></rects>
      <tilted>0</tilted></_>
    <_>
      <rects>
        <_>
          10 2 6 12 -1.</_>
        <_>
          12 2 2 12 3.</_></rects>
      <tilted>0</tilted></_>
    <_>
      <rects>
        <_>
          10 3 3 5 -1.</_>
        <_>
          11 3 1 5 3.</_></rects>
      <tilted>0</tilted></_>
    <_>
      <rects>
        <_>
          10 4 4 10 -1.</_>
        <_>
          12 4 2 10 2.</_></rects>
      <tilted>0</tilted></_>
    <_>
      <rects>
        <_>
          10 4 6 11 -1.</_>
        <_>
          12 4 2 11 3.</_></rects>
      <tilted>0</tilted></_>
    <_>
      <rects>
        <_>
          10 5 2 4 -1.</_>
        <_>
          10 7 2 2 2.</_></rects>
      <tilted>0</tilted></_>
    <_>
      <rects>
        <_>
          10 5 2 12 -1.</_>
        <_>
          10 9 2 4 3.</_></rects>
      <tilted>0</tilted></_>
    <_>
      <rects>
        <_>
          10 5 6 10 -1.</_>
        <_>
          12 5 2 10 3.</_></rects>
      <tilted>0</tilted></_>
    <_>
      <rects>
        <_>
          10 13 2 2 -1.</_>
        <_>
          10 14 2 1 2.</_></rects>
      <tilted>0</tilted></_>
    <_>
      <rects>
        <_>
          11 2 9 14 -1.</_>
        <_>
          14 2 3 14 3.</_></rects>
      <tilted>0</tilted></_>
    <_>
      <rects>
        <_>
          11 4 1 6 -1.</_>
        <_>
          11 7 1 3 2.</_></rects>
      <tilted>0</tilted></_>
    <_>
      <rects>
        <_>
          11 5 9 1 -1.</_>
        <_>
          14 5 3 1 3.</_></rects>
      <tilted>0</tilted></_>
    <_>
      <rects>
        <_>
          11 5 9 8 -1.</_>
        <_>
          14 5 3 8 3.</_></rects>
      <tilted>0</tilted></_>
    <_>
      <rects>
        <_>
          11 6 2 7 -1.</_>
        <_>
          12 6 1 7 2.</_></rects>
      <tilted>0</tilted></_>
    <_>
      <rects>
        <_>
          11 10 2 3 -1.</_>
        <_>
          12 10 1 3 2.</_></rects>
      <tilted>0</tilted></_>
    <_>
      <rects>
        <_>
          11 14 5 3 -1.</_>
        <_>
          11 15 5 1 3.</_></rects>
      <tilted>0</tilted></_>
    <_>
      <rects>
        <_>
          12 3 6 14 -1.</_>
        <_>
          14 3 2 14 3.</_></rects>
      <tilted>0</tilted></_>
    <_>
      <rects>
        <_>
          12 8 6 5 -1.</_>
        <_>
          14 8 2 5 3.</_></rects>
      <tilted>0</tilted></_>
    <_>
      <rects>
        <_>
          12 8 6 7 -1.</_>
        <_>
          14 8 2 7 3.</_></rects>
      <tilted>0</tilted></_>
    <_>
      <rects>
        <_>
          12 14 2 2 -1.</_>
        <_>
          12 15 2 1 2.</_></rects>
      <tilted>0</tilted></_>
    <_>
      <rects>
        <_>
          12 14 2 3 -1.</_>
        <_>
          12 15 2 1 3.</_></rects>
      <tilted>0</tilted></_>
    <_>
      <rects>
        <_>
          13 0 3 16 -1.</_>
        <_>
          14 0 1 16 3.</_></rects>
      <tilted>0</tilted></_>
    <_>
      <rects>
        <_>
          13 4 6 16 -1.</_>
        <_>
          15 4 2 16 3.</_></rects>
      <tilted>0</tilted></_>
    <_>
      <rects>
        <_>
          13 5 4 4 -1.</_>
        <_>
          13 5 2 2 2.</_>
        <_>
          15 7 2 2 2.</_></rects>
      <tilted>0</tilted></_>
    <_>
      <rects>
        <_>
          13 6 6 7 -1.</_>
        <_>
          15 6 2 7 3.</_></rects>
      <tilted>0</tilted></_>
    <_>
      <rects>
        <_>
          13 13 2 6 -1.</_>
        <_>
          13 13 1 3 2.</_>
        <_>
          14 16 1 3 2.</_></rects>
      <tilted>0</tilted></_>
    <_>
      <rects>
        <_>
          14 0 2 8 -1.</_>
        <_>
          14 0 1 4 2.</_>
        <_>
          15 4 1 4 2.</_></rects>
      <tilted>0</tilted></_>
    <_>
      <rects>
        <_>
          14 3 2 12 -1.</_>
        <_>
          14 3 1 6 2.</_>
        <_>
          15 9 1 6 2.</_></rects>
      <tilted>0</tilted></_>
    <_>
      <rects>
        <_>
          14 6 6 2 -1.</_>
        <_>
          16 6 2 2 3.</_></rects>
      <tilted>0</tilted></_>
    <_>
      <rects>
        <_>
          14 7 3 2 -1.</_>
        <_>
          15 7 1 2 3.</_></rects>
      <tilted>0</tilted></_>
    <_>
      <rects>
        <_>
          14 7 3 4 -1.</_>
        <_>
          15 7 1 4 3.</_></rects>
      <tilted>0</tilted></_>
    <_>
      <rects>
        <_>
          14 7 3 5 -1.</_>
        <_>
          15 7 1 5 3.</_></rects>
      <tilted>0</tilted></_>
    <_>
      <rects>
        <_>
          14 7 4 8 -1.</_>
        <_>
          16 7 2 8 2.</_></rects>
      <tilted>0</tilted></_>
    <_>
      <rects>
        <_>
          14 8 3 5 -1.</_>
        <_>
          15 8 1 5 3.</_></rects>
      <tilted>0</tilted></_>
    <_>
      <rects>
        <_>
          14 8 2 12 -1.</_>
        <_>
          14 8 1 6 2.</_>
        <_>
          15 14 1 6 2.</_></rects>
      <tilted>0</tilted></_>
    <_>
      <rects>
        <_>
          14 8 3 12 -1.</_>
        <_>
          14 12 3 4 3.</_></rects>
      <tilted>0</tilted></_>
    <_>
      <rects>
        <_>
          14 9 3 3 -1.</_>
        <_>
          15 9 1 3 3.</_></rects>
      <tilted>0</tilted></_>
    <_>
      <rects>
        <_>
          14 9 3 4 -1.</_>
        <_>
          15 9 1 4 3.</_></rects>
      <tilted>0</tilted></_>
    <_>
      <rects>
        <_>
          14 11 4 2 -1.</_>
        <_>
          14 11 2 1 2.</_>
        <_>
          16 12 2 1 2.</_></rects>
      <tilted>0</tilted></_>
    <_>
      <rects>
        <_>
          15 0 3 18 -1.</_>
        <_>
          15 6 3 6 3.</_></rects>
      <tilted>0</tilted></_>
    <_>
      <rects>
        <_>
          15 1 3 6 -1.</_>
        <_>
          16 1 1 6 3.</_></rects>
      <tilted>0</tilted></_>
    <_>
      <rects>
        <_>
          15 2 5 8 -1.</_>
        <_>
          15 6 5 4 2.</_></rects>
      <tilted>0</tilted></_>
    <_>
      <rects>
        <_>
          15 4 2 10 -1.</_>
        <_>
          15 4 1 5 2.</_>
        <_>
          16 9 1 5 2.</_></rects>
      <tilted>0</tilted></_>
    <_>
      <rects>
        <_>
          15 7 2 8 -1.</_>
        <_>
          15 7 1 4 2.</_>
        <_>
          16 11 1 4 2.</_></rects>
      <tilted>0</tilted></_>
    <_>
      <rects>
        <_>
          15 7 4 12 -1.</_>
        <_>
          17 7 2 12 2.</_></rects>
      <tilted>0</tilted></_>
    <_>
      <rects>
        <_>
          15 8 3 5 -1.</_>
        <_>
          16 8 1 5 3.</_></rects>
      <tilted>0</tilted></_>
    <_>
      <rects>
        <_>
          15 9 3 5 -1.</_>
        <_>
          16 9 1 5 3.</_></rects>
      <tilted>0</tilted></_>
    <_>
      <rects>
        <_>
          16 1 2 12 -1.</_>
        <_>
          16 1 1 6 2.</_>
        <_>
          17 7 1 6 2.</_></rects>
      <tilted>0</tilted></_>
    <_>
      <rects>
        <_>
          16 3 2 12 -1.</_>
        <_>
          16 3 1 6 2.</_>
        <_>
          17 9 1 6 2.</_></rects>
      <tilted>0</tilted></_>
    <_>
      <rects>
        <_>
          16 3 4 15 -1.</_>
        <_>
          18 3 2 15 2.</_></rects>
      <tilted>0</tilted></_>
    <_>
      <rects>
        <_>
          16 4 2 14 -1.</_>
        <_>
          16 4 1 7 2.</_>
        <_>
          17 11 1 7 2.</_></rects>
      <tilted>0</tilted></_>
    <_>
      <rects>
        <_>
          16 7 3 6 -1.</_>
        <_>
          17 7 1 6 3.</_></rects>
      <tilted>0</tilted></_>
    <_>
      <rects>
        <_>
          16 7 4 12 -1.</_>
        <_>
          16 7 2 6 2.</_>
        <_>
          18 13 2 6 2.</_></rects>
      <tilted>0</tilted></_>
    <_>
      <rects>
        <_>
          16 8 3 5 -1.</_>
        <_>
          17 8 1 5 3.</_></rects>
      <tilted>0</tilted></_>
    <_>
      <rects>
        <_>
          16 9 3 3 -1.</_>
        <_>
          17 9 1 3 3.</_></rects>
      <tilted>0</tilted></_>
    <_>
      <rects>
        <_>
          16 9 2 4 -1.</_>
        <_>
          17 9 1 4 2.</_></rects>
      <tilted>0</tilted></_>
    <_>
      <rects>
        <_>
          16 13 4 4 -1.</_>
        <_>
          16 13 2 2 2.</_>
        <_>
          18 15 2 2 2.</_></rects>
      <tilted>0</tilted></_>
    <_>
      <rects>
        <_>
          17 1 2 10 -1.</_>
        <_>
          17 1 1 5 2.</_>
        <_>
          18 6 1 5 2.</_></rects>
      <tilted>0</tilted></_>
    <_>
      <rects>
        <_>
          17 5 2 10 -1.</_>
        <_>
          18 5 1 10 2.</_></rects>
      <tilted>0</tilted></_>
    <_>
      <rects>
        <_>
          17 5 3 6 -1.</_>
        <_>
          17 8 3 3 2.</_></rects>
      <tilted>0</tilted></_>
    <_>
      <rects>
        <_>
          17 7 2 7 -1.</_>
        <_>
          18 7 1 7 2.</_></rects>
      <tilted>0</tilted></_>
    <_>
      <rects>
        <_>
          17 8 2 5 -1.</_>
        <_>
          18 8 1 5 2.</_></rects>
      <tilted>0</tilted></_>
    <_>
      <rects>
        <_>
          17 14 2 4 -1.</_>
        <_>
          17 16 2 2 2.</_></rects>
      <tilted>0</tilted></_>
    <_>
      <rects>
        <_>
          18 3 2 4 -1.</_>
        <_>
          18 3 1 2 2.</_>
        <_>
          19 5 1 2 2.</_></rects>
      <tilted>0</tilted></_></features></cascade>
</opencv_storage>
