<?xml version="1.0"?>
<opencv_storage>
<cascade>
  <stageType>BOOST</stageType>
  <featureType>HAAR</featureType>
  <height>24</height>
  <width>24</width>
  <stageParams>
    <boostType>GAB</boostType>
    <minHitRate>9.4999998807907104e-01</minHitRate>
    <maxFalseAlarm>5.0000000000000000e-01</maxFalseAlarm>
    <weightTrimRate>9.4999999999999996e-01</weightTrimRate>
    <maxDepth>1</maxDepth>
    <maxWeakCount>100</maxWeakCount></stageParams>
  <featureParams>
    <maxCatCount>0</maxCatCount>
    <featSize>1</featSize>
    <mode>BASIC</mode></featureParams>
  <stageNum>5</stageNum>
  <stages>
    <!-- stage 0 -->
    <_>
      <maxWeakCount>4</maxWeakCount>
      <stageThreshold>3.3380869030952454e-01</stageThreshold>
      <weakClassifiers>
        <_>
          <internalNodes>
            0 -1 13 3.1448870897293091e-02</internalNodes>
          <leafValues>
            -1.7535544931888580e-01 9.8780488967895508e-01</leafValues></_>
        <_>
          <internalNodes>
            0 -1 6 5.1787397824227810e-03</internalNodes>
          <leafValues>
            4.6299737691879272e-01 -7.6099085807800293e-01</leafValues></_>
        <_>
          <internalNodes>
            0 -1 4 1.8039308488368988e-02</internalNodes>
          <leafValues>
            -3.3186584711074829e-01 9.1585278511047363e-01</leafValues></_>
        <_>
          <internalNodes>
            0 -1 3 8.2049928605556488e-03</internalNodes>
          <leafValues>
            3.7803259491920471e-01 -9.6893119812011719e-01</leafValues></_></weakClassifiers></_>
    <!-- stage 1 -->
    <_>
      <maxWeakCount>3</maxWeakCount>
      <stageThreshold>1.1890266090631485e-01</stageThreshold>
      <weakClassifiers>
        <_>
          <internalNodes>
            0 -1 1 3.7859536707401276e-02</internalNodes>
          <leafValues>
            -1.9597989320755005e-01 9.3181818723678589e-01</leafValues></_>
        <_>
          <internalNodes>
            0 -1 5 9.7217075526714325e-03</internalNodes>
          <leafValues>
            -1.5215168893337250e-01 9.8007285594940186e-01</leafValues></_>
        <_>
          <internalNodes>
            0 -1 2 -3.5826023668050766e-03</internalNodes>
          <leafValues>
            -6.5949666500091553e-01 4.6703425049781799e-01</leafValues></_></weakClassifiers></_>
    <!-- stage 2 -->
    <_>
      <maxWeakCount>2</maxWeakCount>
      <stageThreshold>2.5365215539932251e-01</stageThreshold>
      <weakClassifiers>
        <_>
          <internalNodes>
            0 -1 10 1.6485776752233505e-02</internalNodes>
          <leafValues>
            -2.4607330560684204e-01 9.3478262424468994e-01</leafValues></_>
        <_>
          <internalNodes>
            0 -1 0 -5.0787301734089851e-04</internalNodes>
          <leafValues>
            -5.9906065464019775e-01 4.9972546100616455e-01</leafValues></_></weakClassifiers></_>
    <!-- stage 3 -->
    <_>
      <maxWeakCount>3</maxWeakCount>
      <stageThreshold>6.4772009849548340e-02</stageThreshold>
      <weakClassifiers>
        <_>
          <internalNodes>
            0 -1 9 4.2022258043289185e-02</internalNodes>
          <leafValues>
            -2.6530611515045166e-01 9.8882681131362915e-01</leafValues></_>
        <_>
          <internalNodes>
            0 -1 14 -3.1142734223976731e-04</internalNodes>
          <leafValues>
            -4.9349576234817505e-01 6.4876729249954224e-01</leafValues></_>
        <_>
          <internalNodes>
            0 -1 8 -3.1872779130935669e-02</internalNodes>
          <leafValues>
            8.8450628519058228e-01 -3.1868919730186462e-01</leafValues></_></weakClassifiers></_>
    <!-- stage 4 -->
    <_>
      <maxWeakCount>5</maxWeakCount>
      <stageThreshold>-2.1747618913650513e-01</stageThreshold>
      <weakClassifiers>
        <_>
          <internalNodes>
            0 -1 7 2.9229812207631767e-04</internalNodes>
          <leafValues>
            8.2040816545486450e-01 -5.8461540937423706e-01</leafValues></_>
        <_>
          <internalNodes>
            0 -1 12 3.5531163215637207e-02</internalNodes>
          <leafValues>
            -2.6301509141921997e-01 9.4904357194900513e-01</leafValues></_>
        <_>
          <internalNodes>
            0 -1 16 3.7835395778529346e-04</internalNodes>
          <leafValues>
            4.7214651107788086e-01 -6.0196453332901001e-01</leafValues></_>
        <_>
          <internalNodes>
            0 -1 11 3.7205961416475475e-04</internalNodes>
          <leafValues>
            4.3550202250480652e-01 -5.9102296829223633e-01</leafValues></_>
        <_>
          <internalNodes>
            0 -1 15 3.2936898060142994e-03</internalNodes>
          <leafValues>
            -3.4503108263015747e-01 7.4903070926666260e-01</leafValues></_></weakClassifiers></_></stages>
  <features>
    <_>
      <rects>
        <_>
          0 0 15 1 -1.</_>
        <_>
          5 0 5 1 3.</_></rects>
      <tilted>0</tilted></_>
    <_>
      <rects>
        <_>
          0 0 21 2 -1.</_>
        <_>
          0 1 21 1 2.</_></rects>
      <tilted>0</tilted></_>
    <_>
      <rects>
        <_>
          0 1 1 10 -1.</_>
        <_>
          0 6 1 5 2.</_></rects>
      <tilted>0</tilted></_>
    <_>
      <rects>
        <_>
          0 2 1 15 -1.</_>
        <_>
          0 7 1 5 3.</_></rects>
      <tilted>0</tilted></_>
    <_>
      <rects>
        <_>
          0 6 6 10 -1.</_>
        <_>
          2 6 2 10 3.</_></rects>
      <tilted>0</tilted></_>
    <_>
      <rects>
        <_>
          0 7 3 17 -1.</_>
        <_>
          1 7 1 17 3.</_></rects>
      <tilted>0</tilted></_>
    <_>
      <rects>
        <_>
          0 8 1 12 -1.</_>
        <_>
          0 14 1 6 2.</_></rects>
      <tilted>0</tilted></_>
    <_>
      <rects>
        <_>
          1 0 12 1 -1.</_>
        <_>
          5 0 4 1 3.</_></rects>
      <tilted>0</tilted></_>
    <_>
      <rects>
        <_>
          1 0 8 16 -1.</_>
        <_>
          5 0 4 16 2.</_></rects>
      <tilted>0</tilted></_>
    <_>
      <rects>
        <_>
          2 0 21 2 -1.</_>
        <_>
          2 1 21 1 2.</_></rects>
      <tilted>0</tilted></_>
    <_>
      <rects>
        <_>
          3 0 13 2 -1.</_>
        <_>
          3 1 13 1 2.</_></rects>
      <tilted>0</tilted></_>
    <_>
      <rects>
        <_>
          5 0 18 1 -1.</_>
        <_>
          11 0 6 1 3.</_></rects>
      <tilted>0</tilted></_>
    <_>
      <rects>
        <_>
          5 0 13 3 -1.</_>
        <_>
          5 1 13 1 3.</_></rects>
      <tilted>0</tilted></_>
    <_>
      <rects>
        <_>
          6 0 14 2 -1.</_>
        <_>
          6 1 14 1 2.</_></rects>
      <tilted>0</tilted></_>
    <_>
      <rects>
        <_>
          7 0 8 1 -1.</_>
        <_>
          11 0 4 1 2.</_></rects>
      <tilted>0</tilted></_>
    <_>
      <rects>
        <_>
          7 13 3 2 -1.</_>
        <_>
          8 13 1 2 3.</_></rects>
      <tilted>0</tilted></_>
    <_>
      <rects>
        <_>
          11 0 10 1 -1.</_>
        <_>
          16 0 5 1 2.</_></rects>
      <tilted>0</tilted></_></features></cascade>
</opencv_storage>
