<?xml version="1.0"?>
<opencv_storage>
<cascade>
  <stageType>BOOST</stageType>
  <featureType>HAAR</featureType>
  <height>20</height>
  <width>20</width>
  <stageParams>
    <boostType>GAB</boostType>
    <minHitRate>9.9500000476837158e-01</minHitRate>
    <maxFalseAlarm>5.0000000000000000e-01</maxFalseAlarm>
    <weightTrimRate>9.4999999999999996e-01</weightTrimRate>
    <maxDepth>1</maxDepth>
    <maxWeakCount>100</maxWeakCount></stageParams>
  <featureParams>
    <maxCatCount>0</maxCatCount>
    <featSize>1</featSize>
    <mode>BASIC</mode></featureParams>
  <stageNum>10</stageNum>
  <stages>
    <!-- stage 0 -->
    <_>
      <maxWeakCount>3</maxWeakCount>
      <stageThreshold>-7.5870275497436523e-01</stageThreshold>
      <weakClassifiers>
        <_>
          <internalNodes>
            0 -1 6 4.2056620121002197e-02</internalNodes>
          <leafValues>
            -6.4394712448120117e-01 8.4788429737091064e-01</leafValues></_>
        <_>
          <internalNodes>
            0 -1 161 1.0194171220064163e-02</internalNodes>
          <leafValues>
            -6.4876812696456909e-01 6.2481147050857544e-01</leafValues></_>
        <_>
          <internalNodes>
            0 -1 111 -1.6648340970277786e-02</internalNodes>
          <leafValues>
            5.3401243686676025e-01 -6.7475461959838867e-01</leafValues></_></weakClassifiers></_>
    <!-- stage 1 -->
    <_>
      <maxWeakCount>9</maxWeakCount>
      <stageThreshold>-1.1974793672561646e+00</stageThreshold>
      <weakClassifiers>
        <_>
          <internalNodes>
            0 -1 78 -3.1501322984695435e-02</internalNodes>
          <leafValues>
            6.8813556432723999e-01 -6.0000002384185791e-01</leafValues></_>
        <_>
          <internalNodes>
            0 -1 161 2.7490962296724319e-02</internalNodes>
          <leafValues>
            -4.7114133834838867e-01 6.0195571184158325e-01</leafValues></_>
        <_>
          <internalNodes>
            0 -1 15 2.9175024479627609e-02</internalNodes>
          <leafValues>
            -4.4156149029731750e-01 5.7015353441238403e-01</leafValues></_>
        <_>
          <internalNodes>
            0 -1 39 1.8373161554336548e-02</internalNodes>
          <leafValues>
            -5.8348613977432251e-01 3.0403980612754822e-01</leafValues></_>
        <_>
          <internalNodes>
            0 -1 62 -9.3923434615135193e-03</internalNodes>
          <leafValues>
            4.7685363888740540e-01 -3.3234512805938721e-01</leafValues></_>
        <_>
          <internalNodes>
            0 -1 176 -1.0939151048660278e-02</internalNodes>
          <leafValues>
            5.5675506591796875e-01 -2.9598602652549744e-01</leafValues></_>
        <_>
          <internalNodes>
            0 -1 90 3.2304082997143269e-03</internalNodes>
          <leafValues>
            -2.3207356035709381e-01 4.6716356277465820e-01</leafValues></_>
        <_>
          <internalNodes>
            0 -1 131 -1.1930749751627445e-02</internalNodes>
          <leafValues>
            6.2186574935913086e-01 -2.0874764025211334e-01</leafValues></_>
        <_>
          <internalNodes>
            0 -1 219 1.7462192336097360e-03</internalNodes>
          <leafValues>
            -2.0779962837696075e-01 4.9744433164596558e-01</leafValues></_></weakClassifiers></_>
    <!-- stage 2 -->
    <_>
      <maxWeakCount>14</maxWeakCount>
      <stageThreshold>-1.2283468246459961e+00</stageThreshold>
      <weakClassifiers>
        <_>
          <internalNodes>
            0 -1 162 1.8341220915317535e-02</internalNodes>
          <leafValues>
            -4.7192353010177612e-01 6.6815698146820068e-01</leafValues></_>
        <_>
          <internalNodes>
            0 -1 56 -4.6857580542564392e-02</internalNodes>
          <leafValues>
            4.2028206586837769e-01 -5.6004047393798828e-01</leafValues></_>
        <_>
          <internalNodes>
            0 -1 7 3.0868865549564362e-02</internalNodes>
          <leafValues>
            -4.9997022747993469e-01 2.9746389389038086e-01</leafValues></_>
        <_>
          <internalNodes>
            0 -1 207 2.7105440385639668e-03</internalNodes>
          <leafValues>
            -4.7603714466094971e-01 2.6612409949302673e-01</leafValues></_>
        <_>
          <internalNodes>
            0 -1 32 -3.9104782044887543e-02</internalNodes>
          <leafValues>
            4.1821828484535217e-01 -2.9000023007392883e-01</leafValues></_>
        <_>
          <internalNodes>
            0 -1 123 -5.8948714286088943e-03</internalNodes>
          <leafValues>
            3.3318674564361572e-01 -3.6695477366447449e-01</leafValues></_>
        <_>
          <internalNodes>
            0 -1 182 -1.0094395838677883e-02</internalNodes>
          <leafValues>
            6.1189800500869751e-01 -2.1394605934619904e-01</leafValues></_>
        <_>
          <internalNodes>
            0 -1 82 1.3026222586631775e-02</internalNodes>
          <leafValues>
            -1.7167344689369202e-01 5.6704360246658325e-01</leafValues></_>
        <_>
          <internalNodes>
            0 -1 83 3.2651319634169340e-03</internalNodes>
          <leafValues>
            -2.1535199880599976e-01 3.6590978503227234e-01</leafValues></_>
        <_>
          <internalNodes>
            0 -1 93 1.5462441369891167e-02</internalNodes>
          <leafValues>
            -1.4781846106052399e-01 6.6197514533996582e-01</leafValues></_>
        <_>
          <internalNodes>
            0 -1 130 -1.2613039463758469e-02</internalNodes>
          <leafValues>
            2.1641334891319275e-01 -4.5445662736892700e-01</leafValues></_>
        <_>
          <internalNodes>
            0 -1 185 2.1726484410464764e-03</internalNodes>
          <leafValues>
            -1.4326092600822449e-01 5.6663346290588379e-01</leafValues></_>
        <_>
          <internalNodes>
            0 -1 242 -8.1174541264772415e-04</internalNodes>
          <leafValues>
            3.1525665521621704e-01 -2.4693259596824646e-01</leafValues></_>
        <_>
          <internalNodes>
            0 -1 173 6.3237901777029037e-03</internalNodes>
          <leafValues>
            -4.7205600142478943e-01 1.7042508721351624e-01</leafValues></_></weakClassifiers></_>
    <!-- stage 3 -->
    <_>
      <maxWeakCount>21</maxWeakCount>
      <stageThreshold>-1.1987574100494385e+00</stageThreshold>
      <weakClassifiers>
        <_>
          <internalNodes>
            0 -1 161 3.0946429818868637e-02</internalNodes>
          <leafValues>
            -1.7825311422348022e-01 6.6550928354263306e-01</leafValues></_>
        <_>
          <internalNodes>
            0 -1 14 7.8232638537883759e-02</internalNodes>
          <leafValues>
            -4.6784332394599915e-01 3.9788684248924255e-01</leafValues></_>
        <_>
          <internalNodes>
            0 -1 95 -1.0328259319067001e-02</internalNodes>
          <leafValues>
            3.7951540946960449e-01 -3.5443928837776184e-01</leafValues></_>
        <_>
          <internalNodes>
            0 -1 43 5.6003045290708542e-02</internalNodes>
          <leafValues>
            -3.3708229660987854e-01 3.3953496813774109e-01</leafValues></_>
        <_>
          <internalNodes>
            0 -1 1 1.1547148227691650e-02</internalNodes>
          <leafValues>
            -3.5826930403709412e-01 2.6637992262840271e-01</leafValues></_>
        <_>
          <internalNodes>
            0 -1 243 9.3419365584850311e-03</internalNodes>
          <leafValues>
            -1.8227657675743103e-01 6.2225359678268433e-01</leafValues></_>
        <_>
          <internalNodes>
            0 -1 89 3.1951772980391979e-03</internalNodes>
          <leafValues>
            -1.6373258829116821e-01 4.6325886249542236e-01</leafValues></_>
        <_>
          <internalNodes>
            0 -1 37 -1.0378999635577202e-02</internalNodes>
          <leafValues>
            6.1962693929672241e-01 -1.5647432208061218e-01</leafValues></_>
        <_>
          <internalNodes>
            0 -1 222 -2.4254079908132553e-02</internalNodes>
          <leafValues>
            3.8862538337707520e-01 -2.1574172377586365e-01</leafValues></_>
        <_>
          <internalNodes>
            0 -1 218 4.2668664827942848e-03</internalNodes>
          <leafValues>
            -1.8035051226615906e-01 3.9585617184638977e-01</leafValues></_>
        <_>
          <internalNodes>
            0 -1 100 -4.3078348040580750e-02</internalNodes>
          <leafValues>
            2.1340566873550415e-01 -3.6684101819992065e-01</leafValues></_>
        <_>
          <internalNodes>
            0 -1 110 2.5901054032146931e-03</internalNodes>
          <leafValues>
            -1.2295839935541153e-01 6.2182790040969849e-01</leafValues></_>
        <_>
          <internalNodes>
            0 -1 134 1.0819948278367519e-02</internalNodes>
          <leafValues>
            -1.1111854016780853e-01 5.4896926879882813e-01</leafValues></_>
        <_>
          <internalNodes>
            0 -1 135 1.7061408609151840e-02</internalNodes>
          <leafValues>
            -1.1618277430534363e-01 5.3600025177001953e-01</leafValues></_>
        <_>
          <internalNodes>
            0 -1 139 9.4470093026757240e-03</internalNodes>
          <leafValues>
            -3.1181299686431885e-01 2.2755412757396698e-01</leafValues></_>
        <_>
          <internalNodes>
            0 -1 147 9.4037167727947235e-03</internalNodes>
          <leafValues>
            -1.9126640260219574e-01 3.7864947319030762e-01</leafValues></_>
        <_>
          <internalNodes>
            0 -1 166 1.7572722863405943e-03</internalNodes>
          <leafValues>
            -1.8077266216278076e-01 3.2512155175209045e-01</leafValues></_>
        <_>
          <internalNodes>
            0 -1 0 9.3352003023028374e-03</internalNodes>
          <leafValues>
            -1.5308095514774323e-01 3.7480852007865906e-01</leafValues></_>
        <_>
          <internalNodes>
            0 -1 67 -3.2084852457046509e-02</internalNodes>
          <leafValues>
            -4.0454772114753723e-01 1.5760521590709686e-01</leafValues></_>
        <_>
          <internalNodes>
            0 -1 191 -7.9551953822374344e-03</internalNodes>
          <leafValues>
            2.3672552406787872e-01 -2.5018939375877380e-01</leafValues></_>
        <_>
          <internalNodes>
            0 -1 165 5.6516714394092560e-03</internalNodes>
          <leafValues>
            -1.6904886066913605e-01 3.5869118571281433e-01</leafValues></_></weakClassifiers></_>
    <!-- stage 4 -->
    <_>
      <maxWeakCount>27</maxWeakCount>
      <stageThreshold>-1.1622455120086670e+00</stageThreshold>
      <weakClassifiers>
        <_>
          <internalNodes>
            0 -1 4 9.1053456068038940e-02</internalNodes>
          <leafValues>
            -2.1827411651611328e-01 6.2466490268707275e-01</leafValues></_>
        <_>
          <internalNodes>
            0 -1 87 2.1990876644849777e-02</internalNodes>
          <leafValues>
            -2.1597784757614136e-01 5.0025290250778198e-01</leafValues></_>
        <_>
          <internalNodes>
            0 -1 184 3.0451297760009766e-02</internalNodes>
          <leafValues>
            -3.5401111841201782e-01 2.9625040292739868e-01</leafValues></_>
        <_>
          <internalNodes>
            0 -1 157 -1.7172846943140030e-02</internalNodes>
          <leafValues>
            3.3159413933753967e-01 -2.7750203013420105e-01</leafValues></_>
        <_>
          <internalNodes>
            0 -1 35 -9.6890106797218323e-03</internalNodes>
          <leafValues>
            4.0923187136650085e-01 -2.2678673267364502e-01</leafValues></_>
        <_>
          <internalNodes>
            0 -1 22 5.2961707115173340e-03</internalNodes>
          <leafValues>
            -4.2732879519462585e-01 1.8770571053028107e-01</leafValues></_>
        <_>
          <internalNodes>
            0 -1 71 -7.0495326071977615e-03</internalNodes>
          <leafValues>
            1.3660575449466705e-01 -4.1467976570129395e-01</leafValues></_>
        <_>
          <internalNodes>
            0 -1 118 5.7908548042178154e-03</internalNodes>
          <leafValues>
            -1.5979257225990295e-01 4.2571136355400085e-01</leafValues></_>
        <_>
          <internalNodes>
            0 -1 119 1.0154038667678833e-02</internalNodes>
          <leafValues>
            -8.8836304843425751e-02 6.0410350561141968e-01</leafValues></_>
        <_>
          <internalNodes>
            0 -1 239 -7.3220240883529186e-03</internalNodes>
          <leafValues>
            5.4242444038391113e-01 -1.0170528292655945e-01</leafValues></_>
        <_>
          <internalNodes>
            0 -1 231 6.8487808108329773e-02</internalNodes>
          <leafValues>
            -9.8827339708805084e-02 5.2885639667510986e-01</leafValues></_>
        <_>
          <internalNodes>
            0 -1 111 -1.6372362151741982e-02</internalNodes>
          <leafValues>
            1.3482274115085602e-01 -4.6292915940284729e-01</leafValues></_>
        <_>
          <internalNodes>
            0 -1 124 -8.5872681811451912e-03</internalNodes>
          <leafValues>
            2.3210166394710541e-01 -2.7743640542030334e-01</leafValues></_>
        <_>
          <internalNodes>
            0 -1 19 -4.9816295504570007e-02</internalNodes>
          <leafValues>
            -5.1487493515014648e-01 9.4073370099067688e-02</leafValues></_>
        <_>
          <internalNodes>
            0 -1 18 4.4424355030059814e-02</internalNodes>
          <leafValues>
            -9.3907549977302551e-02 5.4363119602203369e-01</leafValues></_>
        <_>
          <internalNodes>
            0 -1 102 3.1832203269004822e-02</internalNodes>
          <leafValues>
            8.9107699692249298e-02 -6.3054883480072021e-01</leafValues></_>
        <_>
          <internalNodes>
            0 -1 142 5.2584870718419552e-03</internalNodes>
          <leafValues>
            -1.7650103569030762e-01 3.0555346608161926e-01</leafValues></_>
        <_>
          <internalNodes>
            0 -1 121 -9.5210913568735123e-03</internalNodes>
          <leafValues>
            1.5536169707775116e-01 -2.9815968871116638e-01</leafValues></_>
        <_>
          <internalNodes>
            0 -1 213 1.2312389444559813e-03</internalNodes>
          <leafValues>
            -1.3058739900588989e-01 3.6811971664428711e-01</leafValues></_>
        <_>
          <internalNodes>
            0 -1 172 -5.5738754570484161e-02</internalNodes>
          <leafValues>
            -7.3626351356506348e-01 6.6621631383895874e-02</leafValues></_>
        <_>
          <internalNodes>
            0 -1 217 2.0287586376070976e-03</internalNodes>
          <leafValues>
            -1.8200388550758362e-01 2.7039787173271179e-01</leafValues></_>
        <_>
          <internalNodes>
            0 -1 70 -3.9226613938808441e-02</internalNodes>
          <leafValues>
            -5.9970903396606445e-01 7.9192258417606354e-02</leafValues></_>
        <_>
          <internalNodes>
            0 -1 25 -3.7803031504154205e-02</internalNodes>
          <leafValues>
            5.4727470874786377e-01 -8.9854761958122253e-02</leafValues></_>
        <_>
          <internalNodes>
            0 -1 108 -1.0145955719053745e-02</internalNodes>
          <leafValues>
            5.1060265302658081e-01 -7.4956640601158142e-02</leafValues></_>
        <_>
          <internalNodes>
            0 -1 75 -1.9507888704538345e-02</internalNodes>
          <leafValues>
            1.1910554021596909e-01 -3.8810291886329651e-01</leafValues></_>
        <_>
          <internalNodes>
            0 -1 60 4.1366079822182655e-03</internalNodes>
          <leafValues>
            -2.7349129319190979e-01 1.7896798253059387e-01</leafValues></_>
        <_>
          <internalNodes>
            0 -1 237 5.0258368719369173e-04</internalNodes>
          <leafValues>
            -2.0197838544845581e-01 2.2766774892807007e-01</leafValues></_></weakClassifiers></_>
    <!-- stage 5 -->
    <_>
      <maxWeakCount>34</maxWeakCount>
      <stageThreshold>-1.0446118116378784e+00</stageThreshold>
      <weakClassifiers>
        <_>
          <internalNodes>
            0 -1 5 9.0091459453105927e-02</internalNodes>
          <leafValues>
            -1.6160388290882111e-01 5.3428709506988525e-01</leafValues></_>
        <_>
          <internalNodes>
            0 -1 183 2.9943400993943214e-02</internalNodes>
          <leafValues>
            -3.3513540029525757e-01 3.7974885106086731e-01</leafValues></_>
        <_>
          <internalNodes>
            0 -1 137 1.5810061246156693e-02</internalNodes>
          <leafValues>
            -1.8097066879272461e-01 4.5078521966934204e-01</leafValues></_>
        <_>
          <internalNodes>
            0 -1 89 4.7138500958681107e-03</internalNodes>
          <leafValues>
            -1.6786420345306396e-01 4.0619093179702759e-01</leafValues></_>
        <_>
          <internalNodes>
            0 -1 66 -3.0852135270833969e-02</internalNodes>
          <leafValues>
            2.0178034901618958e-01 -3.2828924059867859e-01</leafValues></_>
        <_>
          <internalNodes>
            0 -1 146 -1.1426023207604885e-02</internalNodes>
          <leafValues>
            2.7891308069229126e-01 -2.2405363619327545e-01</leafValues></_>
        <_>
          <internalNodes>
            0 -1 104 -4.7045320272445679e-02</internalNodes>
          <leafValues>
            1.4737090468406677e-01 -3.8602522015571594e-01</leafValues></_>
        <_>
          <internalNodes>
            0 -1 91 7.5364648364484310e-03</internalNodes>
          <leafValues>
            -1.2944357097148895e-01 4.8581117391586304e-01</leafValues></_>
        <_>
          <internalNodes>
            0 -1 220 8.9913662523031235e-03</internalNodes>
          <leafValues>
            -1.7049494385719299e-01 3.7596803903579712e-01</leafValues></_>
        <_>
          <internalNodes>
            0 -1 41 -7.0836679078638554e-03</internalNodes>
          <leafValues>
            6.3943749666213989e-01 -8.9140288531780243e-02</leafValues></_>
        <_>
          <internalNodes>
            0 -1 221 -8.4497369825839996e-03</internalNodes>
          <leafValues>
            2.1010847389698029e-01 -2.4682261049747467e-01</leafValues></_>
        <_>
          <internalNodes>
            0 -1 3 1.6354586929082870e-02</internalNodes>
          <leafValues>
            -1.9930832087993622e-01 2.4009875953197479e-01</leafValues></_>
        <_>
          <internalNodes>
            0 -1 120 1.4907946810126305e-02</internalNodes>
          <leafValues>
            -1.0951641947031021e-01 4.4430875778198242e-01</leafValues></_>
        <_>
          <internalNodes>
            0 -1 125 -1.5629898756742477e-02</internalNodes>
          <leafValues>
            -5.3905808925628662e-01 8.5985489189624786e-02</leafValues></_>
        <_>
          <internalNodes>
            0 -1 203 1.3899134937673807e-03</internalNodes>
          <leafValues>
            -1.3181772828102112e-01 3.7236881256103516e-01</leafValues></_>
        <_>
          <internalNodes>
            0 -1 58 1.0889770463109016e-02</internalNodes>
          <leafValues>
            -9.4286911189556122e-02 4.4636213779449463e-01</leafValues></_>
        <_>
          <internalNodes>
            0 -1 190 2.6708808727562428e-03</internalNodes>
          <leafValues>
            -8.5979618132114410e-02 4.8034676909446716e-01</leafValues></_>
        <_>
          <internalNodes>
            0 -1 12 2.5164196267724037e-03</internalNodes>
          <leafValues>
            -3.2121574878692627e-01 1.3226950168609619e-01</leafValues></_>
        <_>
          <internalNodes>
            0 -1 230 -3.0764266848564148e-02</internalNodes>
          <leafValues>
            4.6306005120277405e-01 -9.9447868764400482e-02</leafValues></_>
        <_>
          <internalNodes>
            0 -1 21 -2.0417770370841026e-02</internalNodes>
          <leafValues>
            3.1866663694381714e-01 -1.1618053913116455e-01</leafValues></_>
        <_>
          <internalNodes>
            0 -1 20 2.1004412323236465e-02</internalNodes>
          <leafValues>
            -4.0070036053657532e-01 1.0102520138025284e-01</leafValues></_>
        <_>
          <internalNodes>
            0 -1 126 -1.0864379256963730e-01</internalNodes>
          <leafValues>
            -6.1331623792648315e-01 6.6872246563434601e-02</leafValues></_>
        <_>
          <internalNodes>
            0 -1 72 -1.0507211089134216e-01</internalNodes>
          <leafValues>
            -5.3306150436401367e-01 7.2687841951847076e-02</leafValues></_>
        <_>
          <internalNodes>
            0 -1 241 1.6952164471149445e-02</internalNodes>
          <leafValues>
            -1.2670363485813141e-01 3.5904523730278015e-01</leafValues></_>
        <_>
          <internalNodes>
            0 -1 53 -3.1395265832543373e-03</internalNodes>
          <leafValues>
            3.4057718515396118e-01 -1.2226690351963043e-01</leafValues></_>
        <_>
          <internalNodes>
            0 -1 136 8.7670003995299339e-03</internalNodes>
          <leafValues>
            -1.3554349541664124e-01 2.7150130271911621e-01</leafValues></_>
        <_>
          <internalNodes>
            0 -1 55 -3.8092277944087982e-02</internalNodes>
          <leafValues>
            2.1152646839618683e-01 -2.2187142074108124e-01</leafValues></_>
        <_>
          <internalNodes>
            0 -1 117 -2.8751585632562637e-02</internalNodes>
          <leafValues>
            -5.4986602067947388e-01 7.0258505642414093e-02</leafValues></_>
        <_>
          <internalNodes>
            0 -1 240 1.5647450461983681e-02</internalNodes>
          <leafValues>
            -8.0525189638137817e-02 5.2273178100585938e-01</leafValues></_>
        <_>
          <internalNodes>
            0 -1 224 1.9026670604944229e-02</internalNodes>
          <leafValues>
            -1.6968485713005066e-01 2.3814843595027924e-01</leafValues></_>
        <_>
          <internalNodes>
            0 -1 122 -6.3835328910499811e-04</internalNodes>
          <leafValues>
            1.2079866230487823e-01 -3.8691243529319763e-01</leafValues></_>
        <_>
          <internalNodes>
            0 -1 10 -1.0731874033808708e-02</internalNodes>
          <leafValues>
            4.6263027191162109e-01 -9.4866961240768433e-02</leafValues></_>
        <_>
          <internalNodes>
            0 -1 16 2.4699997156858444e-02</internalNodes>
          <leafValues>
            -3.1955885887145996e-01 1.1781997233629227e-01</leafValues></_>
        <_>
          <internalNodes>
            0 -1 49 -2.2957031615078449e-03</internalNodes>
          <leafValues>
            3.4081578254699707e-01 -1.3772867619991302e-01</leafValues></_></weakClassifiers></_>
    <!-- stage 6 -->
    <_>
      <maxWeakCount>31</maxWeakCount>
      <stageThreshold>-9.3060147762298584e-01</stageThreshold>
      <weakClassifiers>
        <_>
          <internalNodes>
            0 -1 200 7.4993488378822803e-03</internalNodes>
          <leafValues>
            -3.2217574119567871e-01 4.6543002128601074e-01</leafValues></_>
        <_>
          <internalNodes>
            0 -1 133 2.2919379174709320e-02</internalNodes>
          <leafValues>
            -1.2439763545989990e-01 6.8460148572921753e-01</leafValues></_>
        <_>
          <internalNodes>
            0 -1 24 3.2505795359611511e-02</internalNodes>
          <leafValues>
            -1.9967599213123322e-01 4.0386256575584412e-01</leafValues></_>
        <_>
          <internalNodes>
            0 -1 202 -1.7776875756680965e-03</internalNodes>
          <leafValues>
            4.9733906984329224e-01 -1.7520357668399811e-01</leafValues></_>
        <_>
          <internalNodes>
            0 -1 80 -1.5131050720810890e-02</internalNodes>
          <leafValues>
            1.3332858681678772e-01 -4.7174194455146790e-01</leafValues></_>
        <_>
          <internalNodes>
            0 -1 73 1.6603449359536171e-02</internalNodes>
          <leafValues>
            -1.2257399410009384e-01 5.2405589818954468e-01</leafValues></_>
        <_>
          <internalNodes>
            0 -1 89 3.2011605799198151e-03</internalNodes>
          <leafValues>
            -2.1721543371677399e-01 3.2284861803054810e-01</leafValues></_>
        <_>
          <internalNodes>
            0 -1 192 -6.8022804334759712e-03</internalNodes>
          <leafValues>
            3.3780038356781006e-01 -1.6589376330375671e-01</leafValues></_>
        <_>
          <internalNodes>
            0 -1 63 -8.0461828038096428e-03</internalNodes>
          <leafValues>
            2.0433066785335541e-01 -2.7395963668823242e-01</leafValues></_>
        <_>
          <internalNodes>
            0 -1 155 4.4277943670749664e-03</internalNodes>
          <leafValues>
            -4.5342457294464111e-01 1.0105831176042557e-01</leafValues></_>
        <_>
          <internalNodes>
            0 -1 54 5.0522387027740479e-03</internalNodes>
          <leafValues>
            -9.7205586731433868e-02 5.3070461750030518e-01</leafValues></_>
        <_>
          <internalNodes>
            0 -1 109 1.3130367733538151e-02</internalNodes>
          <leafValues>
            -8.7771259248256683e-02 5.5026739835739136e-01</leafValues></_>
        <_>
          <internalNodes>
            0 -1 96 -4.2405590415000916e-02</internalNodes>
          <leafValues>
            -6.7166513204574585e-01 8.1460498273372650e-02</leafValues></_>
        <_>
          <internalNodes>
            0 -1 47 -1.5017952769994736e-02</internalNodes>
          <leafValues>
            -4.1939672827720642e-01 1.0489436984062195e-01</leafValues></_>
        <_>
          <internalNodes>
            0 -1 153 -2.5773323141038418e-03</internalNodes>
          <leafValues>
            3.5885009169578552e-01 -1.3005137443542480e-01</leafValues></_>
        <_>
          <internalNodes>
            0 -1 45 1.5285680070519447e-02</internalNodes>
          <leafValues>
            -1.2443628907203674e-01 3.6025214195251465e-01</leafValues></_>
        <_>
          <internalNodes>
            0 -1 152 6.0441624373197556e-04</internalNodes>
          <leafValues>
            -1.7741021513938904e-01 2.6617681980133057e-01</leafValues></_>
        <_>
          <internalNodes>
            0 -1 9 4.7616392374038696e-02</internalNodes>
          <leafValues>
            -3.9012435078620911e-01 1.2213350087404251e-01</leafValues></_>
        <_>
          <internalNodes>
            0 -1 85 -6.5368358045816422e-03</internalNodes>
          <leafValues>
            5.5715656280517578e-01 -8.8553048670291901e-02</leafValues></_>
        <_>
          <internalNodes>
            0 -1 209 2.3189164698123932e-02</internalNodes>
          <leafValues>
            -7.9053692519664764e-02 5.0853008031845093e-01</leafValues></_>
        <_>
          <internalNodes>
            0 -1 140 1.5372559428215027e-02</internalNodes>
          <leafValues>
            -3.3539831638336182e-01 1.4173622429370880e-01</leafValues></_>
        <_>
          <internalNodes>
            0 -1 13 -3.5544645506888628e-03</internalNodes>
          <leafValues>
            2.9906260967254639e-01 -1.4454582333564758e-01</leafValues></_>
        <_>
          <internalNodes>
            0 -1 204 -5.9719055891036987e-02</internalNodes>
          <leafValues>
            -6.3038170337677002e-01 7.6164878904819489e-02</leafValues></_>
        <_>
          <internalNodes>
            0 -1 159 1.6689166426658630e-02</internalNodes>
          <leafValues>
            7.5609721243381500e-02 -5.2051609754562378e-01</leafValues></_>
        <_>
          <internalNodes>
            0 -1 216 8.9926077052950859e-03</internalNodes>
          <leafValues>
            -1.2868332862854004e-01 3.7722399830818176e-01</leafValues></_>
        <_>
          <internalNodes>
            0 -1 98 -2.2955572232604027e-02</internalNodes>
          <leafValues>
            -5.1213252544403076e-01 7.7669136226177216e-02</leafValues></_>
        <_>
          <internalNodes>
            0 -1 144 -7.5205555185675621e-03</internalNodes>
          <leafValues>
            5.2441990375518799e-01 -7.8133285045623779e-02</leafValues></_>
        <_>
          <internalNodes>
            0 -1 148 -2.8186631388962269e-03</internalNodes>
          <leafValues>
            3.1096047163009644e-01 -1.1206697672605515e-01</leafValues></_>
        <_>
          <internalNodes>
            0 -1 88 8.6164480308070779e-05</internalNodes>
          <leafValues>
            1.6053773462772369e-01 -2.3919922113418579e-01</leafValues></_>
        <_>
          <internalNodes>
            0 -1 199 -8.5844434797763824e-03</internalNodes>
          <leafValues>
            4.1506183147430420e-01 -9.8683118820190430e-02</leafValues></_>
        <_>
          <internalNodes>
            0 -1 171 1.0722037404775620e-02</internalNodes>
          <leafValues>
            -6.8247646093368530e-02 5.1746004819869995e-01</leafValues></_></weakClassifiers></_>
    <!-- stage 7 -->
    <_>
      <maxWeakCount>40</maxWeakCount>
      <stageThreshold>-8.8568520545959473e-01</stageThreshold>
      <weakClassifiers>
        <_>
          <internalNodes>
            0 -1 4 1.2796710431575775e-01</internalNodes>
          <leafValues>
            -4.7923321835696697e-03 5.9824782609939575e-01</leafValues></_>
        <_>
          <internalNodes>
            0 -1 113 1.1351862922310829e-02</internalNodes>
          <leafValues>
            -1.7720608413219452e-01 4.1379952430725098e-01</leafValues></_>
        <_>
          <internalNodes>
            0 -1 143 3.4937538206577301e-02</internalNodes>
          <leafValues>
            -3.1906297802925110e-01 2.4746988713741302e-01</leafValues></_>
        <_>
          <internalNodes>
            0 -1 33 -1.2096746824681759e-02</internalNodes>
          <leafValues>
            3.8951495289802551e-01 -1.6497531533241272e-01</leafValues></_>
        <_>
          <internalNodes>
            0 -1 167 -5.2891490049660206e-03</internalNodes>
          <leafValues>
            3.8143891096115112e-01 -1.7366293072700500e-01</leafValues></_>
        <_>
          <internalNodes>
            0 -1 105 5.5311094038188457e-03</internalNodes>
          <leafValues>
            -1.8672822415828705e-01 3.6093759536743164e-01</leafValues></_>
        <_>
          <internalNodes>
            0 -1 189 6.6220648586750031e-03</internalNodes>
          <leafValues>
            1.2290637940168381e-01 -4.5074641704559326e-01</leafValues></_>
        <_>
          <internalNodes>
            0 -1 211 -9.0874256566166878e-03</internalNodes>
          <leafValues>
            4.1194388270378113e-01 -1.1370929330587387e-01</leafValues></_>
        <_>
          <internalNodes>
            0 -1 64 9.5241516828536987e-03</internalNodes>
          <leafValues>
            -3.6319339275360107e-01 1.2788656353950500e-01</leafValues></_>
        <_>
          <internalNodes>
            0 -1 178 7.3728328570723534e-03</internalNodes>
          <leafValues>
            8.0244205892086029e-02 -4.8857009410858154e-01</leafValues></_>
        <_>
          <internalNodes>
            0 -1 101 -2.3178176954388618e-02</internalNodes>
          <leafValues>
            5.8632081747055054e-01 -7.8624121844768524e-02</leafValues></_>
        <_>
          <internalNodes>
            0 -1 245 5.3549725562334061e-03</internalNodes>
          <leafValues>
            -9.2751398682594299e-02 3.7160876393318176e-01</leafValues></_>
        <_>
          <internalNodes>
            0 -1 68 -1.9634736701846123e-02</internalNodes>
          <leafValues>
            1.3819698989391327e-01 -2.9253050684928894e-01</leafValues></_>
        <_>
          <internalNodes>
            0 -1 214 -7.3747290298342705e-03</internalNodes>
          <leafValues>
            2.3026329278945923e-01 -1.8387065827846527e-01</leafValues></_>
        <_>
          <internalNodes>
            0 -1 61 1.0748265311121941e-02</internalNodes>
          <leafValues>
            -1.1545288562774658e-01 4.0339356660842896e-01</leafValues></_>
        <_>
          <internalNodes>
            0 -1 116 2.5085426867008209e-02</internalNodes>
          <leafValues>
            -7.7396444976329803e-02 4.9392449855804443e-01</leafValues></_>
        <_>
          <internalNodes>
            0 -1 115 5.2955904975533485e-03</internalNodes>
          <leafValues>
            -9.8224557936191559e-02 3.8939663767814636e-01</leafValues></_>
        <_>
          <internalNodes>
            0 -1 169 -4.4410478323698044e-02</internalNodes>
          <leafValues>
            3.5272258520126343e-01 -1.0804274678230286e-01</leafValues></_>
        <_>
          <internalNodes>
            0 -1 238 -5.9920819476246834e-03</internalNodes>
          <leafValues>
            3.3168768882751465e-01 -1.2674248218536377e-01</leafValues></_>
        <_>
          <internalNodes>
            0 -1 206 6.5000690519809723e-03</internalNodes>
          <leafValues>
            -2.7544501423835754e-01 1.3986180722713470e-01</leafValues></_>
        <_>
          <internalNodes>
            0 -1 164 -6.1719338409602642e-03</internalNodes>
          <leafValues>
            5.5605292320251465e-01 -5.9252969920635223e-02</leafValues></_>
        <_>
          <internalNodes>
            0 -1 179 2.7438059449195862e-02</internalNodes>
          <leafValues>
            -4.5450113713741302e-02 6.4105778932571411e-01</leafValues></_>
        <_>
          <internalNodes>
            0 -1 175 -6.6297855228185654e-03</internalNodes>
          <leafValues>
            3.2330143451690674e-01 -1.1179918795824051e-01</leafValues></_>
        <_>
          <internalNodes>
            0 -1 174 4.4456077739596367e-03</internalNodes>
          <leafValues>
            -1.0816612839698792e-01 3.8991490006446838e-01</leafValues></_>
        <_>
          <internalNodes>
            0 -1 29 9.5167402178049088e-03</internalNodes>
          <leafValues>
            -2.8726458549499512e-01 1.3541580736637115e-01</leafValues></_>
        <_>
          <internalNodes>
            0 -1 138 -1.8747966736555099e-02</internalNodes>
          <leafValues>
            4.4373548030853271e-01 -7.7566139400005341e-02</leafValues></_>
        <_>
          <internalNodes>
            0 -1 52 -5.9417147189378738e-02</internalNodes>
          <leafValues>
            -6.8057161569595337e-01 5.2627049386501312e-02</leafValues></_>
        <_>
          <internalNodes>
            0 -1 106 2.0804602652788162e-02</internalNodes>
          <leafValues>
            8.8173843920230865e-02 -4.2129456996917725e-01</leafValues></_>
        <_>
          <internalNodes>
            0 -1 134 1.2187887914478779e-02</internalNodes>
          <leafValues>
            -8.8238596916198730e-02 4.1451030969619751e-01</leafValues></_>
        <_>
          <internalNodes>
            0 -1 2 -3.6402638070285320e-03</internalNodes>
          <leafValues>
            -2.6687994599342346e-01 1.2128344923257828e-01</leafValues></_>
        <_>
          <internalNodes>
            0 -1 154 4.5711621642112732e-02</internalNodes>
          <leafValues>
            4.9052916467189789e-02 -6.0907500982284546e-01</leafValues></_>
        <_>
          <internalNodes>
            0 -1 208 2.5978062301874161e-02</internalNodes>
          <leafValues>
            3.6765307188034058e-02 -7.5099813938140869e-01</leafValues></_>
        <_>
          <internalNodes>
            0 -1 186 -1.0773030808195472e-03</internalNodes>
          <leafValues>
            2.5685220956802368e-01 -1.2805412709712982e-01</leafValues></_>
        <_>
          <internalNodes>
            0 -1 99 3.7196964025497437e-02</internalNodes>
          <leafValues>
            4.7864720225334167e-02 -7.2707670927047729e-01</leafValues></_>
        <_>
          <internalNodes>
            0 -1 180 5.0397189334034920e-03</internalNodes>
          <leafValues>
            8.4529273211956024e-02 -3.4660577774047852e-01</leafValues></_>
        <_>
          <internalNodes>
            0 -1 86 1.8374100327491760e-02</internalNodes>
          <leafValues>
            -1.0704474896192551e-01 2.8256151080131531e-01</leafValues></_>
        <_>
          <internalNodes>
            0 -1 44 5.3350115194916725e-03</internalNodes>
          <leafValues>
            -1.3602559268474579e-01 3.1045797467231750e-01</leafValues></_>
        <_>
          <internalNodes>
            0 -1 74 -3.8673982024192810e-02</internalNodes>
          <leafValues>
            -6.1961662769317627e-01 5.0417419523000717e-02</leafValues></_>
        <_>
          <internalNodes>
            0 -1 76 5.5843712761998177e-03</internalNodes>
          <leafValues>
            -7.7807292342185974e-02 4.0810531377792358e-01</leafValues></_>
        <_>
          <internalNodes>
            0 -1 215 1.4506320003420115e-03</internalNodes>
          <leafValues>
            -2.1652746200561523e-01 1.5195706486701965e-01</leafValues></_></weakClassifiers></_>
    <!-- stage 8 -->
    <_>
      <maxWeakCount>38</maxWeakCount>
      <stageThreshold>-8.6012214422225952e-01</stageThreshold>
      <weakClassifiers>
        <_>
          <internalNodes>
            0 -1 8 2.6742987334728241e-02</internalNodes>
          <leafValues>
            -5.1010586321353912e-02 5.5383765697479248e-01</leafValues></_>
        <_>
          <internalNodes>
            0 -1 107 1.1481442488729954e-02</internalNodes>
          <leafValues>
            -9.3398414552211761e-02 6.1761403083801270e-01</leafValues></_>
        <_>
          <internalNodes>
            0 -1 57 3.5157896578311920e-02</internalNodes>
          <leafValues>
            -4.3550390005111694e-01 1.4880254864692688e-01</leafValues></_>
        <_>
          <internalNodes>
            0 -1 188 1.3605242129415274e-03</internalNodes>
          <leafValues>
            -3.3349603414535522e-01 1.6586636006832123e-01</leafValues></_>
        <_>
          <internalNodes>
            0 -1 62 -1.4227263629436493e-02</internalNodes>
          <leafValues>
            2.7424070239067078e-01 -1.8959915637969971e-01</leafValues></_>
        <_>
          <internalNodes>
            0 -1 38 4.8698205500841141e-03</internalNodes>
          <leafValues>
            -1.5813739597797394e-01 3.2805728912353516e-01</leafValues></_>
        <_>
          <internalNodes>
            0 -1 103 -6.2880747020244598e-02</internalNodes>
          <leafValues>
            1.9317765533924103e-01 -2.6539546251296997e-01</leafValues></_>
        <_>
          <internalNodes>
            0 -1 28 5.1952311769127846e-03</internalNodes>
          <leafValues>
            -3.6774662137031555e-01 1.2277515977621078e-01</leafValues></_>
        <_>
          <internalNodes>
            0 -1 93 1.7817020416259766e-02</internalNodes>
          <leafValues>
            -1.1951767653226852e-01 4.2450013756752014e-01</leafValues></_>
        <_>
          <internalNodes>
            0 -1 145 1.0630007833242416e-02</internalNodes>
          <leafValues>
            -9.9850483238697052e-02 4.9351510405540466e-01</leafValues></_>
        <_>
          <internalNodes>
            0 -1 205 -6.9301202893257141e-04</internalNodes>
          <leafValues>
            -3.5813644528388977e-01 1.3342820107936859e-01</leafValues></_>
        <_>
          <internalNodes>
            0 -1 26 -1.0951013304293156e-02</internalNodes>
          <leafValues>
            4.7017842531204224e-01 -8.4797985851764679e-02</leafValues></_>
        <_>
          <internalNodes>
            0 -1 160 1.8201306462287903e-02</internalNodes>
          <leafValues>
            -1.2356188148260117e-01 3.0423885583877563e-01</leafValues></_>
        <_>
          <internalNodes>
            0 -1 23 5.7388627901673317e-03</internalNodes>
          <leafValues>
            -1.2796606123447418e-01 2.8955367207527161e-01</leafValues></_>
        <_>
          <internalNodes>
            0 -1 240 -2.1152507513761520e-02</internalNodes>
          <leafValues>
            4.9275738000869751e-01 -7.3981359601020813e-02</leafValues></_>
        <_>
          <internalNodes>
            0 -1 187 2.6779356412589550e-03</internalNodes>
          <leafValues>
            -9.0930409729480743e-02 3.8372039794921875e-01</leafValues></_>
        <_>
          <internalNodes>
            0 -1 196 2.4145588278770447e-02</internalNodes>
          <leafValues>
            6.9319814443588257e-02 -5.2158510684967041e-01</leafValues></_>
        <_>
          <internalNodes>
            0 -1 128 -1.2156639248132706e-02</internalNodes>
          <leafValues>
            -3.7734344601631165e-01 9.5715090632438660e-02</leafValues></_>
        <_>
          <internalNodes>
            0 -1 129 -5.8003567159175873e-02</internalNodes>
          <leafValues>
            -7.2419786453247070e-01 5.4776877164840698e-02</leafValues></_>
        <_>
          <internalNodes>
            0 -1 92 2.1686797961592674e-02</internalNodes>
          <leafValues>
            -6.7203164100646973e-02 6.1859023571014404e-01</leafValues></_>
        <_>
          <internalNodes>
            0 -1 233 2.4921433068811893e-03</internalNodes>
          <leafValues>
            -1.1815395206212997e-01 2.9364019632339478e-01</leafValues></_>
        <_>
          <internalNodes>
            0 -1 11 2.7887062169611454e-03</internalNodes>
          <leafValues>
            -2.4980248510837555e-01 1.3834896683692932e-01</leafValues></_>
        <_>
          <internalNodes>
            0 -1 97 -8.4014032036066055e-03</internalNodes>
          <leafValues>
            -6.0465496778488159e-01 5.6055802851915359e-02</leafValues></_>
        <_>
          <internalNodes>
            0 -1 202 1.4906307915225625e-03</internalNodes>
          <leafValues>
            -1.0931184887886047e-01 3.1965199112892151e-01</leafValues></_>
        <_>
          <internalNodes>
            0 -1 235 3.1963846413418651e-04</internalNodes>
          <leafValues>
            1.5369145572185516e-01 -2.3835054039955139e-01</leafValues></_>
        <_>
          <internalNodes>
            0 -1 84 3.6024302244186401e-02</internalNodes>
          <leafValues>
            -8.1997483968734741e-02 4.2799842357635498e-01</leafValues></_>
        <_>
          <internalNodes>
            0 -1 34 -2.5785166770219803e-02</internalNodes>
          <leafValues>
            2.7637618780136108e-01 -1.4395615458488464e-01</leafValues></_>
        <_>
          <internalNodes>
            0 -1 149 2.0542692393064499e-02</internalNodes>
          <leafValues>
            5.7971023023128510e-02 -6.5066432952880859e-01</leafValues></_>
        <_>
          <internalNodes>
            0 -1 168 2.9031507670879364e-02</internalNodes>
          <leafValues>
            5.0185777246952057e-02 -5.9317743778228760e-01</leafValues></_>
        <_>
          <internalNodes>
            0 -1 223 -7.8899729996919632e-03</internalNodes>
          <leafValues>
            -5.8467459678649902e-01 5.3089972585439682e-02</leafValues></_>
        <_>
          <internalNodes>
            0 -1 227 -2.8446532785892487e-02</internalNodes>
          <leafValues>
            3.2400244474411011e-01 -1.1095660179853439e-01</leafValues></_>
        <_>
          <internalNodes>
            0 -1 193 1.0572571307420731e-02</internalNodes>
          <leafValues>
            9.9558055400848389e-02 -3.2615801692008972e-01</leafValues></_>
        <_>
          <internalNodes>
            0 -1 181 5.5478058755397797e-02</internalNodes>
          <leafValues>
            -1.2228133529424667e-01 2.6467460393905640e-01</leafValues></_>
        <_>
          <internalNodes>
            0 -1 150 -1.6074975952506065e-02</internalNodes>
          <leafValues>
            2.4854782223701477e-01 -1.3898330926895142e-01</leafValues></_>
        <_>
          <internalNodes>
            0 -1 88 1.6373174730688334e-04</internalNodes>
          <leafValues>
            1.3433502614498138e-01 -2.3952101171016693e-01</leafValues></_>
        <_>
          <internalNodes>
            0 -1 197 1.2058211490511894e-02</internalNodes>
          <leafValues>
            -7.5836203992366791e-02 4.3664431571960449e-01</leafValues></_>
        <_>
          <internalNodes>
            0 -1 40 -3.2148151658475399e-03</internalNodes>
          <leafValues>
            3.5060092806816101e-01 -9.6917286515235901e-02</leafValues></_>
        <_>
          <internalNodes>
            0 -1 177 1.4451350085437298e-02</internalNodes>
          <leafValues>
            4.3352231383323669e-02 -8.4782648086547852e-01</leafValues></_></weakClassifiers></_>
    <!-- stage 9 -->
    <_>
      <maxWeakCount>44</maxWeakCount>
      <stageThreshold>-8.6605966091156006e-01</stageThreshold>
      <weakClassifiers>
        <_>
          <internalNodes>
            0 -1 42 7.6658213511109352e-03</internalNodes>
          <leafValues>
            1.5132606029510498e-01 7.1089535951614380e-01</leafValues></_>
        <_>
          <internalNodes>
            0 -1 48 -1.5325456857681274e-02</internalNodes>
          <leafValues>
            5.1207435131072998e-01 -9.9144339561462402e-02</leafValues></_>
        <_>
          <internalNodes>
            0 -1 46 -5.7817539200186729e-03</internalNodes>
          <leafValues>
            1.3828834891319275e-01 -3.8840314745903015e-01</leafValues></_>
        <_>
          <internalNodes>
            0 -1 156 1.2626606971025467e-02</internalNodes>
          <leafValues>
            -1.3859406113624573e-01 3.6284330487251282e-01</leafValues></_>
        <_>
          <internalNodes>
            0 -1 17 3.2363809645175934e-02</internalNodes>
          <leafValues>
            -4.6907028555870056e-01 1.0457304120063782e-01</leafValues></_>
        <_>
          <internalNodes>
            0 -1 201 -2.8575021773576736e-02</internalNodes>
          <leafValues>
            2.3625485599040985e-01 -2.1980948746204376e-01</leafValues></_>
        <_>
          <internalNodes>
            0 -1 27 8.5039325058460236e-03</internalNodes>
          <leafValues>
            -1.0350704193115234e-01 5.2026611566543579e-01</leafValues></_>
        <_>
          <internalNodes>
            0 -1 89 3.2606157474219799e-03</internalNodes>
          <leafValues>
            -1.4730563759803772e-01 2.9111552238464355e-01</leafValues></_>
        <_>
          <internalNodes>
            0 -1 65 6.2560150399804115e-03</internalNodes>
          <leafValues>
            -3.8406741619110107e-01 1.0401441901922226e-01</leafValues></_>
        <_>
          <internalNodes>
            0 -1 94 1.8275920301675797e-02</internalNodes>
          <leafValues>
            -1.3432659208774567e-01 2.9961147904396057e-01</leafValues></_>
        <_>
          <internalNodes>
            0 -1 36 -4.4367671012878418e-02</internalNodes>
          <leafValues>
            -6.1012464761734009e-01 6.9778650999069214e-02</leafValues></_>
        <_>
          <internalNodes>
            0 -1 53 -2.1389666944742203e-03</internalNodes>
          <leafValues>
            2.6977464556694031e-01 -1.5741239488124847e-01</leafValues></_>
        <_>
          <internalNodes>
            0 -1 229 -5.2825082093477249e-03</internalNodes>
          <leafValues>
            3.1011119484901428e-01 -1.3915486633777618e-01</leafValues></_>
        <_>
          <internalNodes>
            0 -1 195 -3.5111322999000549e-02</internalNodes>
          <leafValues>
            -5.5046576261520386e-01 7.2310380637645721e-02</leafValues></_>
        <_>
          <internalNodes>
            0 -1 226 2.2320901043713093e-03</internalNodes>
          <leafValues>
            -9.9680237472057343e-02 3.7990048527717590e-01</leafValues></_>
        <_>
          <internalNodes>
            0 -1 194 3.6602549254894257e-02</internalNodes>
          <leafValues>
            5.0073303282260895e-02 -6.9795572757720947e-01</leafValues></_>
        <_>
          <internalNodes>
            0 -1 189 -2.9147355817258358e-03</internalNodes>
          <leafValues>
            1.1905862390995026e-01 -2.9446941614151001e-01</leafValues></_>
        <_>
          <internalNodes>
            0 -1 244 2.8076611459255219e-02</internalNodes>
          <leafValues>
            -1.2389905005693436e-01 2.9250746965408325e-01</leafValues></_>
        <_>
          <internalNodes>
            0 -1 31 1.5105448663234711e-02</internalNodes>
          <leafValues>
            -1.3939790427684784e-01 2.4026884138584137e-01</leafValues></_>
        <_>
          <internalNodes>
            0 -1 79 6.2429765239357948e-03</internalNodes>
          <leafValues>
            -1.0705873370170593e-01 3.3194011449813843e-01</leafValues></_>
        <_>
          <internalNodes>
            0 -1 210 1.0699053527787328e-03</internalNodes>
          <leafValues>
            -2.6045244932174683e-01 1.3638202846050262e-01</leafValues></_>
        <_>
          <internalNodes>
            0 -1 232 -2.1699077915400267e-03</internalNodes>
          <leafValues>
            2.3425035178661346e-01 -1.4193296432495117e-01</leafValues></_>
        <_>
          <internalNodes>
            0 -1 141 -7.5316773727536201e-03</internalNodes>
          <leafValues>
            3.8782781362533569e-01 -7.5929686427116394e-02</leafValues></_>
        <_>
          <internalNodes>
            0 -1 228 -1.7706319689750671e-02</internalNodes>
          <leafValues>
            2.5491037964820862e-01 -1.3282637298107147e-01</leafValues></_>
        <_>
          <internalNodes>
            0 -1 225 2.3829098790884018e-03</internalNodes>
          <leafValues>
            -8.1988617777824402e-02 4.0864089131355286e-01</leafValues></_>
        <_>
          <internalNodes>
            0 -1 81 -2.8094315901398659e-02</internalNodes>
          <leafValues>
            1.1341132223606110e-01 -3.1967189908027649e-01</leafValues></_>
        <_>
          <internalNodes>
            0 -1 236 -5.6558698415756226e-02</internalNodes>
          <leafValues>
            4.3007266521453857e-01 -9.1416090726852417e-02</leafValues></_>
        <_>
          <internalNodes>
            0 -1 51 -2.5953394360840321e-03</internalNodes>
          <leafValues>
            2.9560604691505432e-01 -1.1773832887411118e-01</leafValues></_>
        <_>
          <internalNodes>
            0 -1 151 -1.5299418009817600e-02</internalNodes>
          <leafValues>
            -6.4546442031860352e-01 4.8317078500986099e-02</leafValues></_>
        <_>
          <internalNodes>
            0 -1 30 1.9890204071998596e-02</internalNodes>
          <leafValues>
            -1.0325337201356888e-01 3.0187770724296570e-01</leafValues></_>
        <_>
          <internalNodes>
            0 -1 127 -1.3567829504609108e-02</internalNodes>
          <leafValues>
            -7.1726691722869873e-01 4.3512307107448578e-02</leafValues></_>
        <_>
          <internalNodes>
            0 -1 163 -1.5511002857238054e-03</internalNodes>
          <leafValues>
            3.8710680603981018e-01 -7.9411484301090240e-02</leafValues></_>
        <_>
          <internalNodes>
            0 -1 50 -1.8698558211326599e-02</internalNodes>
          <leafValues>
            -4.1592466831207275e-01 7.1940109133720398e-02</leafValues></_>
        <_>
          <internalNodes>
            0 -1 132 1.4912195503711700e-02</internalNodes>
          <leafValues>
            -8.5909269750118256e-02 3.9597579836845398e-01</leafValues></_>
        <_>
          <internalNodes>
            0 -1 114 8.6301825940608978e-03</internalNodes>
          <leafValues>
            -1.1976698040962219e-01 2.5703176856040955e-01</leafValues></_>
        <_>
          <internalNodes>
            0 -1 212 -3.2325182110071182e-03</internalNodes>
          <leafValues>
            4.7147187590599060e-01 -6.7015908658504486e-02</leafValues></_>
        <_>
          <internalNodes>
            0 -1 234 7.4125910177826881e-03</internalNodes>
          <leafValues>
            -5.4173912853002548e-02 5.5135035514831543e-01</leafValues></_>
        <_>
          <internalNodes>
            0 -1 198 -1.3689587358385324e-03</internalNodes>
          <leafValues>
            -4.8803195357322693e-01 7.6281711459159851e-02</leafValues></_>
        <_>
          <internalNodes>
            0 -1 158 8.8408170267939568e-03</internalNodes>
          <leafValues>
            -1.2540119886398315e-01 2.9417723417282104e-01</leafValues></_>
        <_>
          <internalNodes>
            0 -1 77 -2.1963231265544891e-02</internalNodes>
          <leafValues>
            5.4986315965652466e-01 -5.0330609083175659e-02</leafValues></_>
        <_>
          <internalNodes>
            0 -1 112 5.2794753573834896e-03</internalNodes>
          <leafValues>
            -8.4158271551132202e-02 3.9027982950210571e-01</leafValues></_>
        <_>
          <internalNodes>
            0 -1 59 2.3233044892549515e-02</internalNodes>
          <leafValues>
            6.0429409146308899e-02 -5.6307941675186157e-01</leafValues></_>
        <_>
          <internalNodes>
            0 -1 69 7.0065576583147049e-03</internalNodes>
          <leafValues>
            -7.5251944363117218e-02 3.7981468439102173e-01</leafValues></_>
        <_>
          <internalNodes>
            0 -1 170 6.3520469702780247e-03</internalNodes>
          <leafValues>
            5.3291436284780502e-02 -5.6916534900665283e-01</leafValues></_></weakClassifiers></_></stages>
  <features>
    <_>
      <rects>
        <_>
          0 0 2 18 -1.</_>
        <_>
          1 0 1 18 2.</_></rects>
      <tilted>0</tilted></_>
    <_>
      <rects>
        <_>
          0 2 6 12 -1.</_>
        <_>
          0 2 3 6 2.</_>
        <_>
          3 8 3 6 2.</_></rects>
      <tilted>0</tilted></_>
    <_>
      <rects>
        <_>
          0 4 4 14 -1.</_>
        <_>
          2 4 2 14 2.</_></rects>
      <tilted>0</tilted></_>
    <_>
      <rects>
        <_>
          0 4 10 4 -1.</_>
        <_>
          5 4 5 4 2.</_></rects>
      <tilted>0</tilted></_>
    <_>
      <rects>
        <_>
          0 7 12 8 -1.</_>
        <_>
          4 7 4 8 3.</_></rects>
      <tilted>0</tilted></_>
    <_>
      <rects>
        <_>
          0 7 12 12 -1.</_>
        <_>
          4 7 4 12 3.</_></rects>
      <tilted>0</tilted></_>
    <_>
      <rects>
        <_>
          0 8 12 7 -1.</_>
        <_>
          4 8 4 7 3.</_></rects>
      <tilted>0</tilted></_>
    <_>
      <rects>
        <_>
          0 9 8 10 -1.</_>
        <_>
          4 9 4 10 2.</_></rects>
      <tilted>0</tilted></_>
    <_>
      <rects>
        <_>
          0 10 6 7 -1.</_>
        <_>
          3 10 3 7 2.</_></rects>
      <tilted>0</tilted></_>
    <_>
      <rects>
        <_>
          0 10 15 8 -1.</_>
        <_>
          5 10 5 8 3.</_></rects>
      <tilted>0</tilted></_>
    <_>
      <rects>
        <_>
          0 14 10 2 -1.</_>
        <_>
          0 14 5 1 2.</_>
        <_>
          5 15 5 1 2.</_></rects>
      <tilted>0</tilted></_>
    <_>
      <rects>
        <_>
          0 17 15 1 -1.</_>
        <_>
          5 17 5 1 3.</_></rects>
      <tilted>0</tilted></_>
    <_>
      <rects>
        <_>
          0 17 12 1 -1.</_>
        <_>
          6 17 6 1 2.</_></rects>
      <tilted>0</tilted></_>
    <_>
      <rects>
        <_>
          1 6 6 1 -1.</_>
        <_>
          3 6 2 1 3.</_></rects>
      <tilted>0</tilted></_>
    <_>
      <rects>
        <_>
          1 6 12 9 -1.</_>
        <_>
          5 6 4 9 3.</_></rects>
      <tilted>0</tilted></_>
    <_>
      <rects>
        <_>
          1 7 6 8 -1.</_>
        <_>
          4 7 3 8 2.</_></rects>
      <tilted>0</tilted></_>
    <_>
      <rects>
        <_>
          1 7 12 5 -1.</_>
        <_>
          5 7 4 5 3.</_></rects>
      <tilted>0</tilted></_>
    <_>
      <rects>
        <_>
          1 7 12 6 -1.</_>
        <_>
          5 7 4 6 3.</_></rects>
      <tilted>0</tilted></_>
    <_>
      <rects>
        <_>
          1 8 6 7 -1.</_>
        <_>
          3 8 2 7 3.</_></rects>
      <tilted>0</tilted></_>
    <_>
      <rects>
        <_>
          1 9 7 8 -1.</_>
        <_>
          1 13 7 4 2.</_></rects>
      <tilted>0</tilted></_>
    <_>
      <rects>
        <_>
          1 10 12 4 -1.</_>
        <_>
          5 10 4 4 3.</_></rects>
      <tilted>0</tilted></_>
    <_>
      <rects>
        <_>
          1 14 14 1 -1.</_>
        <_>
          8 14 7 1 2.</_></rects>
      <tilted>0</tilted></_>
    <_>
      <rects>
        <_>
          1 17 18 1 -1.</_>
        <_>
          7 17 6 1 3.</_></rects>
      <tilted>0</tilted></_>
    <_>
      <rects>
        <_>
          2 3 8 1 -1.</_>
        <_>
          6 3 4 1 2.</_></rects>
      <tilted>0</tilted></_>
    <_>
      <rects>
        <_>
          2 7 6 7 -1.</_>
        <_>
          4 7 2 7 3.</_></rects>
      <tilted>0</tilted></_>
    <_>
      <rects>
        <_>
          2 7 7 6 -1.</_>
        <_>
          2 9 7 2 3.</_></rects>
      <tilted>0</tilted></_>
    <_>
      <rects>
        <_>
          2 9 4 4 -1.</_>
        <_>
          2 9 2 2 2.</_>
        <_>
          4 11 2 2 2.</_></rects>
      <tilted>0</tilted></_>
    <_>
      <rects>
        <_>
          2 14 6 2 -1.</_>
        <_>
          2 14 3 1 2.</_>
        <_>
          5 15 3 1 2.</_></rects>
      <tilted>0</tilted></_>
    <_>
      <rects>
        <_>
          2 17 18 1 -1.</_>
        <_>
          8 17 6 1 3.</_></rects>
      <tilted>0</tilted></_>
    <_>
      <rects>
        <_>
          2 17 18 2 -1.</_>
        <_>
          8 17 6 2 3.</_></rects>
      <tilted>0</tilted></_>
    <_>
      <rects>
        <_>
          3 2 4 10 -1.</_>
        <_>
          3 2 2 5 2.</_>
        <_>
          5 7 2 5 2.</_></rects>
      <tilted>0</tilted></_>
    <_>
      <rects>
        <_>
          3 2 6 7 -1.</_>
        <_>
          5 2 2 7 3.</_></rects>
      <tilted>0</tilted></_>
    <_>
      <rects>
        <_>
          3 3 10 8 -1.</_>
        <_>
          3 3 5 4 2.</_>
        <_>
          8 7 5 4 2.</_></rects>
      <tilted>0</tilted></_>
    <_>
      <rects>
        <_>
          3 4 4 10 -1.</_>
        <_>
          3 4 2 5 2.</_>
        <_>
          5 9 2 5 2.</_></rects>
      <tilted>0</tilted></_>
    <_>
      <rects>
        <_>
          3 5 12 4 -1.</_>
        <_>
          3 5 6 2 2.</_>
        <_>
          9 7 6 2 2.</_></rects>
      <tilted>0</tilted></_>
    <_>
      <rects>
        <_>
          3 6 6 4 -1.</_>
        <_>
          3 6 3 2 2.</_>
        <_>
          6 8 3 2 2.</_></rects>
      <tilted>0</tilted></_>
    <_>
      <rects>
        <_>
          3 6 4 12 -1.</_>
        <_>
          3 10 4 4 3.</_></rects>
      <tilted>0</tilted></_>
    <_>
      <rects>
        <_>
          3 7 4 4 -1.</_>
        <_>
          3 7 2 2 2.</_>
        <_>
          5 9 2 2 2.</_></rects>
      <tilted>0</tilted></_>
    <_>
      <rects>
        <_>
          3 8 4 4 -1.</_>
        <_>
          3 8 2 2 2.</_>
        <_>
          5 10 2 2 2.</_></rects>
      <tilted>0</tilted></_>
    <_>
      <rects>
        <_>
          3 9 10 10 -1.</_>
        <_>
          3 9 5 5 2.</_>
        <_>
          8 14 5 5 2.</_></rects>
      <tilted>0</tilted></_>
    <_>
      <rects>
        <_>
          3 11 3 2 -1.</_>
        <_>
          4 11 1 2 3.</_></rects>
      <tilted>0</tilted></_>
    <_>
      <rects>
        <_>
          3 11 6 1 -1.</_>
        <_>
          5 11 2 1 3.</_></rects>
      <tilted>0</tilted></_>
    <_>
      <rects>
        <_>
          3 11 4 4 -1.</_>
        <_>
          3 11 2 2 2.</_>
        <_>
          5 13 2 2 2.</_></rects>
      <tilted>0</tilted></_>
    <_>
      <rects>
        <_>
          3 11 12 8 -1.</_>
        <_>
          3 11 6 4 2.</_>
        <_>
          9 15 6 4 2.</_></rects>
      <tilted>0</tilted></_>
    <_>
      <rects>
        <_>
          3 15 6 2 -1.</_>
        <_>
          3 16 6 1 2.</_></rects>
      <tilted>0</tilted></_>
    <_>
      <rects>
        <_>
          3 15 8 3 -1.</_>
        <_>
          3 16 8 1 3.</_></rects>
      <tilted>0</tilted></_>
    <_>
      <rects>
        <_>
          3 18 12 2 -1.</_>
        <_>
          3 19 12 1 2.</_></rects>
      <tilted>0</tilted></_>
    <_>
      <rects>
        <_>
          4 4 5 15 -1.</_>
        <_>
          4 9 5 5 3.</_></rects>
      <tilted>0</tilted></_>
    <_>
      <rects>
        <_>
          4 5 4 6 -1.</_>
        <_>
          4 5 2 3 2.</_>
        <_>
          6 8 2 3 2.</_></rects>
      <tilted>0</tilted></_>
    <_>
      <rects>
        <_>
          4 7 2 5 -1.</_>
        <_>
          5 7 1 5 2.</_></rects>
      <tilted>0</tilted></_>
    <_>
      <rects>
        <_>
          4 7 6 12 -1.</_>
        <_>
          6 7 2 12 3.</_></rects>
      <tilted>0</tilted></_>
    <_>
      <rects>
        <_>
          4 8 2 6 -1.</_>
        <_>
          5 8 1 6 2.</_></rects>
      <tilted>0</tilted></_>
    <_>
      <rects>
        <_>
          4 8 4 12 -1.</_>
        <_>
          4 12 4 4 3.</_></rects>
      <tilted>0</tilted></_>
    <_>
      <rects>
        <_>
          4 8 5 2 -1.</_>
        <_>
          4 9 5 1 2.</_></rects>
      <tilted>0</tilted></_>
    <_>
      <rects>
        <_>
          4 9 2 4 -1.</_>
        <_>
          4 9 1 2 2.</_>
        <_>
          5 11 1 2 2.</_></rects>
      <tilted>0</tilted></_>
    <_>
      <rects>
        <_>
          4 9 8 5 -1.</_>
        <_>
          8 9 4 5 2.</_></rects>
      <tilted>0</tilted></_>
    <_>
      <rects>
        <_>
          4 9 12 5 -1.</_>
        <_>
          10 9 6 5 2.</_></rects>
      <tilted>0</tilted></_>
    <_>
      <rects>
        <_>
          4 10 10 10 -1.</_>
        <_>
          4 10 5 5 2.</_>
        <_>
          9 15 5 5 2.</_></rects>
      <tilted>0</tilted></_>
    <_>
      <rects>
        <_>
          4 12 4 4 -1.</_>
        <_>
          4 12 2 2 2.</_>
        <_>
          6 14 2 2 2.</_></rects>
      <tilted>0</tilted></_>
    <_>
      <rects>
        <_>
          4 12 9 1 -1.</_>
        <_>
          7 12 3 1 3.</_></rects>
      <tilted>0</tilted></_>
    <_>
      <rects>
        <_>
          4 16 15 1 -1.</_>
        <_>
          9 16 5 1 3.</_></rects>
      <tilted>0</tilted></_>
    <_>
      <rects>
        <_>
          4 18 12 2 -1.</_>
        <_>
          4 18 6 1 2.</_>
        <_>
          10 19 6 1 2.</_></rects>
      <tilted>0</tilted></_>
    <_>
      <rects>
        <_>
          4 18 9 2 -1.</_>
        <_>
          4 19 9 1 2.</_></rects>
      <tilted>0</tilted></_>
    <_>
      <rects>
        <_>
          4 18 10 2 -1.</_>
        <_>
          4 19 10 1 2.</_></rects>
      <tilted>0</tilted></_>
    <_>
      <rects>
        <_>
          5 0 3 16 -1.</_>
        <_>
          5 8 3 8 2.</_></rects>
      <tilted>0</tilted></_>
    <_>
      <rects>
        <_>
          5 1 4 14 -1.</_>
        <_>
          5 8 4 7 2.</_></rects>
      <tilted>0</tilted></_>
    <_>
      <rects>
        <_>
          5 2 8 10 -1.</_>
        <_>
          5 2 4 5 2.</_>
        <_>
          9 7 4 5 2.</_></rects>
      <tilted>0</tilted></_>
    <_>
      <rects>
        <_>
          5 2 8 16 -1.</_>
        <_>
          5 10 8 8 2.</_></rects>
      <tilted>0</tilted></_>
    <_>
      <rects>
        <_>
          5 3 8 9 -1.</_>
        <_>
          9 3 4 9 2.</_></rects>
      <tilted>0</tilted></_>
    <_>
      <rects>
        <_>
          5 4 4 4 -1.</_>
        <_>
          5 4 2 2 2.</_>
        <_>
          7 6 2 2 2.</_></rects>
      <tilted>0</tilted></_>
    <_>
      <rects>
        <_>
          5 4 3 15 -1.</_>
        <_>
          5 9 3 5 3.</_></rects>
      <tilted>0</tilted></_>
    <_>
      <rects>
        <_>
          5 4 8 8 -1.</_>
        <_>
          5 4 4 4 2.</_>
        <_>
          9 8 4 4 2.</_></rects>
      <tilted>0</tilted></_>
    <_>
      <rects>
        <_>
          5 4 8 8 -1.</_>
        <_>
          9 4 4 8 2.</_></rects>
      <tilted>0</tilted></_>
    <_>
      <rects>
        <_>
          5 5 2 6 -1.</_>
        <_>
          5 7 2 2 3.</_></rects>
      <tilted>0</tilted></_>
    <_>
      <rects>
        <_>
          5 5 3 12 -1.</_>
        <_>
          5 9 3 4 3.</_></rects>
      <tilted>0</tilted></_>
    <_>
      <rects>
        <_>
          5 5 8 8 -1.</_>
        <_>
          9 5 4 8 2.</_></rects>
      <tilted>0</tilted></_>
    <_>
      <rects>
        <_>
          5 6 2 2 -1.</_>
        <_>
          5 7 2 1 2.</_></rects>
      <tilted>0</tilted></_>
    <_>
      <rects>
        <_>
          5 8 2 6 -1.</_>
        <_>
          5 10 2 2 3.</_></rects>
      <tilted>0</tilted></_>
    <_>
      <rects>
        <_>
          5 8 8 7 -1.</_>
        <_>
          9 8 4 7 2.</_></rects>
      <tilted>0</tilted></_>
    <_>
      <rects>
        <_>
          5 8 5 3 -1.</_>
        <_>
          5 9 5 1 3.</_></rects>
      <tilted>0</tilted></_>
    <_>
      <rects>
        <_>
          5 10 10 2 -1.</_>
        <_>
          10 10 5 2 2.</_></rects>
      <tilted>0</tilted></_>
    <_>
      <rects>
        <_>
          5 10 10 3 -1.</_>
        <_>
          10 10 5 3 2.</_></rects>
      <tilted>0</tilted></_>
    <_>
      <rects>
        <_>
          5 11 2 6 -1.</_>
        <_>
          5 13 2 2 3.</_></rects>
      <tilted>0</tilted></_>
    <_>
      <rects>
        <_>
          5 11 8 2 -1.</_>
        <_>
          5 11 4 1 2.</_>
        <_>
          9 12 4 1 2.</_></rects>
      <tilted>0</tilted></_>
    <_>
      <rects>
        <_>
          5 11 5 6 -1.</_>
        <_>
          5 13 5 2 3.</_></rects>
      <tilted>0</tilted></_>
    <_>
      <rects>
        <_>
          5 12 4 2 -1.</_>
        <_>
          5 12 2 1 2.</_>
        <_>
          7 13 2 1 2.</_></rects>
      <tilted>0</tilted></_>
    <_>
      <rects>
        <_>
          5 12 5 6 -1.</_>
        <_>
          5 14 5 2 3.</_></rects>
      <tilted>0</tilted></_>
    <_>
      <rects>
        <_>
          5 12 12 4 -1.</_>
        <_>
          5 12 6 2 2.</_>
        <_>
          11 14 6 2 2.</_></rects>
      <tilted>0</tilted></_>
    <_>
      <rects>
        <_>
          5 13 2 1 -1.</_>
        <_>
          6 13 1 1 2.</_></rects>
      <tilted>0</tilted></_>
    <_>
      <rects>
        <_>
          5 13 2 3 -1.</_>
        <_>
          5 14 2 1 3.</_></rects>
      <tilted>0</tilted></_>
    <_>
      <rects>
        <_>
          5 13 3 3 -1.</_>
        <_>
          5 14 3 1 3.</_></rects>
      <tilted>0</tilted></_>
    <_>
      <rects>
        <_>
          5 14 4 3 -1.</_>
        <_>
          5 15 4 1 3.</_></rects>
      <tilted>0</tilted></_>
    <_>
      <rects>
        <_>
          5 14 6 3 -1.</_>
        <_>
          5 15 6 1 3.</_></rects>
      <tilted>0</tilted></_>
    <_>
      <rects>
        <_>
          5 15 6 3 -1.</_>
        <_>
          5 16 6 1 3.</_></rects>
      <tilted>0</tilted></_>
    <_>
      <rects>
        <_>
          5 15 8 3 -1.</_>
        <_>
          5 16 8 1 3.</_></rects>
      <tilted>0</tilted></_>
    <_>
      <rects>
        <_>
          5 18 10 2 -1.</_>
        <_>
          5 19 10 1 2.</_></rects>
      <tilted>0</tilted></_>
    <_>
      <rects>
        <_>
          6 2 6 6 -1.</_>
        <_>
          6 5 6 3 2.</_></rects>
      <tilted>0</tilted></_>
    <_>
      <rects>
        <_>
          6 3 5 2 -1.</_>
        <_>
          6 4 5 1 2.</_></rects>
      <tilted>0</tilted></_>
    <_>
      <rects>
        <_>
          6 5 8 2 -1.</_>
        <_>
          10 5 4 2 2.</_></rects>
      <tilted>0</tilted></_>
    <_>
      <rects>
        <_>
          6 6 2 9 -1.</_>
        <_>
          6 9 2 3 3.</_></rects>
      <tilted>0</tilted></_>
    <_>
      <rects>
        <_>
          6 6 8 12 -1.</_>
        <_>
          10 6 4 12 2.</_></rects>
      <tilted>0</tilted></_>
    <_>
      <rects>
        <_>
          6 7 2 6 -1.</_>
        <_>
          6 9 2 2 3.</_></rects>
      <tilted>0</tilted></_>
    <_>
      <rects>
        <_>
          6 7 2 10 -1.</_>
        <_>
          6 12 2 5 2.</_></rects>
      <tilted>0</tilted></_>
    <_>
      <rects>
        <_>
          6 7 8 12 -1.</_>
        <_>
          10 7 4 12 2.</_></rects>
      <tilted>0</tilted></_>
    <_>
      <rects>
        <_>
          6 7 10 8 -1.</_>
        <_>
          11 7 5 8 2.</_></rects>
      <tilted>0</tilted></_>
    <_>
      <rects>
        <_>
          6 8 1 6 -1.</_>
        <_>
          6 10 1 2 3.</_></rects>
      <tilted>0</tilted></_>
    <_>
      <rects>
        <_>
          6 8 1 12 -1.</_>
        <_>
          6 12 1 4 3.</_></rects>
      <tilted>0</tilted></_>
    <_>
      <rects>
        <_>
          6 8 4 4 -1.</_>
        <_>
          6 8 2 2 2.</_>
        <_>
          8 10 2 2 2.</_></rects>
      <tilted>0</tilted></_>
    <_>
      <rects>
        <_>
          6 9 1 6 -1.</_>
        <_>
          6 11 1 2 3.</_></rects>
      <tilted>0</tilted></_>
    <_>
      <rects>
        <_>
          6 9 4 4 -1.</_>
        <_>
          6 9 2 2 2.</_>
        <_>
          8 11 2 2 2.</_></rects>
      <tilted>0</tilted></_>
    <_>
      <rects>
        <_>
          6 10 2 2 -1.</_>
        <_>
          6 10 1 1 2.</_>
        <_>
          7 11 1 1 2.</_></rects>
      <tilted>0</tilted></_>
    <_>
      <rects>
        <_>
          6 10 8 4 -1.</_>
        <_>
          10 10 4 4 2.</_></rects>
      <tilted>0</tilted></_>
    <_>
      <rects>
        <_>
          6 11 4 2 -1.</_>
        <_>
          6 11 2 1 2.</_>
        <_>
          8 12 2 1 2.</_></rects>
      <tilted>0</tilted></_>
    <_>
      <rects>
        <_>
          6 11 6 2 -1.</_>
        <_>
          8 11 2 2 3.</_></rects>
      <tilted>0</tilted></_>
    <_>
      <rects>
        <_>
          6 11 5 4 -1.</_>
        <_>
          6 13 5 2 2.</_></rects>
      <tilted>0</tilted></_>
    <_>
      <rects>
        <_>
          6 12 2 3 -1.</_>
        <_>
          6 13 2 1 3.</_></rects>
      <tilted>0</tilted></_>
    <_>
      <rects>
        <_>
          6 12 3 6 -1.</_>
        <_>
          6 14 3 2 3.</_></rects>
      <tilted>0</tilted></_>
    <_>
      <rects>
        <_>
          6 12 12 1 -1.</_>
        <_>
          10 12 4 1 3.</_></rects>
      <tilted>0</tilted></_>
    <_>
      <rects>
        <_>
          6 13 2 3 -1.</_>
        <_>
          6 14 2 1 3.</_></rects>
      <tilted>0</tilted></_>
    <_>
      <rects>
        <_>
          6 14 3 3 -1.</_>
        <_>
          6 15 3 1 3.</_></rects>
      <tilted>0</tilted></_>
    <_>
      <rects>
        <_>
          6 15 5 3 -1.</_>
        <_>
          6 16 5 1 3.</_></rects>
      <tilted>0</tilted></_>
    <_>
      <rects>
        <_>
          6 16 14 3 -1.</_>
        <_>
          13 16 7 3 2.</_></rects>
      <tilted>0</tilted></_>
    <_>
      <rects>
        <_>
          6 16 9 4 -1.</_>
        <_>
          6 18 9 2 2.</_></rects>
      <tilted>0</tilted></_>
    <_>
      <rects>
        <_>
          6 18 8 2 -1.</_>
        <_>
          6 19 8 1 2.</_></rects>
      <tilted>0</tilted></_>
    <_>
      <rects>
        <_>
          6 18 10 2 -1.</_>
        <_>
          6 19 10 1 2.</_></rects>
      <tilted>0</tilted></_>
    <_>
      <rects>
        <_>
          7 2 2 14 -1.</_>
        <_>
          7 9 2 7 2.</_></rects>
      <tilted>0</tilted></_>
    <_>
      <rects>
        <_>
          7 2 8 16 -1.</_>
        <_>
          7 2 4 8 2.</_>
        <_>
          11 10 4 8 2.</_></rects>
      <tilted>0</tilted></_>
    <_>
      <rects>
        <_>
          7 3 4 3 -1.</_>
        <_>
          7 4 4 1 3.</_></rects>
      <tilted>0</tilted></_>
    <_>
      <rects>
        <_>
          7 4 3 14 -1.</_>
        <_>
          7 11 3 7 2.</_></rects>
      <tilted>0</tilted></_>
    <_>
      <rects>
        <_>
          7 7 10 6 -1.</_>
        <_>
          7 7 5 3 2.</_>
        <_>
          12 10 5 3 2.</_></rects>
      <tilted>0</tilted></_>
    <_>
      <rects>
        <_>
          7 9 8 11 -1.</_>
        <_>
          11 9 4 11 2.</_></rects>
      <tilted>0</tilted></_>
    <_>
      <rects>
        <_>
          7 10 4 2 -1.</_>
        <_>
          9 10 2 2 2.</_></rects>
      <tilted>0</tilted></_>
    <_>
      <rects>
        <_>
          7 10 6 2 -1.</_>
        <_>
          9 10 2 2 3.</_></rects>
      <tilted>0</tilted></_>
    <_>
      <rects>
        <_>
          7 10 2 6 -1.</_>
        <_>
          7 12 2 2 3.</_></rects>
      <tilted>0</tilted></_>
    <_>
      <rects>
        <_>
          7 10 4 4 -1.</_>
        <_>
          7 10 2 2 2.</_>
        <_>
          9 12 2 2 2.</_></rects>
      <tilted>0</tilted></_>
    <_>
      <rects>
        <_>
          7 10 6 3 -1.</_>
        <_>
          9 10 2 3 3.</_></rects>
      <tilted>0</tilted></_>
    <_>
      <rects>
        <_>
          7 10 6 4 -1.</_>
        <_>
          9 10 2 4 3.</_></rects>
      <tilted>0</tilted></_>
    <_>
      <rects>
        <_>
          7 10 3 6 -1.</_>
        <_>
          7 12 3 2 3.</_></rects>
      <tilted>0</tilted></_>
    <_>
      <rects>
        <_>
          7 11 6 2 -1.</_>
        <_>
          9 11 2 2 3.</_></rects>
      <tilted>0</tilted></_>
    <_>
      <rects>
        <_>
          7 11 5 8 -1.</_>
        <_>
          7 15 5 4 2.</_></rects>
      <tilted>0</tilted></_>
    <_>
      <rects>
        <_>
          7 11 7 8 -1.</_>
        <_>
          7 15 7 4 2.</_></rects>
      <tilted>0</tilted></_>
    <_>
      <rects>
        <_>
          7 12 4 4 -1.</_>
        <_>
          7 12 2 2 2.</_>
        <_>
          9 14 2 2 2.</_></rects>
      <tilted>0</tilted></_>
    <_>
      <rects>
        <_>
          7 14 6 2 -1.</_>
        <_>
          7 14 3 1 2.</_>
        <_>
          10 15 3 1 2.</_></rects>
      <tilted>0</tilted></_>
    <_>
      <rects>
        <_>
          7 14 6 6 -1.</_>
        <_>
          7 16 6 2 3.</_></rects>
      <tilted>0</tilted></_>
    <_>
      <rects>
        <_>
          7 15 2 3 -1.</_>
        <_>
          7 16 2 1 3.</_></rects>
      <tilted>0</tilted></_>
    <_>
      <rects>
        <_>
          7 15 8 2 -1.</_>
        <_>
          7 15 4 1 2.</_>
        <_>
          11 16 4 1 2.</_></rects>
      <tilted>0</tilted></_>
    <_>
      <rects>
        <_>
          7 18 11 2 -1.</_>
        <_>
          7 19 11 1 2.</_></rects>
      <tilted>0</tilted></_>
    <_>
      <rects>
        <_>
          8 0 6 4 -1.</_>
        <_>
          8 2 6 2 2.</_></rects>
      <tilted>0</tilted></_>
    <_>
      <rects>
        <_>
          8 3 3 3 -1.</_>
        <_>
          9 3 1 3 3.</_></rects>
      <tilted>0</tilted></_>
    <_>
      <rects>
        <_>
          8 3 4 4 -1.</_>
        <_>
          8 5 4 2 2.</_></rects>
      <tilted>0</tilted></_>
    <_>
      <rects>
        <_>
          8 4 4 9 -1.</_>
        <_>
          8 7 4 3 3.</_></rects>
      <tilted>0</tilted></_>
    <_>
      <rects>
        <_>
          8 4 6 3 -1.</_>
        <_>
          8 5 6 1 3.</_></rects>
      <tilted>0</tilted></_>
    <_>
      <rects>
        <_>
          8 5 3 1 -1.</_>
        <_>
          9 5 1 1 3.</_></rects>
      <tilted>0</tilted></_>
    <_>
      <rects>
        <_>
          8 5 3 2 -1.</_>
        <_>
          9 5 1 2 3.</_></rects>
      <tilted>0</tilted></_>
    <_>
      <rects>
        <_>
          8 9 9 9 -1.</_>
        <_>
          11 9 3 9 3.</_></rects>
      <tilted>0</tilted></_>
    <_>
      <rects>
        <_>
          8 9 7 10 -1.</_>
        <_>
          8 14 7 5 2.</_></rects>
      <tilted>0</tilted></_>
    <_>
      <rects>
        <_>
          8 10 2 6 -1.</_>
        <_>
          8 12 2 2 3.</_></rects>
      <tilted>0</tilted></_>
    <_>
      <rects>
        <_>
          8 10 4 9 -1.</_>
        <_>
          10 10 2 9 2.</_></rects>
      <tilted>0</tilted></_>
    <_>
      <rects>
        <_>
          8 11 4 4 -1.</_>
        <_>
          8 11 2 2 2.</_>
        <_>
          10 13 2 2 2.</_></rects>
      <tilted>0</tilted></_>
    <_>
      <rects>
        <_>
          8 11 8 6 -1.</_>
        <_>
          12 11 4 6 2.</_></rects>
      <tilted>0</tilted></_>
    <_>
      <rects>
        <_>
          8 12 6 4 -1.</_>
        <_>
          8 12 3 2 2.</_>
        <_>
          11 14 3 2 2.</_></rects>
      <tilted>0</tilted></_>
    <_>
      <rects>
        <_>
          8 14 5 6 -1.</_>
        <_>
          8 16 5 2 3.</_></rects>
      <tilted>0</tilted></_>
    <_>
      <rects>
        <_>
          8 14 6 6 -1.</_>
        <_>
          8 16 6 2 3.</_></rects>
      <tilted>0</tilted></_>
    <_>
      <rects>
        <_>
          8 15 2 2 -1.</_>
        <_>
          8 15 1 1 2.</_>
        <_>
          9 16 1 1 2.</_></rects>
      <tilted>0</tilted></_>
    <_>
      <rects>
        <_>
          8 15 4 2 -1.</_>
        <_>
          8 15 2 1 2.</_>
        <_>
          10 16 2 1 2.</_></rects>
      <tilted>0</tilted></_>
    <_>
      <rects>
        <_>
          8 15 3 3 -1.</_>
        <_>
          8 16 3 1 3.</_></rects>
      <tilted>0</tilted></_>
    <_>
      <rects>
        <_>
          8 16 1 3 -1.</_>
        <_>
          8 17 1 1 3.</_></rects>
      <tilted>0</tilted></_>
    <_>
      <rects>
        <_>
          8 16 6 2 -1.</_>
        <_>
          8 16 3 1 2.</_>
        <_>
          11 17 3 1 2.</_></rects>
      <tilted>0</tilted></_>
    <_>
      <rects>
        <_>
          9 2 4 6 -1.</_>
        <_>
          9 4 4 2 3.</_></rects>
      <tilted>0</tilted></_>
    <_>
      <rects>
        <_>
          9 2 10 5 -1.</_>
        <_>
          14 2 5 5 2.</_></rects>
      <tilted>0</tilted></_>
    <_>
      <rects>
        <_>
          9 3 2 3 -1.</_>
        <_>
          9 4 2 1 3.</_></rects>
      <tilted>0</tilted></_>
    <_>
      <rects>
        <_>
          9 6 4 6 -1.</_>
        <_>
          9 6 2 3 2.</_>
        <_>
          11 9 2 3 2.</_></rects>
      <tilted>0</tilted></_>
    <_>
      <rects>
        <_>
          9 6 8 10 -1.</_>
        <_>
          9 6 4 5 2.</_>
        <_>
          13 11 4 5 2.</_></rects>
      <tilted>0</tilted></_>
    <_>
      <rects>
        <_>
          9 9 4 10 -1.</_>
        <_>
          9 14 4 5 2.</_></rects>
      <tilted>0</tilted></_>
    <_>
      <rects>
        <_>
          9 10 3 2 -1.</_>
        <_>
          10 10 1 2 3.</_></rects>
      <tilted>0</tilted></_>
    <_>
      <rects>
        <_>
          9 10 3 4 -1.</_>
        <_>
          10 10 1 4 3.</_></rects>
      <tilted>0</tilted></_>
    <_>
      <rects>
        <_>
          9 10 4 3 -1.</_>
        <_>
          11 10 2 3 2.</_></rects>
      <tilted>0</tilted></_>
    <_>
      <rects>
        <_>
          9 11 3 3 -1.</_>
        <_>
          9 12 3 1 3.</_></rects>
      <tilted>0</tilted></_>
    <_>
      <rects>
        <_>
          9 11 8 1 -1.</_>
        <_>
          13 11 4 1 2.</_></rects>
      <tilted>0</tilted></_>
    <_>
      <rects>
        <_>
          9 12 6 4 -1.</_>
        <_>
          9 12 3 2 2.</_>
        <_>
          12 14 3 2 2.</_></rects>
      <tilted>0</tilted></_>
    <_>
      <rects>
        <_>
          9 12 4 2 -1.</_>
        <_>
          9 13 4 1 2.</_></rects>
      <tilted>0</tilted></_>
    <_>
      <rects>
        <_>
          9 13 7 6 -1.</_>
        <_>
          9 16 7 3 2.</_></rects>
      <tilted>0</tilted></_>
    <_>
      <rects>
        <_>
          9 14 8 2 -1.</_>
        <_>
          9 14 4 1 2.</_>
        <_>
          13 15 4 1 2.</_></rects>
      <tilted>0</tilted></_>
    <_>
      <rects>
        <_>
          9 14 4 6 -1.</_>
        <_>
          9 16 4 2 3.</_></rects>
      <tilted>0</tilted></_>
    <_>
      <rects>
        <_>
          9 14 5 6 -1.</_>
        <_>
          9 16 5 2 3.</_></rects>
      <tilted>0</tilted></_>
    <_>
      <rects>
        <_>
          9 16 1 2 -1.</_>
        <_>
          9 17 1 1 2.</_></rects>
      <tilted>0</tilted></_>
    <_>
      <rects>
        <_>
          9 16 2 2 -1.</_>
        <_>
          9 16 1 1 2.</_>
        <_>
          10 17 1 1 2.</_></rects>
      <tilted>0</tilted></_>
    <_>
      <rects>
        <_>
          9 17 3 1 -1.</_>
        <_>
          10 17 1 1 3.</_></rects>
      <tilted>0</tilted></_>
    <_>
      <rects>
        <_>
          9 17 6 2 -1.</_>
        <_>
          9 17 3 1 2.</_>
        <_>
          12 18 3 1 2.</_></rects>
      <tilted>0</tilted></_>
    <_>
      <rects>
        <_>
          10 3 3 10 -1.</_>
        <_>
          10 8 3 5 2.</_></rects>
      <tilted>0</tilted></_>
    <_>
      <rects>
        <_>
          10 5 3 1 -1.</_>
        <_>
          11 5 1 1 3.</_></rects>
      <tilted>0</tilted></_>
    <_>
      <rects>
        <_>
          10 6 4 6 -1.</_>
        <_>
          10 9 4 3 2.</_></rects>
      <tilted>0</tilted></_>
    <_>
      <rects>
        <_>
          10 8 3 5 -1.</_>
        <_>
          11 8 1 5 3.</_></rects>
      <tilted>0</tilted></_>
    <_>
      <rects>
        <_>
          10 8 7 6 -1.</_>
        <_>
          10 10 7 2 3.</_></rects>
      <tilted>0</tilted></_>
    <_>
      <rects>
        <_>
          10 9 6 5 -1.</_>
        <_>
          13 9 3 5 2.</_></rects>
      <tilted>0</tilted></_>
    <_>
      <rects>
        <_>
          10 9 6 7 -1.</_>
        <_>
          13 9 3 7 2.</_></rects>
      <tilted>0</tilted></_>
    <_>
      <rects>
        <_>
          10 9 5 6 -1.</_>
        <_>
          10 11 5 2 3.</_></rects>
      <tilted>0</tilted></_>
    <_>
      <rects>
        <_>
          10 11 4 4 -1.</_>
        <_>
          10 11 2 2 2.</_>
        <_>
          12 13 2 2 2.</_></rects>
      <tilted>0</tilted></_>
    <_>
      <rects>
        <_>
          10 14 1 6 -1.</_>
        <_>
          10 16 1 2 3.</_></rects>
      <tilted>0</tilted></_>
    <_>
      <rects>
        <_>
          10 14 6 2 -1.</_>
        <_>
          10 14 3 1 2.</_>
        <_>
          13 15 3 1 2.</_></rects>
      <tilted>0</tilted></_>
    <_>
      <rects>
        <_>
          10 14 3 6 -1.</_>
        <_>
          10 16 3 2 3.</_></rects>
      <tilted>0</tilted></_>
    <_>
      <rects>
        <_>
          10 15 10 4 -1.</_>
        <_>
          15 15 5 4 2.</_></rects>
      <tilted>0</tilted></_>
    <_>
      <rects>
        <_>
          10 16 2 2 -1.</_>
        <_>
          10 16 1 1 2.</_>
        <_>
          11 17 1 1 2.</_></rects>
      <tilted>0</tilted></_>
    <_>
      <rects>
        <_>
          11 5 3 1 -1.</_>
        <_>
          12 5 1 1 3.</_></rects>
      <tilted>0</tilted></_>
    <_>
      <rects>
        <_>
          11 7 6 12 -1.</_>
        <_>
          11 7 3 6 2.</_>
        <_>
          14 13 3 6 2.</_></rects>
      <tilted>0</tilted></_>
    <_>
      <rects>
        <_>
          11 10 1 2 -1.</_>
        <_>
          11 11 1 1 2.</_></rects>
      <tilted>0</tilted></_>
    <_>
      <rects>
        <_>
          11 11 1 8 -1.</_>
        <_>
          11 15 1 4 2.</_></rects>
      <tilted>0</tilted></_>
    <_>
      <rects>
        <_>
          11 12 1 6 -1.</_>
        <_>
          11 15 1 3 2.</_></rects>
      <tilted>0</tilted></_>
    <_>
      <rects>
        <_>
          11 12 4 6 -1.</_>
        <_>
          13 12 2 6 2.</_></rects>
      <tilted>0</tilted></_>
    <_>
      <rects>
        <_>
          11 12 3 6 -1.</_>
        <_>
          11 14 3 2 3.</_></rects>
      <tilted>0</tilted></_>
    <_>
      <rects>
        <_>
          11 14 3 2 -1.</_>
        <_>
          11 15 3 1 2.</_></rects>
      <tilted>0</tilted></_>
    <_>
      <rects>
        <_>
          11 14 6 2 -1.</_>
        <_>
          11 14 3 1 2.</_>
        <_>
          14 15 3 1 2.</_></rects>
      <tilted>0</tilted></_>
    <_>
      <rects>
        <_>
          11 15 2 2 -1.</_>
        <_>
          11 15 1 1 2.</_>
        <_>
          12 16 1 1 2.</_></rects>
      <tilted>0</tilted></_>
    <_>
      <rects>
        <_>
          11 16 2 2 -1.</_>
        <_>
          11 16 1 1 2.</_>
        <_>
          12 17 1 1 2.</_></rects>
      <tilted>0</tilted></_>
    <_>
      <rects>
        <_>
          11 18 8 2 -1.</_>
        <_>
          11 19 8 1 2.</_></rects>
      <tilted>0</tilted></_>
    <_>
      <rects>
        <_>
          12 0 1 12 -1.</_>
        <_>
          12 4 1 4 3.</_></rects>
      <tilted>0</tilted></_>
    <_>
      <rects>
        <_>
          12 1 2 14 -1.</_>
        <_>
          12 1 1 7 2.</_>
        <_>
          13 8 1 7 2.</_></rects>
      <tilted>0</tilted></_>
    <_>
      <rects>
        <_>
          12 7 2 4 -1.</_>
        <_>
          13 7 1 4 2.</_></rects>
      <tilted>0</tilted></_>
    <_>
      <rects>
        <_>
          12 7 3 4 -1.</_>
        <_>
          13 7 1 4 3.</_></rects>
      <tilted>0</tilted></_>
    <_>
      <rects>
        <_>
          12 8 3 2 -1.</_>
        <_>
          13 8 1 2 3.</_></rects>
      <tilted>0</tilted></_>
    <_>
      <rects>
        <_>
          12 12 2 6 -1.</_>
        <_>
          12 14 2 2 3.</_></rects>
      <tilted>0</tilted></_>
    <_>
      <rects>
        <_>
          12 12 6 8 -1.</_>
        <_>
          12 12 3 4 2.</_>
        <_>
          15 16 3 4 2.</_></rects>
      <tilted>0</tilted></_>
    <_>
      <rects>
        <_>
          12 12 8 6 -1.</_>
        <_>
          12 12 4 3 2.</_>
        <_>
          16 15 4 3 2.</_></rects>
      <tilted>0</tilted></_>
    <_>
      <rects>
        <_>
          12 13 4 2 -1.</_>
        <_>
          14 13 2 2 2.</_></rects>
      <tilted>0</tilted></_>
    <_>
      <rects>
        <_>
          12 13 3 6 -1.</_>
        <_>
          12 16 3 3 2.</_></rects>
      <tilted>0</tilted></_>
    <_>
      <rects>
        <_>
          12 16 2 2 -1.</_>
        <_>
          12 16 1 1 2.</_>
        <_>
          13 17 1 1 2.</_></rects>
      <tilted>0</tilted></_>
    <_>
      <rects>
        <_>
          12 17 2 2 -1.</_>
        <_>
          12 17 1 1 2.</_>
        <_>
          13 18 1 1 2.</_></rects>
      <tilted>0</tilted></_>
    <_>
      <rects>
        <_>
          13 3 4 17 -1.</_>
        <_>
          15 3 2 17 2.</_></rects>
      <tilted>0</tilted></_>
    <_>
      <rects>
        <_>
          13 4 6 10 -1.</_>
        <_>
          15 4 2 10 3.</_></rects>
      <tilted>0</tilted></_>
    <_>
      <rects>
        <_>
          13 5 4 6 -1.</_>
        <_>
          13 5 2 3 2.</_>
        <_>
          15 8 2 3 2.</_></rects>
      <tilted>0</tilted></_>
    <_>
      <rects>
        <_>
          13 7 6 5 -1.</_>
        <_>
          15 7 2 5 3.</_></rects>
      <tilted>0</tilted></_>
    <_>
      <rects>
        <_>
          13 8 4 12 -1.</_>
        <_>
          13 12 4 4 3.</_></rects>
      <tilted>0</tilted></_>
    <_>
      <rects>
        <_>
          13 10 3 3 -1.</_>
        <_>
          14 10 1 3 3.</_></rects>
      <tilted>0</tilted></_>
    <_>
      <rects>
        <_>
          13 11 2 4 -1.</_>
        <_>
          13 11 1 2 2.</_>
        <_>
          14 13 1 2 2.</_></rects>
      <tilted>0</tilted></_>
    <_>
      <rects>
        <_>
          13 11 2 6 -1.</_>
        <_>
          13 11 1 3 2.</_>
        <_>
          14 14 1 3 2.</_></rects>
      <tilted>0</tilted></_>
    <_>
      <rects>
        <_>
          13 16 4 4 -1.</_>
        <_>
          13 18 4 2 2.</_></rects>
      <tilted>0</tilted></_>
    <_>
      <rects>
        <_>
          14 3 6 16 -1.</_>
        <_>
          17 3 3 16 2.</_></rects>
      <tilted>0</tilted></_>
    <_>
      <rects>
        <_>
          14 4 3 3 -1.</_>
        <_>
          14 5 3 1 3.</_></rects>
      <tilted>0</tilted></_>
    <_>
      <rects>
        <_>
          14 8 3 4 -1.</_>
        <_>
          15 8 1 4 3.</_></rects>
      <tilted>0</tilted></_>
    <_>
      <rects>
        <_>
          14 9 3 3 -1.</_>
        <_>
          15 9 1 3 3.</_></rects>
      <tilted>0</tilted></_>
    <_>
      <rects>
        <_>
          14 9 1 9 -1.</_>
        <_>
          14 12 1 3 3.</_></rects>
      <tilted>0</tilted></_>
    <_>
      <rects>
        <_>
          14 9 6 4 -1.</_>
        <_>
          16 9 2 4 3.</_></rects>
      <tilted>0</tilted></_>
    <_>
      <rects>
        <_>
          14 10 3 2 -1.</_>
        <_>
          15 10 1 2 3.</_></rects>
      <tilted>0</tilted></_>
    <_>
      <rects>
        <_>
          14 11 1 6 -1.</_>
        <_>
          14 13 1 2 3.</_></rects>
      <tilted>0</tilted></_>
    <_>
      <rects>
        <_>
          16 0 2 18 -1.</_>
        <_>
          16 9 2 9 2.</_></rects>
      <tilted>0</tilted></_>
    <_>
      <rects>
        <_>
          16 10 3 3 -1.</_>
        <_>
          17 10 1 3 3.</_></rects>
      <tilted>0</tilted></_></features></cascade>
</opencv_storage>
